{"name": "tree", "version": "v4", "num_class": 1, "num_tree_per_iteration": 1, "label_index": 0, "max_feature_idx": 61, "objective": "binary sigmoid:1", "average_output": false, "feature_names": ["Column_0", "Column_1", "Column_2", "Column_3", "Column_4", "Column_5", "Column_6", "Column_7", "Column_8", "Column_9", "Column_10", "Column_11", "Column_12", "Column_13", "Column_14", "Column_15", "Column_16", "Column_17", "Column_18", "Column_19", "Column_20", "Column_21", "Column_22", "Column_23", "Column_24", "Column_25", "Column_26", "Column_27", "Column_28", "Column_29", "Column_30", "Column_31", "Column_32", "Column_33", "Column_34", "Column_35", "Column_36", "Column_37", "Column_38", "Column_39", "Column_40", "Column_41", "Column_42", "Column_43", "Column_44", "Column_45", "Column_46", "Column_47", "Column_48", "Column_49", "Column_50", "Column_51", "Column_52", "Column_53", "Column_54", "Column_55", "Column_56", "Column_57", "Column_58", "Column_59", "Column_60", "Column_61"], "monotone_constraints": [], "feature_infos": {"Column_0": {"min_value": 0, "max_value": 1, "values": []}, "Column_1": {"min_value": 0, "max_value": 1, "values": []}, "Column_2": {"min_value": 0, "max_value": 1, "values": []}, "Column_3": {"min_value": 0, "max_value": 1, "values": []}, "Column_4": {"min_value": 0, "max_value": 1, "values": []}, "Column_5": {"min_value": 0, "max_value": 1, "values": []}, "Column_6": {"min_value": 0, "max_value": 1, "values": []}, "Column_7": {"min_value": 0, "max_value": 1, "values": []}, "Column_8": {"min_value": 0, "max_value": 1, "values": []}, "Column_9": {"min_value": 0, "max_value": 1, "values": []}, "Column_10": {"min_value": 0, "max_value": 1, "values": []}, "Column_11": {"min_value": 0, "max_value": 1, "values": []}, "Column_12": {"min_value": 0, "max_value": 1, "values": []}, "Column_13": {"min_value": 0, "max_value": 1, "values": []}, "Column_14": {"min_value": 0, "max_value": 1, "values": []}, "Column_15": {"min_value": 0, "max_value": 1, "values": []}, "Column_16": {"min_value": 0, "max_value": 1, "values": []}, "Column_17": {"min_value": 0, "max_value": 1, "values": []}, "Column_18": {"min_value": 0, "max_value": 1, "values": []}, "Column_19": {"min_value": 0, "max_value": 1, "values": []}, "Column_20": {"min_value": 0, "max_value": 1, "values": []}, "Column_21": {"min_value": 0, "max_value": 1, "values": []}, "Column_22": {"min_value": 0, "max_value": 1, "values": []}, "Column_23": {"min_value": 0, "max_value": 1, "values": []}, "Column_24": {"min_value": 0, "max_value": 1, "values": []}, "Column_25": {"min_value": 0, "max_value": 1, "values": []}, "Column_26": {"min_value": 0, "max_value": 1, "values": []}, "Column_27": {"min_value": 0, "max_value": 1, "values": []}, "Column_28": {"min_value": 0, "max_value": 1, "values": []}, "Column_29": {"min_value": 0, "max_value": 1, "values": []}, "Column_30": {"min_value": 0, "max_value": 1, "values": []}, "Column_31": {"min_value": 0, "max_value": 1, "values": []}, "Column_32": {"min_value": 0, "max_value": 1, "values": []}, "Column_33": {"min_value": 0, "max_value": 1, "values": []}, "Column_34": {"min_value": 0, "max_value": 1, "values": []}, "Column_35": {"min_value": 0, "max_value": 1, "values": []}, "Column_36": {"min_value": 0, "max_value": 1, "values": []}, "Column_37": {"min_value": 0, "max_value": 1, "values": []}, "Column_38": {"min_value": 0, "max_value": 1, "values": []}, "Column_39": {"min_value": 0, "max_value": 1, "values": []}, "Column_40": {"min_value": 0, "max_value": 1, "values": []}, "Column_41": {"min_value": 0, "max_value": 1, "values": []}, "Column_42": {"min_value": 0, "max_value": 1, "values": []}, "Column_43": {"min_value": 0, "max_value": 1, "values": []}, "Column_44": {"min_value": 0, "max_value": 1, "values": []}, "Column_45": {"min_value": 0, "max_value": 1, "values": []}, "Column_46": {"min_value": 0, "max_value": 1, "values": []}, "Column_47": {"min_value": 0, "max_value": 1, "values": []}, "Column_48": {"min_value": 0, "max_value": 1, "values": []}, "Column_49": {"min_value": 0, "max_value": 1, "values": []}, "Column_50": {"min_value": 0, "max_value": 1, "values": []}, "Column_51": {"min_value": 0, "max_value": 1, "values": []}, "Column_53": {"min_value": 0, "max_value": 1, "values": []}, "Column_54": {"min_value": 0, "max_value": 1, "values": []}, "Column_55": {"min_value": 0, "max_value": 1, "values": []}, "Column_56": {"min_value": 0, "max_value": 1, "values": []}, "Column_57": {"min_value": 0, "max_value": 1, "values": []}, "Column_58": {"min_value": 0, "max_value": 1, "values": []}, "Column_59": {"min_value": 0, "max_value": 1, "values": []}, "Column_60": {"min_value": 0, "max_value": 1, "values": []}, "Column_61": {"min_value": 0, "max_value": 1, "values": []}}, "tree_info": [{"tree_index": 0, "num_leaves": 3, "num_cat": 0, "shrinkage": 1, "tree_structure": {"split_index": 0, "split_feature": 61, "split_gain": 26886100, "threshold": 1.0000000180025095e-35, "decision_type": "<=", "default_left": true, "missing_type": "None", "internal_value": 0.0676547, "internal_weight": 0, "internal_count": 26886144, "left_child": {"split_index": 1, "split_feature": 15, "split_gain": 1.8626500342122654e-09, "threshold": 1.0000000180025095e-35, "decision_type": "<=", "default_left": true, "missing_type": "None", "internal_value": -0.139345, "internal_weight": 3243410, "internal_count": 12988502, "left_child": {"leaf_index": 0, "leaf_value": -0.13934488760329491, "leaf_weight": 1950616.3701728135, "leaf_count": 7811397}, "right_child": {"leaf_index": 2, "leaf_value": -0.13934488760329491, "leaf_weight": 1292796.3798413426, "leaf_count": 5177105}}, "right_child": {"leaf_index": 1, "leaf_value": 0.2611129942972838, "leaf_weight": 3470437.8732768595, "leaf_count": 13897642}}}, {"tree_index": 1, "num_leaves": 4, "num_cat": 0, "shrinkage": 0.1, "tree_structure": {"split_index": 0, "split_feature": 61, "split_gain": 22002900, "threshold": 1.0000000180025095e-35, "decision_type": "<=", "default_left": true, "missing_type": "None", "internal_value": 0, "internal_weight": 0, "internal_count": 26886144, "left_child": {"split_index": 2, "split_feature": 42, "split_gain": 1.8626500342122654e-09, "threshold": 1.0000000180025095e-35, "decision_type": "<=", "default_left": true, "missing_type": "None", "internal_value": -0.186993, "internal_weight": 3231410, "internal_count": 12988502, "left_child": {"leaf_index": 0, "leaf_value": -0.18699279433839333, "leaf_weight": 3202106.5008443, "leaf_count": 12870702}, "right_child": {"leaf_index": 3, "leaf_value": -0.18699279433839333, "leaf_weight": 29307.503646612167, "leaf_count": 117800}}, "right_child": {"split_index": 1, "split_feature": 10, "split_gain": 1.8626500342122654e-09, "threshold": 1.0000000180025095e-35, "decision_type": "<=", "default_left": true, "missing_type": "None", "internal_value": 0.177019, "internal_weight": 3415860, "internal_count": 13897642, "left_child": {"leaf_index": 1, "leaf_value": 0.17701938474277468, "leaf_weight": 322666.5828734189, "leaf_count": 1312791}, "right_child": {"leaf_index": 2, "leaf_value": 0.17701938474277468, "leaf_weight": 3093189.142933741, "leaf_count": 12584851}}}}, {"tree_index": 2, "num_leaves": 4, "num_cat": 0, "shrinkage": 0.1, "tree_structure": {"split_index": 0, "split_feature": 61, "split_gain": 18339300, "threshold": 1.0000000180025095e-35, "decision_type": "<=", "default_left": true, "missing_type": "None", "internal_value": 0, "internal_weight": 0, "internal_count": 26886144, "left_child": {"split_index": 1, "split_feature": 14, "split_gain": 1.8626500342122654e-09, "threshold": 1.0000000180025095e-35, "decision_type": "<=", "default_left": true, "missing_type": "None", "internal_value": -0.172156, "internal_weight": 3162190, "internal_count": 12988502, "left_child": {"split_index": 2, "split_feature": 36, "split_gain": 9.313230187046884e-10, "threshold": 1.0000000180025095e-35, "decision_type": "<=", "default_left": true, "missing_type": "None", "internal_value": -0.172156, "internal_weight": 1891950, "internal_count": 7771087, "left_child": {"leaf_index": 0, "leaf_value": -0.17215615679137208, "leaf_weight": 194574.247846663, "leaf_count": 799203}, "right_child": {"leaf_index": 3, "leaf_value": -0.17215615679137208, "leaf_weight": 1697377.3689215183, "leaf_count": 6971884}}, "right_child": {"leaf_index": 2, "leaf_value": -0.17215615679137208, "leaf_weight": 1270233.7195041776, "leaf_count": 5217415}}, "right_child": {"leaf_index": 1, "leaf_value": 0.16452403749592193, "leaf_weight": 3312866.4704147875, "leaf_count": 13897642}}}, {"tree_index": 3, "num_leaves": 3, "num_cat": 0, "shrinkage": 0.1, "tree_structure": {"split_index": 0, "split_feature": 61, "split_gain": 15496700, "threshold": 1.0000000180025095e-35, "decision_type": "<=", "default_left": true, "missing_type": "None", "internal_value": 0, "internal_weight": 0, "internal_count": 26886144, "left_child": {"leaf_index": 0, "leaf_value": -0.1607444981004196, "leaf_weight": 3053470.6439120173, "leaf_count": 12988502}, "right_child": {"split_index": 1, "split_feature": 2, "split_gain": 9.313230187046884e-10, "threshold": 1.0000000180025095e-35, "decision_type": "<=", "default_left": true, "missing_type": "None", "internal_value": 0.154736, "internal_weight": 3177100, "internal_count": 13897642, "left_child": {"leaf_index": 1, "leaf_value": 0.15473557461505355, "leaf_weight": 2139633.6567447335, "leaf_count": 9359445}, "right_child": {"leaf_index": 2, "leaf_value": 0.15473557461505355, "leaf_weight": 1037463.1233089119, "leaf_count": 4538197}}}}, {"tree_index": 4, "num_leaves": 5, "num_cat": 0, "shrinkage": 0.1, "tree_structure": {"split_index": 0, "split_feature": 61, "split_gain": 13234700, "threshold": 1.0000000180025095e-35, "decision_type": "<=", "default_left": true, "missing_type": "None", "internal_value": 0, "internal_weight": 0, "internal_count": 26886144, "left_child": {"split_index": 1, "split_feature": 1, "split_gain": 9.313230187046884e-10, "threshold": 1.0000000180025095e-35, "decision_type": "<=", "default_left": true, "missing_type": "None", "internal_value": -0.151725, "internal_weight": 2918390, "internal_count": 12988502, "left_child": {"split_index": 3, "split_feature": 39, "split_gain": 1.1641500263781523e-10, "threshold": 1.0000000180025095e-35, "decision_type": "<=", "default_left": true, "missing_type": "None", "internal_value": -0.151725, "internal_weight": 294472, "internal_count": 1310568, "left_child": {"leaf_index": 0, "leaf_value": -0.15172451846246215, "leaf_weight": 247367.7248493731, "leaf_count": 1100926}, "right_child": {"leaf_index": 4, "leaf_value": -0.15172451846246215, "leaf_weight": 47104.58702298999, "leaf_count": 209642}}, "right_child": {"leaf_index": 2, "leaf_value": -0.15172451846246215, "leaf_weight": 2623922.011580378, "leaf_count": 11677934}}, "right_child": {"split_index": 2, "split_feature": 32, "split_gain": 9.313230187046884e-10, "threshold": 1.0000000180025095e-35, "decision_type": "<=", "default_left": true, "missing_type": "None", "internal_value": 0.146889, "internal_weight": 3020180, "internal_count": 13897642, "left_child": {"leaf_index": 1, "leaf_value": 0.14688877296139258, "leaf_weight": 1595945.244467318, "leaf_count": 7343893}, "right_child": {"leaf_index": 3, "leaf_value": 0.14688877296139258, "leaf_weight": 1424234.3332048059, "leaf_count": 6553749}}}}, {"tree_index": 5, "num_leaves": 5, "num_cat": 0, "shrinkage": 0.1, "tree_structure": {"split_index": 0, "split_feature": 61, "split_gain": 11398700, "threshold": 1.0000000180025095e-35, "decision_type": "<=", "default_left": true, "missing_type": "None", "internal_value": 0, "internal_weight": 0, "internal_count": 26886144, "left_child": {"split_index": 1, "split_feature": 3, "split_gain": 9.313230187046884e-10, "threshold": 1.0000000180025095e-35, "decision_type": "<=", "default_left": true, "missing_type": "None", "internal_value": -0.144443, "internal_weight": 2766750, "internal_count": 12988502, "left_child": {"split_index": 3, "split_feature": 4, "split_gain": 1.1641500263781523e-10, "threshold": 1.0000000180025095e-35, "decision_type": "<=", "default_left": true, "missing_type": "None", "internal_value": -0.144443, "internal_weight": 457758, "internal_count": 2148947, "left_child": {"leaf_index": 0, "leaf_value": -0.14444298785606358, "leaf_weight": 273607.8579068184, "leaf_count": 1284453}, "right_child": {"leaf_index": 4, "leaf_value": -0.14444298785606358, "leaf_weight": 184150.2581357956, "leaf_count": 864494}}, "right_child": {"leaf_index": 2, "leaf_value": -0.14444298785606358, "leaf_weight": 2308988.670051098, "leaf_count": 10839555}}, "right_child": {"split_index": 2, "split_feature": 5, "split_gain": 9.313230187046884e-10, "threshold": 1.0000000180025095e-35, "decision_type": "<=", "default_left": true, "missing_type": "None", "internal_value": 0.140483, "internal_weight": 2850810, "internal_count": 13897642, "left_child": {"leaf_index": 1, "leaf_value": 0.14048329080813568, "leaf_weight": 2318253.7192679644, "leaf_count": 11301458}, "right_child": {"leaf_index": 3, "leaf_value": 0.14048329080813568, "leaf_weight": 532551.9250617027, "leaf_count": 2596184}}}}, {"tree_index": 6, "num_leaves": 3, "num_cat": 0, "shrinkage": 0.1, "tree_structure": {"split_index": 0, "split_feature": 61, "split_gain": 9884930, "threshold": 1.0000000180025095e-35, "decision_type": "<=", "default_left": true, "missing_type": "None", "internal_value": 0, "internal_weight": 0, "internal_count": 26886144, "left_child": {"split_index": 1, "split_feature": 0, "split_gain": 9.313230187046884e-10, "threshold": 1.0000000180025095e-35, "decision_type": "<=", "default_left": true, "missing_type": "None", "internal_value": -0.138466, "internal_weight": 2605840, "internal_count": 12988502, "left_child": {"leaf_index": 0, "leaf_value": -0.13846559262854627, "leaf_weight": 1709360.5593167245, "leaf_count": 8520105}, "right_child": {"leaf_index": 2, "leaf_value": -0.13846559262854627, "leaf_weight": 896479.7493891418, "leaf_count": 4468397}}, "right_child": {"leaf_index": 1, "leaf_value": 0.13517748648543423, "leaf_weight": 2675451.958256632, "leaf_count": 13897642}}}, {"tree_index": 7, "num_leaves": 5, "num_cat": 0, "shrinkage": 0.1, "tree_structure": {"split_index": 0, "split_feature": 61, "split_gain": 8620760, "threshold": 1.0000000180025095e-35, "decision_type": "<=", "default_left": true, "missing_type": "None", "internal_value": 0, "internal_weight": 0, "internal_count": 26886144, "left_child": {"split_index": 2, "split_feature": 8, "split_gain": 9.313230187046884e-10, "threshold": 1.0000000180025095e-35, "decision_type": "<=", "default_left": true, "missing_type": "None", "internal_value": -0.133492, "internal_weight": 2441110, "internal_count": 12988502, "left_child": {"leaf_index": 0, "leaf_value": -0.13349173425781796, "leaf_weight": 1714492.669915408, "leaf_count": 9122350}, "right_child": {"leaf_index": 3, "leaf_value": -0.13349173425781796, "leaf_weight": 726620.8010851145, "leaf_count": 3866152}}, "right_child": {"split_index": 1, "split_feature": 0, "split_gain": 9.313230187046884e-10, "threshold": 1.0000000180025095e-35, "decision_type": "<=", "default_left": true, "missing_type": "None", "internal_value": 0.13073, "internal_weight": 2498910, "internal_count": 13897642, "left_child": {"leaf_index": 1, "leaf_value": 0.13072966934029992, "leaf_weight": 740846.9448321462, "leaf_count": 4120206}, "right_child": {"split_index": 3, "split_feature": 45, "split_gain": 4.656610097519831e-10, "threshold": 1.0000000180025095e-35, "decision_type": "<=", "default_left": true, "missing_type": "None", "internal_value": 0.13073, "internal_weight": 1758060, "internal_count": 9777436, "left_child": {"leaf_index": 2, "leaf_value": 0.13072966934029992, "leaf_weight": 954615.3744824231, "leaf_count": 5309075}, "right_child": {"leaf_index": 4, "leaf_value": 0.13072966934029992, "leaf_weight": 803448.0788720548, "leaf_count": 4468361}}}}}, {"tree_index": 8, "num_leaves": 5, "num_cat": 0, "shrinkage": 0.1, "tree_structure": {"split_index": 0, "split_feature": 61, "split_gain": 7553800, "threshold": 1.0000000180025095e-35, "decision_type": "<=", "default_left": true, "missing_type": "None", "internal_value": 0, "internal_weight": 0, "internal_count": 26886144, "left_child": {"split_index": 1, "split_feature": 3, "split_gain": 4.656610097519831e-10, "threshold": 1.0000000180025095e-35, "decision_type": "<=", "default_left": true, "missing_type": "None", "internal_value": -0.129306, "internal_weight": 2276570, "internal_count": 12988502, "left_child": {"leaf_index": 0, "leaf_value": -0.12930642767148023, "leaf_weight": 376659.0506324172, "leaf_count": 2148947}, "right_child": {"leaf_index": 2, "leaf_value": -0.12930642767148023, "leaf_weight": 1899914.9330243468, "leaf_count": 10839555}}, "right_child": {"split_index": 2, "split_feature": 4, "split_gain": 4.656610097519831e-10, "threshold": 1.0000000180025095e-35, "decision_type": "<=", "default_left": true, "missing_type": "None", "internal_value": 0.126964, "internal_weight": 2324680, "internal_count": 13897642, "left_child": {"split_index": 3, "split_feature": 25, "split_gain": 1.1641500263781523e-10, "threshold": 1.0000000180025095e-35, "decision_type": "<=", "default_left": true, "missing_type": "None", "internal_value": 0.126964, "internal_weight": 583642, "internal_count": 3489186, "left_child": {"leaf_index": 1, "leaf_value": 0.12696390429318063, "leaf_weight": 162270.01108665764, "leaf_count": 970099}, "right_child": {"leaf_index": 4, "leaf_value": 0.12696390429318063, "leaf_weight": 421371.71094729006, "leaf_count": 2519087}}, "right_child": {"leaf_index": 3, "leaf_value": 0.12696390429318063, "leaf_weight": 1741039.0800474882, "leaf_count": 10408456}}}}, {"tree_index": 9, "num_leaves": 3, "num_cat": 0, "shrinkage": 0.1, "tree_structure": {"split_index": 0, "split_feature": 61, "split_gain": 6645280, "threshold": 1.0000000180025095e-35, "decision_type": "<=", "default_left": true, "missing_type": "None", "internal_value": 0, "internal_weight": 0, "internal_count": 26886144, "left_child": {"leaf_index": 0, "leaf_value": -0.12575169715486306, "leaf_weight": 2115130.8094169796, "leaf_count": 12988502}, "right_child": {"split_index": 1, "split_feature": 0, "split_gain": 4.656610097519831e-10, "threshold": 1.0000000180025095e-35, "decision_type": "<=", "default_left": true, "missing_type": "None", "internal_value": 0.123749, "internal_weight": 2155270, "internal_count": 13897642, "left_child": {"leaf_index": 1, "leaf_value": 0.1237488775966612, "leaf_weight": 638968.4455861151, "leaf_count": 4120206}, "right_child": {"leaf_index": 2, "leaf_value": 0.1237488775966612, "leaf_weight": 1516301.1467722058, "leaf_count": 9777436}}}}, {"tree_index": 10, "num_leaves": 3, "num_cat": 0, "shrinkage": 0.1, "tree_structure": {"split_index": 0, "split_feature": 61, "split_gain": 5865870, "threshold": 1.0000000180025095e-35, "decision_type": "<=", "default_left": true, "missing_type": "None", "internal_value": 0, "internal_weight": 0, "internal_count": 26886144, "left_child": {"split_index": 1, "split_feature": 1, "split_gain": 4.656610097519831e-10, "threshold": 1.0000000180025095e-35, "decision_type": "<=", "default_left": true, "missing_type": "None", "internal_value": -0.122709, "internal_weight": 1958850, "internal_count": 12988502, "left_child": {"leaf_index": 0, "leaf_value": -0.12270871762250989, "leaf_weight": 197652.0567344427, "leaf_count": 1310568}, "right_child": {"leaf_index": 2, "leaf_value": -0.12270871762250989, "leaf_weight": 1761196.4228556454, "leaf_count": 11677934}}, "right_child": {"leaf_index": 1, "leaf_value": 0.12098455179286699, "leaf_weight": 1992419.853995055, "leaf_count": 13897642}}}, {"tree_index": 11, "num_leaves": 3, "num_cat": 0, "shrinkage": 0.1, "tree_structure": {"split_index": 0, "split_feature": 61, "split_gain": 5192940, "threshold": 1.0000000180025095e-35, "decision_type": "<=", "default_left": true, "missing_type": "None", "internal_value": 0, "internal_weight": 0, "internal_count": 26886144, "left_child": {"split_index": 1, "split_feature": 1, "split_gain": 4.656610097519831e-10, "threshold": 1.0000000180025095e-35, "decision_type": "<=", "default_left": true, "missing_type": "None", "internal_value": -0.120086, "internal_weight": 1809140, "internal_count": 12988502, "left_child": {"leaf_index": 0, "leaf_value": -0.12008634860942945, "leaf_weight": 182546.36728978157, "leaf_count": 1310568}, "right_child": {"leaf_index": 2, "leaf_value": -0.12008634860942945, "leaf_weight": 1626595.8188738227, "leaf_count": 11677934}}, "right_child": {"leaf_index": 1, "leaf_value": 0.11859330988098366, "leaf_weight": 1837288.6044290662, "leaf_count": 13897642}}}, {"tree_index": 12, "num_leaves": 2, "num_cat": 0, "shrinkage": 0.1, "tree_structure": {"split_index": 0, "split_feature": 61, "split_gain": 4608750, "threshold": 1.0000000180025095e-35, "decision_type": "<=", "default_left": true, "missing_type": "None", "internal_value": 0, "internal_weight": 0, "internal_count": 26886144, "left_child": {"leaf_index": 0, "leaf_value": -0.11781344896442199, "leaf_weight": 1666930.100744307, "leaf_count": 12988502}, "right_child": {"leaf_index": 1, "leaf_value": 0.11651399606577605, "leaf_weight": 1690585.4409843832, "leaf_count": 13897642}}}, {"tree_index": 13, "num_leaves": 4, "num_cat": 0, "shrinkage": 0.1, "tree_structure": {"split_index": 0, "split_feature": 61, "split_gain": 4099190, "threshold": 1.0000000180025095e-35, "decision_type": "<=", "default_left": true, "missing_type": "None", "internal_value": 0, "internal_weight": 0, "internal_count": 26886144, "left_child": {"split_index": 1, "split_feature": 12, "split_gain": 2.3283100447635263e-10, "threshold": 1.0000000180025095e-35, "decision_type": "<=", "default_left": true, "missing_type": "None", "internal_value": -0.115834, "internal_weight": 1532750, "internal_count": 12988502, "left_child": {"leaf_index": 0, "leaf_value": -0.11583369552398022, "leaf_weight": 617915.4579342604, "leaf_count": 5236204}, "right_child": {"leaf_index": 2, "leaf_value": -0.11583369552398022, "leaf_weight": 914835.3976874948, "leaf_count": 7752298}}, "right_child": {"split_index": 2, "split_feature": 15, "split_gain": 2.3283100447635263e-10, "threshold": 1.0000000180025095e-35, "decision_type": "<=", "default_left": true, "missing_type": "None", "internal_value": 0.114698, "internal_weight": 1552680, "internal_count": 13897642, "left_child": {"leaf_index": 1, "leaf_value": 0.11469775600155596, "leaf_weight": 827510.2756544203, "leaf_count": 7406830}, "right_child": {"leaf_index": 3, "leaf_value": 0.11469775600155596, "leaf_weight": 725170.3667211235, "leaf_count": 6490812}}}}, {"tree_index": 14, "num_leaves": 2, "num_cat": 0, "shrinkage": 0.1, "tree_structure": {"split_index": 0, "split_feature": 61, "split_gain": 3652900, "threshold": 1.0000000180025095e-35, "decision_type": "<=", "default_left": true, "missing_type": "None", "internal_value": 0, "internal_weight": 0, "internal_count": 26886144, "left_child": {"leaf_index": 0, "leaf_value": -0.11410185754833996, "leaf_weight": 1406857.2189490795, "leaf_count": 12988502}, "right_child": {"leaf_index": 1, "leaf_value": 0.11310503755977981, "leaf_weight": 1423690.0760190934, "leaf_count": 13897642}}}, {"tree_index": 15, "num_leaves": 5, "num_cat": 0, "shrinkage": 0.1, "tree_structure": {"split_index": 0, "split_feature": 61, "split_gain": 3260620, "threshold": 1.0000000180025095e-35, "decision_type": "<=", "default_left": true, "missing_type": "None", "internal_value": 0, "internal_weight": 0, "internal_count": 26886144, "left_child": {"split_index": 2, "split_feature": 25, "split_gain": 2.3283100447635263e-10, "threshold": 1.0000000180025095e-35, "decision_type": "<=", "default_left": true, "missing_type": "None", "internal_value": -0.112581, "internal_weight": 1289290, "internal_count": 12988502, "left_child": {"leaf_index": 0, "leaf_value": -0.11258121696116088, "leaf_weight": 1121423.2669845521, "leaf_count": 11297409}, "right_child": {"leaf_index": 3, "leaf_value": -0.11258121696116088, "leaf_weight": 167864.24540659785, "leaf_count": 1691093}}, "right_child": {"split_index": 1, "split_feature": 7, "split_gain": 2.3283100447635263e-10, "threshold": 1.0000000180025095e-35, "decision_type": "<=", "default_left": true, "missing_type": "None", "internal_value": 0.111704, "internal_weight": 1303540, "internal_count": 13897642, "left_child": {"leaf_index": 1, "leaf_value": 0.11170354259968576, "leaf_weight": 634677.9516601562, "leaf_count": 6766592}, "right_child": {"split_index": 3, "split_feature": 22, "split_gain": 1.1641500263781523e-10, "threshold": 1.0000000180025095e-35, "decision_type": "<=", "default_left": true, "missing_type": "None", "internal_value": 0.111704, "internal_weight": 668863, "internal_count": 7131050, "left_child": {"leaf_index": 2, "leaf_value": 0.11170354259968576, "leaf_weight": 329557.0051333308, "leaf_count": 3513558}, "right_child": {"leaf_index": 4, "leaf_value": 0.11170354259968576, "leaf_weight": 339305.57845175266, "leaf_count": 3617492}}}}}, {"tree_index": 16, "num_leaves": 5, "num_cat": 0, "shrinkage": 0.1, "tree_structure": {"split_index": 0, "split_feature": 61, "split_gain": 2914720, "threshold": 1.0000000180025095e-35, "decision_type": "<=", "default_left": true, "missing_type": "None", "internal_value": 0, "internal_weight": 0, "internal_count": 26886144, "left_child": {"split_index": 1, "split_feature": 3, "split_gain": 2.3283100447635263e-10, "threshold": 1.0000000180025095e-35, "decision_type": "<=", "default_left": true, "missing_type": "None", "internal_value": -0.111242, "internal_weight": 1179920, "internal_count": 12988502, "left_child": {"leaf_index": 0, "leaf_value": -0.11124162591661475, "leaf_weight": 195218.16822267324, "leaf_count": 2148947}, "right_child": {"leaf_index": 2, "leaf_value": -0.11124162591661475, "leaf_weight": 984704.6350835636, "leaf_count": 10839555}}, "right_child": {"split_index": 2, "split_feature": 15, "split_gain": 2.3283100447635263e-10, "threshold": 1.0000000180025095e-35, "decision_type": "<=", "default_left": true, "missing_type": "None", "internal_value": 0.110467, "internal_weight": 1192020, "internal_count": 13897642, "left_child": {"split_index": 3, "split_feature": 17, "split_gain": 1.1641500263781523e-10, "threshold": 1.0000000180025095e-35, "decision_type": "<=", "default_left": true, "missing_type": "None", "internal_value": 0.110467, "internal_weight": 635295, "internal_count": 7406830, "left_child": {"leaf_index": 1, "leaf_value": 0.11046658804188061, "leaf_weight": 320905.8907746002, "leaf_count": 3741403}, "right_child": {"leaf_index": 4, "leaf_value": 0.11046658804188061, "leaf_weight": 314389.31237941235, "leaf_count": 3665427}}, "right_child": {"leaf_index": 3, "leaf_value": 0.11046658804188061, "leaf_weight": 556726.9301677644, "leaf_count": 6490812}}}}, {"tree_index": 17, "num_leaves": 2, "num_cat": 0, "shrinkage": 0.1, "tree_structure": {"split_index": 0, "split_feature": 61, "split_gain": 2608880, "threshold": 1.0000000180025095e-35, "decision_type": "<=", "default_left": true, "missing_type": "None", "internal_value": 0, "internal_weight": 0, "internal_count": 26886144, "left_child": {"leaf_index": 0, "leaf_value": -0.11005814405246872, "leaf_weight": 1078530.161776811, "leaf_count": 12988502}, "right_child": {"leaf_index": 1, "leaf_value": 0.10937194913315203, "leaf_weight": 1088827.9613812864, "leaf_count": 13897642}}}, {"tree_index": 18, "num_leaves": 3, "num_cat": 0, "shrinkage": 0.1, "tree_structure": {"split_index": 0, "split_feature": 61, "split_gain": 2337780, "threshold": 1.0000000180025095e-35, "decision_type": "<=", "default_left": true, "missing_type": "None", "internal_value": 0, "internal_weight": 0, "internal_count": 26886144, "left_child": {"leaf_index": 0, "leaf_value": -0.10900989614491759, "leaf_weight": 984797.8855742216, "leaf_count": 12988502}, "right_child": {"split_index": 1, "split_feature": 7, "split_gain": 2.3283100447635263e-10, "threshold": 1.0000000180025095e-35, "decision_type": "<=", "default_left": true, "missing_type": "None", "internal_value": 0.108401, "internal_weight": 993585, "internal_count": 13897642, "left_child": {"leaf_index": 1, "leaf_value": 0.1084009951606131, "leaf_weight": 483764.4141845703, "leaf_count": 6766592}, "right_child": {"leaf_index": 2, "leaf_value": 0.1084009951606131, "leaf_weight": 509820.63434161246, "leaf_count": 7131050}}}}, {"tree_index": 19, "num_leaves": 5, "num_cat": 0, "shrinkage": 0.1, "tree_structure": {"split_index": 0, "split_feature": 61, "split_gain": 2096980, "threshold": 1.0000000180025095e-35, "decision_type": "<=", "default_left": true, "missing_type": "None", "internal_value": 0, "internal_weight": 0, "internal_count": 26886144, "left_child": {"split_index": 1, "split_feature": 0, "split_gain": 2.3283100447635263e-10, "threshold": 1.0000000180025095e-35, "decision_type": "<=", "default_left": true, "missing_type": "None", "internal_value": -0.108079, "internal_weight": 898361, "internal_count": 12988502, "left_child": {"split_index": 3, "split_feature": 18, "split_gain": 1.1641500263781523e-10, "threshold": 1.0000000180025095e-35, "decision_type": "<=", "default_left": true, "missing_type": "None", "internal_value": -0.108079, "internal_weight": 589301, "internal_count": 8520105, "left_child": {"leaf_index": 0, "leaf_value": -0.10807936887009957, "leaf_weight": 294677.62658429146, "leaf_count": 4260448}, "right_child": {"leaf_index": 4, "leaf_value": -0.10807936887009957, "leaf_weight": 294622.91637479514, "leaf_count": 4259657}}, "right_child": {"leaf_index": 2, "leaf_value": -0.10807936887009957, "leaf_weight": 309060.6017480716, "leaf_count": 4468397}}, "right_child": {"split_index": 2, "split_feature": 9, "split_gain": 2.3283100447635263e-10, "threshold": 1.0000000180025095e-35, "decision_type": "<=", "default_left": true, "missing_type": "None", "internal_value": 0.107538, "internal_weight": 905879, "internal_count": 13897642, "left_child": {"leaf_index": 1, "leaf_value": 0.10753794203603591, "leaf_weight": 492343.12591171265, "leaf_count": 7553336}, "right_child": {"leaf_index": 3, "leaf_value": 0.10753794203603591, "leaf_weight": 413535.8797464371, "leaf_count": 6344306}}}}, {"tree_index": 20, "num_leaves": 3, "num_cat": 0, "shrinkage": 0.1, "tree_structure": {"split_index": 0, "split_feature": 61, "split_gain": 1882670, "threshold": 1.0000000180025095e-35, "decision_type": "<=", "default_left": true, "missing_type": "None", "internal_value": 0, "internal_weight": 0, "internal_count": 26886144, "left_child": {"split_index": 1, "split_feature": 14, "split_gain": 1.1641500263781523e-10, "threshold": 1.0000000180025095e-35, "decision_type": "<=", "default_left": true, "missing_type": "None", "internal_value": -0.107252, "internal_weight": 818823, "internal_count": 12988502, "left_child": {"leaf_index": 0, "leaf_value": -0.10725168362155882, "leaf_weight": 489905.9662405476, "leaf_count": 7771087}, "right_child": {"leaf_index": 2, "leaf_value": -0.10725168362155882, "leaf_weight": 328917.01467927545, "leaf_count": 5217415}}, "right_child": {"leaf_index": 1, "leaf_value": 0.10676938260526546, "leaf_weight": 825271.7317589521, "leaf_count": 13897642}}}, {"tree_index": 21, "num_leaves": 4, "num_cat": 0, "shrinkage": 0.1, "tree_structure": {"split_index": 0, "split_feature": 61, "split_gain": 1691610, "threshold": 1.0000000180025095e-35, "decision_type": "<=", "default_left": true, "missing_type": "None", "internal_value": 0, "internal_weight": 0, "internal_count": 26886144, "left_child": {"split_index": 1, "split_feature": 5, "split_gain": 2.3283100447635263e-10, "threshold": 1.0000000180025095e-35, "decision_type": "<=", "default_left": true, "missing_type": "None", "internal_value": -0.106514, "internal_weight": 745769, "internal_count": 12988502, "left_child": {"leaf_index": 0, "leaf_value": -0.10651419041771147, "leaf_weight": 479400.72164297104, "leaf_count": 8349360}, "right_child": {"leaf_index": 2, "leaf_value": -0.10651419041771147, "leaf_weight": 266368.68246239424, "leaf_count": 4639142}}, "right_child": {"split_index": 2, "split_feature": 2, "split_gain": 1.1641500263781523e-10, "threshold": 1.0000000180025095e-35, "decision_type": "<=", "default_left": true, "missing_type": "None", "internal_value": 0.106084, "internal_weight": 751316, "internal_count": 13897642, "left_child": {"leaf_index": 1, "leaf_value": 0.10608387177464951, "leaf_weight": 505977.6721662842, "leaf_count": 9359445}, "right_child": {"leaf_index": 3, "leaf_value": 0.10608387177464951, "leaf_weight": 245337.87568515167, "leaf_count": 4538197}}}}, {"tree_index": 22, "num_leaves": 4, "num_cat": 0, "shrinkage": 0.1, "tree_structure": {"split_index": 0, "split_feature": 61, "split_gain": 1521020, "threshold": 1.0000000180025095e-35, "decision_type": "<=", "default_left": true, "missing_type": "None", "internal_value": 0, "internal_weight": 0, "internal_count": 26886144, "left_child": {"split_index": 1, "split_feature": 0, "split_gain": 1.1641500263781523e-10, "threshold": 1.0000000180025095e-35, "decision_type": "<=", "default_left": true, "missing_type": "None", "internal_value": -0.105856, "internal_weight": 678781, "internal_count": 12988502, "left_child": {"leaf_index": 0, "leaf_value": -0.10585600696411673, "leaf_weight": 445262.1812776476, "leaf_count": 8520105}, "right_child": {"leaf_index": 2, "leaf_value": -0.10585600696411673, "leaf_weight": 233519.21074147522, "leaf_count": 4468397}}, "right_child": {"split_index": 2, "split_feature": 36, "split_gain": 1.1641500263781523e-10, "threshold": 1.0000000180025095e-35, "decision_type": "<=", "default_left": true, "missing_type": "None", "internal_value": 0.105472, "internal_weight": 683564, "internal_count": 13897642, "left_child": {"leaf_index": 1, "leaf_value": 0.10547152472700279, "leaf_weight": 72238.73241405562, "leaf_count": 1468697}, "right_child": {"leaf_index": 3, "leaf_value": 0.10547152472700279, "leaf_weight": 611325.0262266584, "leaf_count": 12428945}}}}, {"tree_index": 23, "num_leaves": 4, "num_cat": 0, "shrinkage": 0.1, "tree_structure": {"split_index": 0, "split_feature": 61, "split_gain": 1368500, "threshold": 1.0000000180025095e-35, "decision_type": "<=", "default_left": true, "missing_type": "None", "internal_value": 0, "internal_weight": 0, "internal_count": 26886144, "left_child": {"split_index": 1, "split_feature": 25, "split_gain": 1.1641500263781523e-10, "threshold": 1.0000000180025095e-35, "decision_type": "<=", "default_left": true, "missing_type": "None", "internal_value": -0.105268, "internal_weight": 617443, "internal_count": 12988502, "left_child": {"leaf_index": 0, "leaf_value": -0.1052678032879279, "leaf_weight": 537052.7902969234, "leaf_count": 11297409}, "right_child": {"split_index": 2, "split_feature": 46, "split_gain": 1.4551899615855568e-11, "threshold": 1.0000000180025095e-35, "decision_type": "<=", "default_left": true, "missing_type": "None", "internal_value": -0.105268, "internal_weight": 80390.7, "internal_count": 1691093, "left_child": {"leaf_index": 2, "leaf_value": -0.1052678032879279, "leaf_weight": 40191.07752282545, "leaf_count": 845457}, "right_child": {"leaf_index": 3, "leaf_value": -0.1052678032879279, "leaf_weight": 40199.5867703408, "leaf_count": 845636}}}, "right_child": {"leaf_index": 1, "leaf_value": 0.10492382570951853, "leaf_weight": 621577.8489265442, "leaf_count": 13897642}}}, {"tree_index": 24, "num_leaves": 3, "num_cat": 0, "shrinkage": 0.1, "tree_structure": {"split_index": 0, "split_feature": 61, "split_gain": 1231980, "threshold": 1.0000000180025095e-35, "decision_type": "<=", "default_left": true, "missing_type": "None", "internal_value": 0, "internal_weight": 0, "internal_count": 26886144, "left_child": {"split_index": 1, "split_feature": 1, "split_gain": 1.1641500263781523e-10, "threshold": 1.0000000180025095e-35, "decision_type": "<=", "default_left": true, "missing_type": "None", "internal_value": -0.104741, "internal_weight": 561350, "internal_count": 12988502, "left_child": {"leaf_index": 0, "leaf_value": -0.10474145915278464, "leaf_weight": 56641.44340673089, "leaf_count": 1310568}, "right_child": {"leaf_index": 2, "leaf_value": -0.10474145915278464, "leaf_weight": 504708.6742302105, "leaf_count": 11677934}}, "right_child": {"leaf_index": 1, "leaf_value": 0.10443337853520106, "leaf_weight": 564933.4374696836, "leaf_count": 13897642}}}, {"tree_index": 25, "num_leaves": 4, "num_cat": 0, "shrinkage": 0.1, "tree_structure": {"split_index": 0, "split_feature": 61, "split_gain": 1109640, "threshold": 1.0000000180025095e-35, "decision_type": "<=", "default_left": true, "missing_type": "None", "internal_value": 0, "internal_weight": 0, "internal_count": 26886144, "left_child": {"split_index": 1, "split_feature": 5, "split_gain": 1.1641500263781523e-10, "threshold": 1.0000000180025095e-35, "decision_type": "<=", "default_left": true, "missing_type": "None", "internal_value": -0.10427, "internal_weight": 510110, "internal_count": 12988502, "left_child": {"split_index": 2, "split_feature": 25, "split_gain": 5.820770254683083e-11, "threshold": 1.0000000180025095e-35, "decision_type": "<=", "default_left": true, "missing_type": "None", "internal_value": -0.10427, "internal_weight": 327913, "internal_count": 8349360, "left_child": {"leaf_index": 0, "leaf_value": -0.10426996176439621, "leaf_weight": 269723.12315143645, "leaf_count": 6867730}, "right_child": {"leaf_index": 3, "leaf_value": -0.10426996176439621, "leaf_weight": 58189.51399587095, "leaf_count": 1481630}}, "right_child": {"leaf_index": 2, "leaf_value": -0.10426996176439621, "leaf_weight": 182197.59206943214, "leaf_count": 4639142}}, "right_child": {"leaf_index": 1, "leaf_value": 0.10399373227581377, "leaf_weight": 513223.6939934492, "leaf_count": 13897642}}}, {"tree_index": 26, "num_leaves": 3, "num_cat": 0, "shrinkage": 0.1, "tree_structure": {"split_index": 0, "split_feature": 61, "split_gain": 999900, "threshold": 1.0000000180025095e-35, "decision_type": "<=", "default_left": true, "missing_type": "None", "internal_value": 0, "internal_weight": 0, "internal_count": 26886144, "left_child": {"split_index": 1, "split_feature": 8, "split_gain": 5.820770254683083e-11, "threshold": 1.0000000180025095e-35, "decision_type": "<=", "default_left": true, "missing_type": "None", "internal_value": -0.103847, "internal_weight": 463350, "internal_count": 12988502, "left_child": {"leaf_index": 0, "leaf_value": -0.10384715834669381, "leaf_weight": 325429.5769056305, "leaf_count": 9122350}, "right_child": {"leaf_index": 2, "leaf_value": -0.10384715834669381, "leaf_weight": 137920.62457731366, "leaf_count": 3866152}}, "right_child": {"leaf_index": 1, "leaf_value": 0.10359928287612928, "leaf_weight": 466061.9795940146, "leaf_count": 13897642}}}, {"tree_index": 27, "num_leaves": 5, "num_cat": 0, "shrinkage": 0.1, "tree_structure": {"split_index": 0, "split_feature": 61, "split_gain": 901385, "threshold": 1.0000000180025095e-35, "decision_type": "<=", "default_left": true, "missing_type": "None", "internal_value": 0, "internal_weight": 0, "internal_count": 26886144, "left_child": {"split_index": 1, "split_feature": 1, "split_gain": 5.820770254683083e-11, "threshold": 1.0000000180025095e-35, "decision_type": "<=", "default_left": true, "missing_type": "None", "internal_value": -0.103468, "internal_weight": 420716, "internal_count": 12988502, "left_child": {"split_index": 3, "split_feature": 21, "split_gain": 1.4551899615855568e-11, "threshold": 1.0000000180025095e-35, "decision_type": "<=", "default_left": true, "missing_type": "None", "internal_value": -0.103468, "internal_weight": 42451.1, "internal_count": 1310568, "left_child": {"leaf_index": 0, "leaf_value": -0.10346768177856658, "leaf_weight": 10190.951951734722, "leaf_count": 314619}, "right_child": {"leaf_index": 4, "leaf_value": -0.10346768177856658, "leaf_weight": 32260.18900758773, "leaf_count": 995949}}, "right_child": {"leaf_index": 2, "leaf_value": -0.10346768177856658, "leaf_weight": 378264.7083918303, "leaf_count": 11677934}}, "right_child": {"split_index": 2, "split_feature": 13, "split_gain": 5.820770254683083e-11, "threshold": 1.0000000180025095e-35, "decision_type": "<=", "default_left": true, "missing_type": "None", "internal_value": 0.103245, "internal_weight": 423083, "internal_count": 13897642, "left_child": {"leaf_index": 1, "leaf_value": 0.10324505881840428, "leaf_weight": 162052.48346936703, "leaf_count": 5323176}, "right_child": {"leaf_index": 3, "leaf_value": 0.10324505881840428, "leaf_weight": 261030.91645357013, "leaf_count": 8574466}}}}, {"tree_index": 28, "num_leaves": 3, "num_cat": 0, "shrinkage": 0.1, "tree_structure": {"split_index": 0, "split_feature": 61, "split_gain": 812874, "threshold": 1.0000000180025095e-35, "decision_type": "<=", "default_left": true, "missing_type": "None", "internal_value": 0, "internal_weight": 0, "internal_count": 26886144, "left_child": {"leaf_index": 0, "leaf_value": -0.10312683031810417, "leaf_weight": 381873.52756870165, "leaf_count": 12988502}, "right_child": {"split_index": 1, "split_feature": 3, "split_gain": 5.820770254683083e-11, "threshold": 1.0000000180025095e-35, "decision_type": "<=", "default_left": true, "missing_type": "None", "internal_value": 0.102927, "internal_weight": 383945, "internal_count": 13897642, "left_child": {"leaf_index": 1, "leaf_value": 0.10292674359296775, "leaf_weight": 11577.8871595487, "leaf_count": 419084}, "right_child": {"leaf_index": 2, "leaf_value": 0.10292674359296775, "leaf_weight": 372367.40986874327, "leaf_count": 13478558}}}}, {"tree_index": 29, "num_leaves": 4, "num_cat": 0, "shrinkage": 0.1, "tree_structure": {"split_index": 0, "split_feature": 61, "split_gain": 733296, "threshold": 1.0000000180025095e-35, "decision_type": "<=", "default_left": true, "missing_type": "None", "internal_value": 0, "internal_weight": 0, "internal_count": 26886144, "left_child": {"split_index": 1, "split_feature": 3, "split_gain": 5.820770254683083e-11, "threshold": 1.0000000180025095e-35, "decision_type": "<=", "default_left": true, "missing_type": "None", "internal_value": -0.10282, "internal_weight": 346511, "internal_count": 12988502, "left_child": {"leaf_index": 0, "leaf_value": -0.10282043670007684, "leaf_weight": 57330.16768573597, "leaf_count": 2148947}, "right_child": {"leaf_index": 2, "leaf_value": -0.10282043670007684, "leaf_weight": 289180.4710813053, "leaf_count": 10839555}}, "right_child": {"split_index": 2, "split_feature": 19, "split_gain": 5.820770254683083e-11, "threshold": 1.0000000180025095e-35, "decision_type": "<=", "default_left": true, "missing_type": "None", "internal_value": 0.10264, "internal_weight": 348328, "internal_count": 13897642, "left_child": {"leaf_index": 1, "leaf_value": 0.10264048339401373, "leaf_weight": 312853.67366711795, "leaf_count": 12482296}, "right_child": {"leaf_index": 3, "leaf_value": 0.10264048339401373, "leaf_weight": 35473.93809681013, "leaf_count": 1415346}}}}, {"tree_index": 30, "num_leaves": 4, "num_cat": 0, "shrinkage": 0.1, "tree_structure": {"split_index": 0, "split_feature": 61, "split_gain": 661704, "threshold": 1.0000000180025095e-35, "decision_type": "<=", "default_left": true, "missing_type": "None", "internal_value": 0, "internal_weight": 0, "internal_count": 26886144, "left_child": {"split_index": 1, "split_feature": 1, "split_gain": 5.820770254683083e-11, "threshold": 1.0000000180025095e-35, "decision_type": "<=", "default_left": true, "missing_type": "None", "internal_value": -0.102545, "internal_weight": 314335, "internal_count": 12988502, "left_child": {"split_index": 2, "split_feature": 23, "split_gain": 7.27596021626864e-12, "threshold": 1.0000000180025095e-35, "decision_type": "<=", "default_left": true, "missing_type": "None", "internal_value": -0.102545, "internal_weight": 31717.1, "internal_count": 1310568, "left_child": {"leaf_index": 0, "leaf_value": -0.10254484699423777, "leaf_weight": 26644.783868908882, "leaf_count": 1100976}, "right_child": {"leaf_index": 3, "leaf_value": -0.10254484699423777, "leaf_weight": 5072.348117172718, "leaf_count": 209592}}, "right_child": {"leaf_index": 2, "leaf_value": -0.10254484699423777, "leaf_weight": 282618.35631783307, "leaf_count": 11677934}}, "right_child": {"leaf_index": 1, "leaf_value": 0.10238290832082574, "leaf_weight": 315932.3919483349, "leaf_count": 13897642}}}, {"tree_index": 31, "num_leaves": 4, "num_cat": 0, "shrinkage": 0.1, "tree_structure": {"split_index": 0, "split_feature": 61, "split_gain": 597262, "threshold": 1.0000000180025095e-35, "decision_type": "<=", "default_left": true, "missing_type": "None", "internal_value": 0, "internal_weight": 0, "internal_count": 26886144, "left_child": {"leaf_index": 0, "leaf_value": -0.10229682035774879, "leaf_weight": 285076.99394771457, "leaf_count": 12988502}, "right_child": {"split_index": 1, "split_feature": 10, "split_gain": 5.820770254683083e-11, "threshold": 1.0000000180025095e-35, "decision_type": "<=", "default_left": true, "missing_type": "None", "internal_value": 0.102151, "internal_weight": 286483, "internal_count": 13897642, "left_child": {"split_index": 2, "split_feature": 48, "split_gain": 3.63798010813432e-12, "threshold": 1.0000000180025095e-35, "decision_type": "<=", "default_left": true, "missing_type": "None", "internal_value": 0.102151, "internal_weight": 27061.6, "internal_count": 1312791, "left_child": {"leaf_index": 1, "leaf_value": 0.10215101624611288, "leaf_weight": 7024.8772570397705, "leaf_count": 340785}, "right_child": {"leaf_index": 3, "leaf_value": 0.10215101624611288, "leaf_weight": 20036.747049037367, "leaf_count": 972006}}, "right_child": {"leaf_index": 2, "leaf_value": 0.10215101624611288, "leaf_weight": 259421.72799018212, "leaf_count": 12584851}}}}, {"tree_index": 32, "num_leaves": 2, "num_cat": 0, "shrinkage": 0.1, "tree_structure": {"split_index": 0, "split_feature": 61, "split_gain": 539224, "threshold": 1.0000000180025095e-35, "decision_type": "<=", "default_left": true, "missing_type": "None", "internal_value": 0, "internal_weight": 0, "internal_count": 26886144, "left_child": {"leaf_index": 0, "leaf_value": -0.10207348005383621, "leaf_weight": 258483.9842813462, "leaf_count": 12988502}, "right_child": {"leaf_index": 1, "leaf_value": 0.10194212873192177, "leaf_weight": 259724.9683955647, "leaf_count": 13897642}}}, {"tree_index": 33, "num_leaves": 4, "num_cat": 0, "shrinkage": 0.1, "tree_structure": {"split_index": 0, "split_feature": 61, "split_gain": 486931, "threshold": 1.0000000180025095e-35, "decision_type": "<=", "default_left": true, "missing_type": "None", "internal_value": 0, "internal_weight": 0, "internal_count": 26886144, "left_child": {"split_index": 2, "split_feature": 1, "split_gain": 2.9103799231711136e-11, "threshold": 1.0000000180025095e-35, "decision_type": "<=", "default_left": true, "missing_type": "None", "internal_value": -0.101872, "internal_weight": 234324, "internal_count": 12988502, "left_child": {"leaf_index": 0, "leaf_value": -0.10187227689651897, "leaf_weight": 23643.839812874794, "leaf_count": 1310568}, "right_child": {"leaf_index": 3, "leaf_value": -0.10187227689651897, "leaf_weight": 210680.5605213344, "leaf_count": 11677934}}, "right_child": {"split_index": 1, "split_feature": 0, "split_gain": 5.820770254683083e-11, "threshold": 1.0000000180025095e-35, "decision_type": "<=", "default_left": true, "missing_type": "None", "internal_value": 0.101754, "internal_weight": 235421, "internal_count": 13897642, "left_child": {"leaf_index": 1, "leaf_value": 0.10175390041537578, "leaf_weight": 69794.9293436408, "leaf_count": 4120206}, "right_child": {"leaf_index": 2, "leaf_value": 0.10175390041537578, "leaf_weight": 165626.53779494762, "leaf_count": 9777436}}}}, {"tree_index": 34, "num_leaves": 4, "num_cat": 0, "shrinkage": 0.1, "tree_structure": {"split_index": 0, "split_feature": 61, "split_gain": 439796, "threshold": 1.0000000180025095e-35, "decision_type": "<=", "default_left": true, "missing_type": "None", "internal_value": 0, "internal_weight": 0, "internal_count": 26886144, "left_child": {"split_index": 1, "split_feature": 1, "split_gain": 2.9103799231711136e-11, "threshold": 1.0000000180025095e-35, "decision_type": "<=", "default_left": true, "missing_type": "None", "internal_value": -0.101691, "internal_weight": 212384, "internal_count": 12988502, "left_child": {"split_index": 2, "split_feature": 9, "split_gain": 3.63798010813432e-12, "threshold": 1.0000000180025095e-35, "decision_type": "<=", "default_left": true, "missing_type": "None", "internal_value": -0.101691, "internal_weight": 21430, "internal_count": 1310568, "left_child": {"leaf_index": 0, "leaf_value": -0.1016909331862511, "leaf_weight": 18003.716219399124, "leaf_count": 1101029}, "right_child": {"leaf_index": 3, "leaf_value": -0.1016909331862511, "leaf_weight": 3426.3227334581316, "leaf_count": 209539}}, "right_child": {"leaf_index": 2, "leaf_value": -0.1016909331862511, "leaf_weight": 190954.2889105305, "leaf_count": 11677934}}, "right_child": {"leaf_index": 1, "leaf_value": 0.10158422453445387, "leaf_weight": 213355.85598306172, "leaf_count": 13897642}}}, {"tree_index": 35, "num_leaves": 5, "num_cat": 0, "shrinkage": 0.1, "tree_structure": {"split_index": 0, "split_feature": 61, "split_gain": 397293, "threshold": 1.0000000180025095e-35, "decision_type": "<=", "default_left": true, "missing_type": "None", "internal_value": 0, "internal_weight": 0, "internal_count": 26886144, "left_child": {"leaf_index": 0, "leaf_value": -0.10152744147974235, "leaf_weight": 192467.00544187054, "leaf_count": 12988502}, "right_child": {"split_index": 1, "split_feature": 1, "split_gain": 2.9103799231711136e-11, "threshold": 1.0000000180025095e-35, "decision_type": "<=", "default_left": true, "missing_type": "None", "internal_value": 0.101431, "internal_weight": 193329, "internal_count": 13897642, "left_child": {"split_index": 2, "split_feature": 3, "split_gain": 1.4551899615855568e-11, "threshold": 1.0000000180025095e-35, "decision_type": "<=", "default_left": true, "missing_type": "None", "internal_value": 0.101431, "internal_weight": 66369.8, "internal_count": 4771064, "left_child": {"leaf_index": 1, "leaf_value": 0.10143119755459062, "leaf_weight": 1458.0855641067028, "leaf_count": 104816}, "right_child": {"leaf_index": 3, "leaf_value": 0.10143119755459062, "leaf_weight": 64911.73911751807, "leaf_count": 4666248}}, "right_child": {"split_index": 3, "split_feature": 16, "split_gain": 1.4551899615855568e-11, "threshold": 1.0000000180025095e-35, "decision_type": "<=", "default_left": true, "missing_type": "None", "internal_value": 0.101431, "internal_weight": 126959, "internal_count": 9126578, "left_child": {"leaf_index": 2, "leaf_value": 0.10143119755459062, "leaf_weight": 59850.72879856825, "leaf_count": 4302432}, "right_child": {"leaf_index": 4, "leaf_value": 0.10143119755459062, "leaf_weight": 67108.24341458455, "leaf_count": 4824146}}}}}, {"tree_index": 36, "num_leaves": 3, "num_cat": 0, "shrinkage": 0.1, "tree_structure": {"split_index": 0, "split_feature": 61, "split_gain": 358954, "threshold": 1.0000000180025095e-35, "decision_type": "<=", "default_left": true, "missing_type": "None", "internal_value": 0, "internal_weight": 0, "internal_count": 26886144, "left_child": {"leaf_index": 0, "leaf_value": -0.10137997996910673, "leaf_weight": 174391.77206434496, "leaf_count": 12988502}, "right_child": {"split_index": 1, "split_feature": 4, "split_gain": 2.9103799231711136e-11, "threshold": 1.0000000180025095e-35, "decision_type": "<=", "default_left": true, "missing_type": "None", "internal_value": 0.101293, "internal_weight": 175157, "internal_count": 13897642, "left_child": {"leaf_index": 1, "leaf_value": 0.10129314826280796, "leaf_weight": 43975.572047179565, "leaf_count": 3489186}, "right_child": {"leaf_index": 2, "leaf_value": 0.10129314826280796, "leaf_weight": 131181.83058395237, "leaf_count": 10408456}}}}, {"tree_index": 37, "num_leaves": 6, "num_cat": 0, "shrinkage": 0.1, "tree_structure": {"split_index": 0, "split_feature": 61, "split_gain": 324361, "threshold": 1.0000000180025095e-35, "decision_type": "<=", "default_left": true, "missing_type": "None", "internal_value": 0, "internal_weight": 0, "internal_count": 26886144, "left_child": {"split_index": 1, "split_feature": 1, "split_gain": 2.9103799231711136e-11, "threshold": 1.0000000180025095e-35, "decision_type": "<=", "default_left": true, "missing_type": "None", "internal_value": -0.101247, "internal_weight": 157993, "internal_count": 12988502, "left_child": {"split_index": 4, "split_feature": 2, "split_gain": 1.81899005406716e-12, "threshold": 1.0000000180025095e-35, "decision_type": "<=", "default_left": true, "missing_type": "None", "internal_value": -0.101247, "internal_weight": 15941.8, "internal_count": 1310568, "left_child": {"leaf_index": 0, "leaf_value": -0.10124693487905699, "leaf_weight": 13391.676305520348, "leaf_count": 1100921}, "right_child": {"leaf_index": 5, "leaf_value": -0.10124693487905699, "leaf_weight": 2550.1600590990856, "leaf_count": 209647}}, "right_child": {"leaf_index": 2, "leaf_value": -0.10124693487905699, "leaf_weight": 142051.16629188694, "leaf_count": 11677934}}, "right_child": {"split_index": 2, "split_feature": 37, "split_gain": 2.9103799231711136e-11, "threshold": 1.0000000180025095e-35, "decision_type": "<=", "default_left": true, "missing_type": "None", "internal_value": 0.101169, "internal_weight": 158674, "internal_count": 13897642, "left_child": {"leaf_index": 1, "leaf_value": 0.10116857577792893, "leaf_weight": 131433.11990034766, "leaf_count": 11511705}, "right_child": {"split_index": 3, "split_feature": 55, "split_gain": 3.63798010813432e-12, "threshold": 1.0000000180025095e-35, "decision_type": "<=", "default_left": true, "missing_type": "None", "internal_value": 0.101169, "internal_weight": 27241.1, "internal_count": 2385937, "left_child": {"leaf_index": 3, "leaf_value": 0.10116857577792893, "leaf_weight": 22155.428562957793, "leaf_count": 1940506}, "right_child": {"leaf_index": 4, "leaf_value": 0.10116857577792893, "leaf_weight": 5085.639879612252, "leaf_count": 445431}}}}}, {"tree_index": 38, "num_leaves": 4, "num_cat": 0, "shrinkage": 0.1, "tree_structure": {"split_index": 0, "split_feature": 61, "split_gain": 293140, "threshold": 1.0000000180025095e-35, "decision_type": "<=", "default_left": true, "missing_type": "None", "internal_value": 0, "internal_weight": 0, "internal_count": 26886144, "left_child": {"leaf_index": 0, "leaf_value": -0.10112686008320192, "leaf_weight": 143119.07987382263, "leaf_count": 12988502}, "right_child": {"split_index": 1, "split_feature": 11, "split_gain": 2.9103799231711136e-11, "threshold": 1.0000000180025095e-35, "decision_type": "<=", "default_left": true, "missing_type": "None", "internal_value": 0.101056, "internal_weight": 143726, "internal_count": 13897642, "left_child": {"leaf_index": 1, "leaf_value": 0.10105613356613052, "leaf_weight": 67779.89641750231, "leaf_count": 6554005}, "right_child": {"split_index": 2, "split_feature": 31, "split_gain": 1.4551899615855568e-11, "threshold": 1.0000000180025095e-35, "decision_type": "<=", "default_left": true, "missing_type": "None", "internal_value": 0.101056, "internal_weight": 75946.1, "internal_count": 7343637, "left_child": {"leaf_index": 2, "leaf_value": 0.10105613356613052, "leaf_weight": 39449.15199777484, "leaf_count": 3814552}, "right_child": {"leaf_index": 3, "leaf_value": 0.10105613356613052, "leaf_weight": 36496.922988090664, "leaf_count": 3529085}}}}}, {"tree_index": 39, "num_leaves": 5, "num_cat": 0, "shrinkage": 0.1, "tree_structure": {"split_index": 0, "split_feature": 61, "split_gain": 264954, "threshold": 1.0000000180025095e-35, "decision_type": "<=", "default_left": true, "missing_type": "None", "internal_value": 0, "internal_weight": 0, "internal_count": 26886144, "left_child": {"split_index": 2, "split_feature": 2, "split_gain": 2.9103799231711136e-11, "threshold": 1.0000000180025095e-35, "decision_type": "<=", "default_left": true, "missing_type": "None", "internal_value": -0.101018, "internal_weight": 129631, "internal_count": 12988502, "left_child": {"split_index": 3, "split_feature": 3, "split_gain": 1.4551899615855568e-11, "threshold": 1.0000000180025095e-35, "decision_type": "<=", "default_left": true, "missing_type": "None", "internal_value": -0.101018, "internal_weight": 87380.2, "internal_count": 8755118, "left_child": {"leaf_index": 0, "leaf_value": -0.10101848102855714, "leaf_weight": 21185.655308178626, "leaf_count": 2122711}, "right_child": {"leaf_index": 4, "leaf_value": -0.10101848102855714, "leaf_weight": 66194.54488413688, "leaf_count": 6632407}}, "right_child": {"leaf_index": 3, "leaf_value": -0.10101848102855714, "leaf_weight": 42251.16570798308, "leaf_count": 4233384}}, "right_child": {"split_index": 1, "split_feature": 12, "split_gain": 5.820770254683083e-11, "threshold": 1.0000000180025095e-35, "decision_type": "<=", "default_left": true, "missing_type": "None", "internal_value": 0.100955, "internal_weight": 130173, "internal_count": 13897642, "left_child": {"leaf_index": 1, "leaf_value": 0.10095462572236519, "leaf_weight": 65579.42705940455, "leaf_count": 7001461}, "right_child": {"leaf_index": 2, "leaf_value": 0.10095462572236519, "leaf_weight": 64593.318291418254, "leaf_count": 6896181}}}}, {"tree_index": 40, "num_leaves": 3, "num_cat": 0, "shrinkage": 0.1, "tree_structure": {"split_index": 0, "split_feature": 61, "split_gain": 239504, "threshold": 1.0000000180025095e-35, "decision_type": "<=", "default_left": true, "missing_type": "None", "internal_value": 0, "internal_weight": 0, "internal_count": 26886144, "left_child": {"leaf_index": 0, "leaf_value": -0.10092062618076553, "leaf_weight": 117403.25892263651, "leaf_count": 12988502}, "right_child": {"split_index": 1, "split_feature": 34, "split_gain": 1.4551899615855568e-11, "threshold": 1.0000000180025095e-35, "decision_type": "<=", "default_left": true, "missing_type": "None", "internal_value": 0.100863, "internal_weight": 117887, "internal_count": 13897642, "left_child": {"leaf_index": 1, "leaf_value": 0.1008629540326945, "leaf_weight": 78493.07678825501, "leaf_count": 9253529}, "right_child": {"leaf_index": 2, "leaf_value": 0.1008629540326945, "leaf_weight": 39393.69707733486, "leaf_count": 4644113}}}}, {"tree_index": 41, "num_leaves": 4, "num_cat": 0, "shrinkage": 0.1, "tree_structure": {"split_index": 0, "split_feature": 61, "split_gain": 216519, "threshold": 1.0000000180025095e-35, "decision_type": "<=", "default_left": true, "missing_type": "None", "internal_value": 0, "internal_weight": 0, "internal_count": 26886144, "left_child": {"split_index": 2, "split_feature": 17, "split_gain": 1.4551899615855568e-11, "threshold": 1.0000000180025095e-35, "decision_type": "<=", "default_left": true, "missing_type": "None", "internal_value": -0.100832, "internal_weight": 106319, "internal_count": 12988502, "left_child": {"leaf_index": 0, "leaf_value": -0.10083224232464437, "leaf_weight": 54284.71898160223, "leaf_count": 6631699}, "right_child": {"leaf_index": 3, "leaf_value": -0.10083224232464437, "leaf_weight": 52034.51852630917, "leaf_count": 6356803}}, "right_child": {"split_index": 1, "split_feature": 9, "split_gain": 1.4551899615855568e-11, "threshold": 1.0000000180025095e-35, "decision_type": "<=", "default_left": true, "missing_type": "None", "internal_value": 0.10078, "internal_weight": 106752, "internal_count": 13897642, "left_child": {"leaf_index": 1, "leaf_value": 0.10078015679763366, "leaf_weight": 58019.21419849247, "leaf_count": 7553336}, "right_child": {"leaf_index": 2, "leaf_value": 0.10078015679763366, "leaf_weight": 48732.32817324437, "leaf_count": 6344306}}}}, {"tree_index": 42, "num_leaves": 7, "num_cat": 0, "shrinkage": 0.1, "tree_structure": {"split_index": 0, "split_feature": 61, "split_gain": 195757, "threshold": 1.0000000180025095e-35, "decision_type": "<=", "default_left": true, "missing_type": "None", "internal_value": 0, "internal_weight": 0, "internal_count": 26886144, "left_child": {"split_index": 2, "split_feature": 1, "split_gain": 1.4551899615855568e-11, "threshold": 1.0000000180025095e-35, "decision_type": "<=", "default_left": true, "missing_type": "None", "internal_value": -0.100752, "internal_weight": 96274, "internal_count": 12988502, "left_child": {"split_index": 5, "split_feature": 17, "split_gain": 1.81899005406716e-12, "threshold": 1.0000000180025095e-35, "decision_type": "<=", "default_left": true, "missing_type": "None", "internal_value": -0.100752, "internal_weight": 9714.25, "internal_count": 1310568, "left_child": {"leaf_index": 0, "leaf_value": -0.10075242139618874, "leaf_weight": 4857.059168117121, "leaf_count": 655275}, "right_child": {"leaf_index": 6, "leaf_value": -0.10075242139618874, "leaf_weight": 4857.192588536069, "leaf_count": 655293}}, "right_child": {"split_index": 3, "split_feature": 30, "split_gain": 1.4551899615855568e-11, "threshold": 1.0000000180025095e-35, "decision_type": "<=", "default_left": true, "missing_type": "None", "internal_value": -0.100752, "internal_weight": 86559.7, "internal_count": 11677934, "left_child": {"leaf_index": 3, "leaf_value": -0.10075242139618874, "leaf_weight": 40282.782096963376, "leaf_count": 5434626}, "right_child": {"leaf_index": 4, "leaf_value": -0.10075242139618874, "leaf_weight": 46276.93161005527, "leaf_count": 6243308}}}, "right_child": {"split_index": 1, "split_feature": 0, "split_gain": 1.4551899615855568e-11, "threshold": 1.0000000180025095e-35, "decision_type": "<=", "default_left": true, "missing_type": "None", "internal_value": 0.100705, "internal_weight": 96660.9, "internal_count": 13897642, "left_child": {"split_index": 4, "split_feature": 2, "split_gain": 3.63798010813432e-12, "threshold": 1.0000000180025095e-35, "decision_type": "<=", "default_left": true, "missing_type": "None", "internal_value": 0.100705, "internal_weight": 28656.9, "internal_count": 4120206, "left_child": {"leaf_index": 1, "leaf_value": 0.10070536786586233, "leaf_weight": 25441.098728139885, "leaf_count": 3657853}, "right_child": {"leaf_index": 5, "leaf_value": 0.10070536786586233, "leaf_weight": 3215.757527776994, "leaf_count": 462353}}, "right_child": {"leaf_index": 2, "leaf_value": 0.10070536786586233, "leaf_weight": 68004.02164440975, "leaf_count": 9777436}}}}, {"tree_index": 43, "num_leaves": 3, "num_cat": 0, "shrinkage": 0.1, "tree_structure": {"split_index": 0, "split_feature": 61, "split_gain": 176999, "threshold": 1.0000000180025095e-35, "decision_type": "<=", "default_left": true, "missing_type": "None", "internal_value": 0, "internal_weight": 0, "internal_count": 26886144, "left_child": {"split_index": 1, "split_feature": 25, "split_gain": 1.4551899615855568e-11, "threshold": 1.0000000180025095e-35, "decision_type": "<=", "default_left": true, "missing_type": "None", "internal_value": -0.10068, "internal_weight": 87171.5, "internal_count": 12988502, "left_child": {"leaf_index": 0, "leaf_value": -0.1006803027413113, "leaf_weight": 75821.8476510183, "leaf_count": 11297409}, "right_child": {"leaf_index": 2, "leaf_value": -0.1006803027413113, "leaf_weight": 11349.663963631261, "leaf_count": 1691093}}, "right_child": {"leaf_index": 1, "leaf_value": 0.10063778956604637, "leaf_weight": 87518.12072540261, "leaf_count": 13897642}}}, {"tree_index": 44, "num_leaves": 3, "num_cat": 0, "shrinkage": 0.1, "tree_structure": {"split_index": 0, "split_feature": 61, "split_gain": 160050, "threshold": 1.0000000180025095e-35, "decision_type": "<=", "default_left": true, "missing_type": "None", "internal_value": 0, "internal_weight": 0, "internal_count": 26886144, "left_child": {"leaf_index": 0, "leaf_value": -0.10061515037703173, "leaf_weight": 78924.52724177111, "leaf_count": 12988502}, "right_child": {"split_index": 1, "split_feature": 0, "split_gain": 1.4551899615855568e-11, "threshold": 1.0000000180025095e-35, "decision_type": "<=", "default_left": true, "missing_type": "None", "internal_value": 0.100577, "internal_weight": 79235.3, "internal_count": 13897642, "left_child": {"leaf_index": 1, "leaf_value": 0.10057672801351046, "leaf_weight": 23490.730920768343, "leaf_count": 4120206}, "right_child": {"leaf_index": 2, "leaf_value": 0.10057672801351046, "leaf_weight": 55744.571550799534, "leaf_count": 9777436}}}}, {"tree_index": 45, "num_leaves": 2, "num_cat": 0, "shrinkage": 0.1, "tree_structure": {"split_index": 0, "split_feature": 61, "split_gain": 144733, "threshold": 1.0000000180025095e-35, "decision_type": "<=", "default_left": true, "missing_type": "None", "internal_value": 0, "internal_weight": 0, "internal_count": 26886144, "left_child": {"leaf_index": 0, "leaf_value": -0.10055626672124628, "leaf_weight": 71453.55658250581, "leaf_count": 12988502}, "right_child": {"leaf_index": 1, "leaf_value": 0.10052154432116284, "leaf_weight": 71732.42129547242, "leaf_count": 13897642}}}, {"tree_index": 46, "num_leaves": 4, "num_cat": 0, "shrinkage": 0.1, "tree_structure": {"split_index": 0, "split_feature": 61, "split_gain": 130889, "threshold": 1.0000000180025095e-35, "decision_type": "<=", "default_left": true, "missing_type": "None", "internal_value": 0, "internal_weight": 0, "internal_count": 26886144, "left_child": {"split_index": 1, "split_feature": 0, "split_gain": 7.27596021626864e-12, "threshold": 1.0000000180025095e-35, "decision_type": "<=", "default_left": true, "missing_type": "None", "internal_value": -0.100503, "internal_weight": 64686.3, "internal_count": 12988502, "left_child": {"leaf_index": 0, "leaf_value": -0.10050305449317554, "leaf_weight": 42432.48527018353, "leaf_count": 8520105}, "right_child": {"split_index": 2, "split_feature": 4, "split_gain": 3.63798010813432e-12, "threshold": 1.0000000180025095e-35, "decision_type": "<=", "default_left": true, "missing_type": "None", "internal_value": -0.100503, "internal_weight": 22253.9, "internal_count": 4468397, "left_child": {"leaf_index": 2, "leaf_value": -0.10050305449317554, "leaf_weight": 10084.503680855036, "leaf_count": 2024888}, "right_child": {"leaf_index": 3, "leaf_value": -0.10050305449317554, "leaf_weight": 12169.352331932634, "leaf_count": 2443509}}}, "right_child": {"leaf_index": 1, "leaf_value": 0.10047167056569573, "leaf_weight": 64936.76236845739, "leaf_count": 13897642}}}, {"tree_index": 47, "num_leaves": 4, "num_cat": 0, "shrinkage": 0.1, "tree_structure": {"split_index": 0, "split_feature": 61, "split_gain": 118376, "threshold": 1.0000000180025095e-35, "decision_type": "<=", "default_left": true, "missing_type": "None", "internal_value": 0, "internal_weight": 0, "internal_count": 26886144, "left_child": {"split_index": 1, "split_feature": 3, "split_gain": 7.27596021626864e-12, "threshold": 1.0000000180025095e-35, "decision_type": "<=", "default_left": true, "missing_type": "None", "internal_value": -0.100455, "internal_weight": 58557.2, "internal_count": 12988502, "left_child": {"split_index": 2, "split_feature": 49, "split_gain": 1.81899005406716e-12, "threshold": 1.0000000180025095e-35, "decision_type": "<=", "default_left": true, "missing_type": "None", "internal_value": -0.100455, "internal_weight": 9688.29, "internal_count": 2148947, "left_child": {"leaf_index": 0, "leaf_value": -0.10045495146922666, "leaf_weight": 945.4497823622078, "leaf_count": 209709}, "right_child": {"leaf_index": 3, "leaf_value": -0.10045495146922666, "leaf_weight": 8742.83957793191, "leaf_count": 1939238}}, "right_child": {"leaf_index": 2, "leaf_value": -0.10045495146922666, "leaf_weight": 48868.932261625305, "leaf_count": 10839555}}, "right_child": {"leaf_index": 1, "leaf_value": 0.10042658258981113, "leaf_weight": 58782.250717168674, "leaf_count": 13897642}}}, {"tree_index": 48, "num_leaves": 3, "num_cat": 0, "shrinkage": 0.1, "tree_structure": {"split_index": 0, "split_feature": 61, "split_gain": 107064, "threshold": 1.0000000180025095e-35, "decision_type": "<=", "default_left": true, "missing_type": "None", "internal_value": 0, "internal_weight": 0, "internal_count": 26886144, "left_child": {"split_index": 1, "split_feature": 26, "split_gain": 7.27596021626864e-12, "threshold": 1.0000000180025095e-35, "decision_type": "<=", "default_left": true, "missing_type": "None", "internal_value": -0.100411, "internal_weight": 53006.5, "internal_count": 12988502, "left_child": {"leaf_index": 0, "leaf_value": -0.10041146933839712, "leaf_weight": 42729.79328694753, "leaf_count": 10470330}, "right_child": {"leaf_index": 2, "leaf_value": -0.10041146933839712, "leaf_weight": 10276.750496018678, "leaf_count": 2518172}}, "right_child": {"leaf_index": 1, "leaf_value": 0.10038582264162993, "leaf_weight": 53208.8784874999, "leaf_count": 13897642}}}, {"tree_index": 49, "num_leaves": 6, "num_cat": 0, "shrinkage": 0.1, "tree_structure": {"split_index": 0, "split_feature": 61, "split_gain": 96836.5, "threshold": 1.0000000180025095e-35, "decision_type": "<=", "default_left": true, "missing_type": "None", "internal_value": 0, "internal_weight": 0, "internal_count": 26886144, "left_child": {"split_index": 1, "split_feature": 5, "split_gain": 1.4551899615855568e-11, "threshold": 1.0000000180025095e-35, "decision_type": "<=", "default_left": true, "missing_type": "None", "internal_value": -0.100372, "internal_weight": 47980.1, "internal_count": 12988502, "left_child": {"split_index": 4, "split_feature": 25, "split_gain": 3.63798010813432e-12, "threshold": 1.0000000180025095e-35, "decision_type": "<=", "default_left": true, "missing_type": "None", "internal_value": -0.100372, "internal_weight": 30842.9, "internal_count": 8349360, "left_child": {"leaf_index": 0, "leaf_value": -0.10037215874890724, "leaf_weight": 25369.715716526844, "leaf_count": 6867730}, "right_child": {"leaf_index": 5, "leaf_value": -0.10037215874890724, "leaf_weight": 5473.210492706858, "leaf_count": 1481630}}, "right_child": {"leaf_index": 2, "leaf_value": -0.10037215874890724, "leaf_weight": 17137.20744825434, "leaf_count": 4639142}}, "right_child": {"split_index": 2, "split_feature": 1, "split_gain": 7.27596021626864e-12, "threshold": 1.0000000180025095e-35, "decision_type": "<=", "default_left": true, "missing_type": "None", "internal_value": 0.100349, "internal_weight": 48162.2, "internal_count": 13897642, "left_child": {"split_index": 3, "split_feature": 9, "split_gain": 3.63798010813432e-12, "threshold": 1.0000000180025095e-35, "decision_type": "<=", "default_left": true, "missing_type": "None", "internal_value": 0.100349, "internal_weight": 16534.1, "internal_count": 4771064, "left_child": {"leaf_index": 1, "leaf_value": 0.10034897468949233, "leaf_weight": 9808.24632323673, "leaf_count": 2830261}, "right_child": {"leaf_index": 4, "leaf_value": 0.10034897468949233, "leaf_weight": 6725.83690651739, "leaf_count": 1940803}}, "right_child": {"leaf_index": 3, "leaf_value": 0.10034897468949233, "leaf_weight": 31628.08133675065, "leaf_count": 9126578}}}}, {"tree_index": 50, "num_leaves": 3, "num_cat": 0, "shrinkage": 0.1, "tree_structure": {"split_index": 0, "split_feature": 61, "split_gain": 87589.703125, "threshold": 1.0000000180025095e-35, "decision_type": "<=", "default_left": true, "missing_type": "None", "internal_value": 0, "internal_weight": 0, "internal_count": 26886144, "left_child": {"leaf_index": 0, "leaf_value": -0.10033661761997326, "leaf_weight": 43428.81600933848, "leaf_count": 12988502}, "right_child": {"split_index": 1, "split_feature": 6, "split_gain": 7.27596021626864e-12, "threshold": 1.0000000180025095e-35, "decision_type": "<=", "default_left": true, "missing_type": "None", "internal_value": 0.100316, "internal_weight": 43592.7, "internal_count": 13897642, "left_child": {"leaf_index": 1, "leaf_value": 0.10031565462092014, "leaf_weight": 36310.73726907815, "leaf_count": 11576113}, "right_child": {"leaf_index": 2, "leaf_value": 0.10031565462092014, "leaf_weight": 7281.928707982181, "leaf_count": 2321529}}}}, {"tree_index": 51, "num_leaves": 5, "num_cat": 0, "shrinkage": 0.1, "tree_structure": {"split_index": 0, "split_feature": 61, "split_gain": 79228.6015625, "threshold": 1.0000000180025095e-35, "decision_type": "<=", "default_left": true, "missing_type": "None", "internal_value": 0, "internal_weight": 0, "internal_count": 26886144, "left_child": {"split_index": 1, "split_feature": 0, "split_gain": 7.27596021626864e-12, "threshold": 1.0000000180025095e-35, "decision_type": "<=", "default_left": true, "missing_type": "None", "internal_value": -0.100304, "internal_weight": 39308, "internal_count": 12988502, "left_child": {"split_index": 3, "split_feature": 9, "split_gain": 3.63798010813432e-12, "threshold": 1.0000000180025095e-35, "decision_type": "<=", "default_left": true, "missing_type": "None", "internal_value": -0.100304, "internal_weight": 25785, "internal_count": 8520105, "left_child": {"leaf_index": 0, "leaf_value": -0.10030448190876468, "leaf_weight": 23008.12961837626, "leaf_count": 7602559}, "right_child": {"leaf_index": 4, "leaf_value": -0.10030448190876468, "leaf_weight": 2776.8304460146464, "leaf_count": 917546}}, "right_child": {"leaf_index": 2, "leaf_value": -0.10030448190876468, "leaf_weight": 13523.006840507733, "leaf_count": 4468397}}, "right_child": {"split_index": 2, "split_feature": 8, "split_gain": 7.27596021626864e-12, "threshold": 1.0000000180025095e-35, "decision_type": "<=", "default_left": true, "missing_type": "None", "internal_value": 0.100286, "internal_weight": 39455.5, "internal_count": 13897642, "left_child": {"leaf_index": 1, "leaf_value": 0.10028552216850213, "leaf_weight": 21956.483532987535, "leaf_count": 7733856}, "right_child": {"leaf_index": 3, "leaf_value": 0.10028552216850213, "leaf_weight": 17499.04133330891, "leaf_count": 6163786}}}}, {"tree_index": 52, "num_leaves": 6, "num_cat": 0, "shrinkage": 0.1, "tree_structure": {"split_index": 0, "split_feature": 61, "split_gain": 71667.8984375, "threshold": 1.0000000180025095e-35, "decision_type": "<=", "default_left": true, "missing_type": "None", "internal_value": 0, "internal_weight": 0, "internal_count": 26886144, "left_child": {"split_index": 2, "split_feature": 17, "split_gain": 7.27596021626864e-12, "threshold": 1.0000000180025095e-35, "decision_type": "<=", "default_left": true, "missing_type": "None", "internal_value": -0.100275, "internal_weight": 35577.1, "internal_count": 12988502, "left_child": {"leaf_index": 0, "leaf_value": -0.10027542315433038, "leaf_weight": 18165.038171842927, "leaf_count": 6631699}, "right_child": {"leaf_index": 3, "leaf_value": -0.10027542315433038, "leaf_weight": 17412.064260740066, "leaf_count": 6356803}}, "right_child": {"split_index": 1, "split_feature": 0, "split_gain": 7.27596021626864e-12, "threshold": 1.0000000180025095e-35, "decision_type": "<=", "default_left": true, "missing_type": "None", "internal_value": 0.100258, "internal_weight": 35710, "internal_count": 13897642, "left_child": {"leaf_index": 1, "leaf_value": 0.10025828353087288, "leaf_weight": 10586.884217896499, "leaf_count": 4120206}, "right_child": {"split_index": 3, "split_feature": 2, "split_gain": 3.63798010813432e-12, "threshold": 1.0000000180025095e-35, "decision_type": "<=", "default_left": true, "missing_type": "None", "internal_value": 0.100258, "internal_weight": 25123.2, "internal_count": 9777436, "left_child": {"split_index": 4, "split_feature": 13, "split_gain": 1.81899005406716e-12, "threshold": 1.0000000180025095e-35, "decision_type": "<=", "default_left": true, "missing_type": "None", "internal_value": 0.100258, "internal_weight": 14650.3, "internal_count": 5701592, "left_child": {"leaf_index": 2, "leaf_value": 0.10025828353087288, "leaf_weight": 4413.369133757427, "leaf_count": 1717596}, "right_child": {"leaf_index": 5, "leaf_value": 0.10025828353087288, "leaf_weight": 10236.892130287364, "leaf_count": 3983996}}, "right_child": {"leaf_index": 4, "leaf_value": 0.10025828353087288, "leaf_weight": 10472.89589845948, "leaf_count": 4075844}}}}}, {"tree_index": 53, "num_leaves": 4, "num_cat": 0, "shrinkage": 0.1, "tree_structure": {"split_index": 0, "split_feature": 61, "split_gain": 64830.5, "threshold": 1.0000000180025095e-35, "decision_type": "<=", "default_left": true, "missing_type": "None", "internal_value": 0, "internal_weight": 0, "internal_count": 26886144, "left_child": {"split_index": 2, "split_feature": 22, "split_gain": 3.63798010813432e-12, "threshold": 1.0000000180025095e-35, "decision_type": "<=", "default_left": true, "missing_type": "None", "internal_value": -0.100249, "internal_weight": 32199.5, "internal_count": 12988502, "left_child": {"leaf_index": 0, "leaf_value": -0.10024914635347809, "leaf_weight": 16713.568978116382, "leaf_count": 6741850}, "right_child": {"leaf_index": 3, "leaf_value": -0.10024914635347809, "leaf_weight": 15485.934733684175, "leaf_count": 6246652}}, "right_child": {"split_index": 1, "split_feature": 8, "split_gain": 3.63798010813432e-12, "threshold": 1.0000000180025095e-35, "decision_type": "<=", "default_left": true, "missing_type": "None", "internal_value": 0.100234, "internal_weight": 32319.3, "internal_count": 13897642, "left_child": {"leaf_index": 1, "leaf_value": 0.10023363905849146, "leaf_weight": 17985.279398024082, "leaf_count": 7733856}, "right_child": {"leaf_index": 2, "leaf_value": 0.10023363905849146, "leaf_weight": 14334.041564729065, "leaf_count": 6163786}}}}, {"tree_index": 54, "num_leaves": 5, "num_cat": 0, "shrinkage": 0.1, "tree_structure": {"split_index": 0, "split_feature": 61, "split_gain": 58646.8984375, "threshold": 1.0000000180025095e-35, "decision_type": "<=", "default_left": true, "missing_type": "None", "internal_value": 0, "internal_weight": 0, "internal_count": 26886144, "left_child": {"split_index": 1, "split_feature": 0, "split_gain": 3.63798010813432e-12, "threshold": 1.0000000180025095e-35, "decision_type": "<=", "default_left": true, "missing_type": "None", "internal_value": -0.100225, "internal_weight": 29141.9, "internal_count": 12988502, "left_child": {"leaf_index": 0, "leaf_value": -0.10022538322100322, "leaf_weight": 19116.277655116282, "leaf_count": 8520105}, "right_child": {"split_index": 2, "split_feature": 1, "split_gain": 1.81899005406716e-12, "threshold": 1.0000000180025095e-35, "decision_type": "<=", "default_left": true, "missing_type": "None", "internal_value": -0.100225, "internal_weight": 10025.6, "internal_count": 4468397, "left_child": {"split_index": 3, "split_feature": 45, "split_gain": 1.136870003519419e-13, "threshold": 1.0000000180025095e-35, "decision_type": "<=", "default_left": true, "missing_type": "None", "internal_value": -0.100225, "internal_weight": 999.616, "internal_count": 445528, "left_child": {"leaf_index": 2, "leaf_value": -0.10022538322100322, "leaf_weight": 970.444273756817, "leaf_count": 432526}, "right_child": {"leaf_index": 4, "leaf_value": -0.10022538322100322, "leaf_weight": 29.17215715907514, "leaf_count": 13002}}, "right_child": {"leaf_index": 3, "leaf_value": -0.10022538322100322, "leaf_weight": 9025.978057096712, "leaf_count": 4022869}}}, "right_child": {"leaf_index": 1, "leaf_value": 0.10021136185578941, "leaf_weight": 29249.90223727841, "leaf_count": 13897642}}}, {"tree_index": 55, "num_leaves": 3, "num_cat": 0, "shrinkage": 0.1, "tree_structure": {"split_index": 0, "split_feature": 61, "split_gain": 53054.30078125, "threshold": 1.0000000180025095e-35, "decision_type": "<=", "default_left": true, "missing_type": "None", "internal_value": 0, "internal_weight": 0, "internal_count": 26886144, "left_child": {"leaf_index": 0, "leaf_value": -0.1002038820256799, "leaf_weight": 26374.026996186003, "leaf_count": 12988502}, "right_child": {"split_index": 1, "split_feature": 13, "split_gain": 3.63798010813432e-12, "threshold": 1.0000000180025095e-35, "decision_type": "<=", "default_left": true, "missing_type": "None", "internal_value": 0.100191, "internal_weight": 26471.5, "internal_count": 13897642, "left_child": {"leaf_index": 1, "leaf_value": 0.10019120340860842, "leaf_weight": 10139.291652758606, "leaf_count": 5323176}, "right_child": {"leaf_index": 2, "leaf_value": 0.10019120340860842, "leaf_weight": 16332.169280268485, "leaf_count": 8574466}}}}, {"tree_index": 56, "num_leaves": 3, "num_cat": 0, "shrinkage": 0.1, "tree_structure": {"split_index": 0, "split_feature": 61, "split_gain": 47996, "threshold": 1.0000000180025095e-35, "decision_type": "<=", "default_left": true, "missing_type": "None", "internal_value": 0, "internal_weight": 0, "internal_count": 26886144, "left_child": {"leaf_index": 0, "leaf_value": -0.10018444800974668, "leaf_weight": 23868.59997338103, "leaf_count": 12988502}, "right_child": {"split_index": 1, "split_feature": 0, "split_gain": 3.63798010813432e-12, "threshold": 1.0000000180025095e-35, "decision_type": "<=", "default_left": true, "missing_type": "None", "internal_value": 0.100173, "internal_weight": 23956.5, "internal_count": 13897642, "left_child": {"leaf_index": 1, "leaf_value": 0.10017297019856929, "leaf_weight": 7102.337116148556, "leaf_count": 4120206}, "right_child": {"leaf_index": 2, "leaf_value": 0.10017297019856929, "leaf_weight": 16854.16860311525, "leaf_count": 9777436}}}}, {"tree_index": 57, "num_leaves": 3, "num_cat": 0, "shrinkage": 0.1, "tree_structure": {"split_index": 0, "split_feature": 61, "split_gain": 43420.80078125, "threshold": 1.0000000180025095e-35, "decision_type": "<=", "default_left": true, "missing_type": "None", "internal_value": 0, "internal_weight": 0, "internal_count": 26886144, "left_child": {"split_index": 1, "split_feature": 0, "split_gain": 3.63798010813432e-12, "threshold": 1.0000000180025095e-35, "decision_type": "<=", "default_left": true, "missing_type": "None", "internal_value": -0.100167, "internal_weight": 21600.8, "internal_count": 12988502, "left_child": {"leaf_index": 0, "leaf_value": -0.10016686650560552, "leaf_weight": 14169.53943151224, "leaf_count": 8520105}, "right_child": {"leaf_index": 2, "leaf_value": -0.10016686650560552, "leaf_weight": 7431.2614090027055, "leaf_count": 4468397}}, "right_child": {"leaf_index": 1, "leaf_value": 0.10015649044688135, "leaf_weight": 21680.129049103474, "leaf_count": 13897642}}}, {"tree_index": 58, "num_leaves": 4, "num_cat": 0, "shrinkage": 0.1, "tree_structure": {"split_index": 0, "split_feature": 61, "split_gain": 39282.5, "threshold": 1.0000000180025095e-35, "decision_type": "<=", "default_left": true, "missing_type": "None", "internal_value": 0, "internal_weight": 0, "internal_count": 26886144, "left_child": {"split_index": 1, "split_feature": 5, "split_gain": 3.63798010813432e-12, "threshold": 1.0000000180025095e-35, "decision_type": "<=", "default_left": true, "missing_type": "None", "internal_value": -0.100151, "internal_weight": 19548.2, "internal_count": 12988502, "left_child": {"leaf_index": 0, "leaf_value": -0.1001509573134858, "leaf_weight": 12566.08465673402, "leaf_count": 8349360}, "right_child": {"leaf_index": 2, "leaf_value": -0.1001509573134858, "leaf_weight": 6982.07420767704, "leaf_count": 4639142}}, "right_child": {"split_index": 2, "split_feature": 6, "split_gain": 3.63798010813432e-12, "threshold": 1.0000000180025095e-35, "decision_type": "<=", "default_left": true, "missing_type": "None", "internal_value": 0.100142, "internal_weight": 19619.8, "internal_count": 13897642, "left_child": {"leaf_index": 1, "leaf_value": 0.10014158018461253, "leaf_weight": 16342.38459970348, "leaf_count": 11576113}, "right_child": {"leaf_index": 3, "leaf_value": 0.10014158018461253, "leaf_weight": 3277.3798750379356, "leaf_count": 2321529}}}}, {"tree_index": 59, "num_leaves": 2, "num_cat": 0, "shrinkage": 0.1, "tree_structure": {"split_index": 0, "split_feature": 61, "split_gain": 35539, "threshold": 1.0000000180025095e-35, "decision_type": "<=", "default_left": true, "missing_type": "None", "internal_value": 0, "internal_weight": 0, "internal_count": 26886144, "left_child": {"leaf_index": 0, "leaf_value": -0.10013657876643366, "leaf_weight": 17690.317172667943, "leaf_count": 12988502}, "right_child": {"leaf_index": 1, "leaf_value": 0.10012808347806056, "leaf_weight": 17754.968231160427, "leaf_count": 13897642}}}, {"tree_index": 60, "num_leaves": 5, "num_cat": 0, "shrinkage": 0.1, "tree_structure": {"split_index": 0, "split_feature": 61, "split_gain": 32152.80078125, "threshold": 1.0000000180025095e-35, "decision_type": "<=", "default_left": true, "missing_type": "None", "internal_value": 0, "internal_weight": 0, "internal_count": 26886144, "left_child": {"split_index": 1, "split_feature": 3, "split_gain": 1.81899005406716e-12, "threshold": 1.0000000180025095e-35, "decision_type": "<=", "default_left": true, "missing_type": "None", "internal_value": -0.100124, "internal_weight": 16008.8, "internal_count": 12988502, "left_child": {"leaf_index": 0, "leaf_value": -0.10012356161976986, "leaf_weight": 2648.6611385142896, "leaf_count": 2148947}, "right_child": {"leaf_index": 2, "leaf_value": -0.10012356161976986, "leaf_weight": 13360.175047261873, "leaf_count": 10839555}}, "right_child": {"split_index": 2, "split_feature": 6, "split_gain": 1.81899005406716e-12, "threshold": 1.0000000180025095e-35, "decision_type": "<=", "default_left": true, "missing_type": "None", "internal_value": 0.100116, "internal_weight": 16067.2, "internal_count": 13897642, "left_child": {"leaf_index": 1, "leaf_value": 0.10011587044461848, "leaf_weight": 13383.273097901489, "leaf_count": 11576113}, "right_child": {"split_index": 3, "split_feature": 16, "split_gain": 4.5474699852075806e-13, "threshold": 1.0000000180025095e-35, "decision_type": "<=", "default_left": true, "missing_type": "None", "internal_value": 0.100116, "internal_weight": 2683.95, "internal_count": 2321529, "left_child": {"leaf_index": 3, "leaf_value": 0.10011587044461848, "leaf_weight": 1380.3423536949558, "leaf_count": 1193953}, "right_child": {"leaf_index": 4, "leaf_value": 0.10011587044461848, "leaf_weight": 1303.603165124543, "leaf_count": 1127576}}}}}, {"tree_index": 61, "num_leaves": 4, "num_cat": 0, "shrinkage": 0.1, "tree_structure": {"split_index": 0, "split_feature": 61, "split_gain": 29089.599609375, "threshold": 1.0000000180025095e-35, "decision_type": "<=", "default_left": true, "missing_type": "None", "internal_value": 0, "internal_weight": 0, "internal_count": 26886144, "left_child": {"split_index": 2, "split_feature": 1, "split_gain": 1.81899005406716e-12, "threshold": 1.0000000180025095e-35, "decision_type": "<=", "default_left": true, "missing_type": "None", "internal_value": -0.100112, "internal_weight": 14487, "internal_count": 12988502, "left_child": {"leaf_index": 0, "leaf_value": -0.10011178406533283, "leaf_weight": 1461.7707710824907, "leaf_count": 1310568}, "right_child": {"leaf_index": 3, "leaf_value": -0.10011178406533283, "leaf_weight": 13025.239886698313, "leaf_count": 11677934}}, "right_child": {"split_index": 1, "split_feature": 2, "split_gain": 3.63798010813432e-12, "threshold": 1.0000000180025095e-35, "decision_type": "<=", "default_left": true, "missing_type": "None", "internal_value": 0.100105, "internal_weight": 14539.7, "internal_count": 13897642, "left_child": {"leaf_index": 1, "leaf_value": 0.1001048425764568, "leaf_weight": 9791.870350264362, "leaf_count": 9359445}, "right_child": {"leaf_index": 2, "leaf_value": 0.1001048425764568, "leaf_weight": 4747.8709098625695, "leaf_count": 4538197}}}}, {"tree_index": 62, "num_leaves": 4, "num_cat": 0, "shrinkage": 0.1, "tree_structure": {"split_index": 0, "split_feature": 61, "split_gain": 26318.5, "threshold": 1.0000000180025095e-35, "decision_type": "<=", "default_left": true, "missing_type": "None", "internal_value": 0, "internal_weight": 0, "internal_count": 26886144, "left_child": {"split_index": 1, "split_feature": 3, "split_gain": 3.63798010813432e-12, "threshold": 1.0000000180025095e-35, "decision_type": "<=", "default_left": true, "missing_type": "None", "internal_value": -0.100101, "internal_weight": 13109.7, "internal_count": 12988502, "left_child": {"leaf_index": 0, "leaf_value": -0.10010114073694909, "leaf_weight": 2169.001258194796, "leaf_count": 2148947}, "right_child": {"leaf_index": 2, "leaf_value": -0.10010114073694909, "leaf_weight": 10940.71116378007, "leaf_count": 10839555}}, "right_child": {"split_index": 2, "split_feature": 1, "split_gain": 1.81899005406716e-12, "threshold": 1.0000000180025095e-35, "decision_type": "<=", "default_left": true, "missing_type": "None", "internal_value": 0.100095, "internal_weight": 13157.3, "internal_count": 13897642, "left_child": {"leaf_index": 1, "leaf_value": 0.10009485550306095, "leaf_weight": 4516.920931188855, "leaf_count": 4771064}, "right_child": {"leaf_index": 3, "leaf_value": 0.10009485550306095, "leaf_weight": 8640.427208339213, "leaf_count": 9126578}}}}, {"tree_index": 63, "num_leaves": 7, "num_cat": 0, "shrinkage": 0.1, "tree_structure": {"split_index": 0, "split_feature": 61, "split_gain": 23811.599609375, "threshold": 1.0000000180025095e-35, "decision_type": "<=", "default_left": true, "missing_type": "None", "internal_value": 0, "internal_weight": 0, "internal_count": 26886144, "left_child": {"split_index": 1, "split_feature": 0, "split_gain": 1.81899005406716e-12, "threshold": 1.0000000180025095e-35, "decision_type": "<=", "default_left": true, "missing_type": "None", "internal_value": -0.100092, "internal_weight": 11863.2, "internal_count": 12988502, "left_child": {"split_index": 3, "split_feature": 1, "split_gain": 9.0949502703358e-13, "threshold": 1.0000000180025095e-35, "decision_type": "<=", "default_left": true, "missing_type": "None", "internal_value": -0.100092, "internal_weight": 7781.97, "internal_count": 8520105, "left_child": {"leaf_index": 0, "leaf_value": -0.10009150819966746, "leaf_weight": 790.0971983093768, "leaf_count": 865040}, "right_child": {"leaf_index": 4, "leaf_value": -0.10009150819966746, "leaf_weight": 6991.867901341175, "leaf_count": 7655065}}, "right_child": {"split_index": 5, "split_feature": 14, "split_gain": 4.5474699852075806e-13, "threshold": 1.0000000180025095e-35, "decision_type": "<=", "default_left": true, "missing_type": "None", "internal_value": -0.100092, "internal_weight": 4081.28, "internal_count": 4468397, "left_child": {"leaf_index": 2, "leaf_value": -0.10009150819966746, "leaf_weight": 2931.4958885335363, "leaf_count": 3209556}, "right_child": {"leaf_index": 6, "leaf_value": -0.10009150819966746, "leaf_weight": 1149.78122077242, "leaf_count": 1258841}}}, "right_child": {"split_index": 2, "split_feature": 1, "split_gain": 1.81899005406716e-12, "threshold": 1.0000000180025095e-35, "decision_type": "<=", "default_left": true, "missing_type": "None", "internal_value": 0.100086, "internal_weight": 11906.3, "internal_count": 13897642, "left_child": {"leaf_index": 1, "leaf_value": 0.10008581208878312, "leaf_weight": 4087.4294233033434, "leaf_count": 4771064}, "right_child": {"split_index": 4, "split_feature": 13, "split_gain": 9.0949502703358e-13, "threshold": 1.0000000180025095e-35, "decision_type": "<=", "default_left": true, "missing_type": "None", "internal_value": 0.100086, "internal_weight": 7818.85, "internal_count": 9126578, "left_child": {"leaf_index": 3, "leaf_value": 0.10008581208878312, "leaf_weight": 3347.187122381525, "leaf_count": 3907014}, "right_child": {"leaf_index": 5, "leaf_value": 0.10008581208878312, "leaf_weight": 4471.664909633342, "leaf_count": 5219564}}}}}, {"tree_index": 64, "num_leaves": 4, "num_cat": 0, "shrinkage": 0.1, "tree_structure": {"split_index": 0, "split_feature": 61, "split_gain": 21543.69921875, "threshold": 1.0000000180025095e-35, "decision_type": "<=", "default_left": true, "missing_type": "None", "internal_value": 0, "internal_weight": 0, "internal_count": 26886144, "left_child": {"split_index": 1, "split_feature": 1, "split_gain": 1.81899005406716e-12, "threshold": 1.0000000180025095e-35, "decision_type": "<=", "default_left": true, "missing_type": "None", "internal_value": -0.100083, "internal_weight": 10735.2, "internal_count": 12988502, "left_child": {"split_index": 2, "split_feature": 10, "split_gain": 2.273740007038838e-13, "threshold": 1.0000000180025095e-35, "decision_type": "<=", "default_left": true, "missing_type": "None", "internal_value": -0.100083, "internal_weight": 1083.2, "internal_count": 1310568, "left_child": {"leaf_index": 0, "leaf_value": -0.10008279210821343, "leaf_weight": 530.7119467451703, "leaf_count": 642108}, "right_child": {"leaf_index": 3, "leaf_value": -0.10008279210821343, "leaf_weight": 552.492272205418, "leaf_count": 668460}}, "right_child": {"leaf_index": 2, "leaf_value": -0.10008279210821343, "leaf_weight": 9651.988586190506, "leaf_count": 11677934}}, "right_child": {"leaf_index": 1, "leaf_value": 0.10007764320256701, "leaf_weight": 10774.084198257886, "leaf_count": 13897642}}}, {"tree_index": 65, "num_leaves": 4, "num_cat": 0, "shrinkage": 0.1, "tree_structure": {"split_index": 0, "split_feature": 61, "split_gain": 19492, "threshold": 1.0000000180025095e-35, "decision_type": "<=", "default_left": true, "missing_type": "None", "internal_value": 0, "internal_weight": 0, "internal_count": 26886144, "left_child": {"split_index": 2, "split_feature": 21, "split_gain": 1.81899005406716e-12, "threshold": 1.0000000180025095e-35, "decision_type": "<=", "default_left": true, "missing_type": "None", "internal_value": -0.100075, "internal_weight": 9714.33, "internal_count": 12988502, "left_child": {"leaf_index": 0, "leaf_value": -0.10007490780697337, "leaf_weight": 1318.261762715876, "leaf_count": 1762576}, "right_child": {"leaf_index": 3, "leaf_value": -0.10007490780697337, "leaf_weight": 8396.068593285047, "leaf_count": 11225926}}, "right_child": {"split_index": 1, "split_feature": 1, "split_gain": 1.81899005406716e-12, "threshold": 1.0000000180025095e-35, "decision_type": "<=", "default_left": true, "missing_type": "None", "internal_value": 0.10007, "internal_weight": 9749.48, "internal_count": 13897642, "left_child": {"leaf_index": 1, "leaf_value": 0.10007025374237877, "leaf_weight": 3346.9982530646957, "leaf_count": 4771064}, "right_child": {"leaf_index": 2, "leaf_value": 0.10007025374237877, "leaf_weight": 6402.479745075456, "leaf_count": 9126578}}}}, {"tree_index": 66, "num_leaves": 5, "num_cat": 0, "shrinkage": 0.1, "tree_structure": {"split_index": 0, "split_feature": 61, "split_gain": 17635.80078125, "threshold": 1.0000000180025095e-35, "decision_type": "<=", "default_left": true, "missing_type": "None", "internal_value": 0, "internal_weight": 0, "internal_count": 26886144, "left_child": {"split_index": 1, "split_feature": 0, "split_gain": 1.81899005406716e-12, "threshold": 1.0000000180025095e-35, "decision_type": "<=", "default_left": true, "missing_type": "None", "internal_value": -0.100068, "internal_weight": 8790.48, "internal_count": 12988502, "left_child": {"split_index": 3, "split_feature": 5, "split_gain": 9.0949502703358e-13, "threshold": 1.0000000180025095e-35, "decision_type": "<=", "default_left": true, "missing_type": "None", "internal_value": -0.100068, "internal_weight": 5766.32, "internal_count": 8520105, "left_child": {"leaf_index": 0, "leaf_value": -0.10006776375897156, "leaf_weight": 3477.7841845662333, "leaf_count": 5138648}, "right_child": {"leaf_index": 4, "leaf_value": -0.10006776375897156, "leaf_weight": 2288.535364825686, "leaf_count": 3381457}}, "right_child": {"leaf_index": 2, "leaf_value": -0.10006776375897156, "leaf_weight": 3024.1651922768797, "leaf_count": 4468397}}, "right_child": {"split_index": 2, "split_feature": 2, "split_gain": 1.81899005406716e-12, "threshold": 1.0000000180025095e-35, "decision_type": "<=", "default_left": true, "missing_type": "None", "internal_value": 0.100064, "internal_weight": 8822.25, "internal_count": 13897642, "left_child": {"leaf_index": 1, "leaf_value": 0.10006356240894194, "leaf_weight": 5941.395321369928, "leaf_count": 9359445}, "right_child": {"leaf_index": 3, "leaf_value": 0.10006356240894194, "leaf_weight": 2880.8569763757405, "leaf_count": 4538197}}}}, {"tree_index": 67, "num_leaves": 7, "num_cat": 0, "shrinkage": 0.1, "tree_structure": {"split_index": 0, "split_feature": 61, "split_gain": 15956.5, "threshold": 1.0000000180025095e-35, "decision_type": "<=", "default_left": true, "missing_type": "None", "internal_value": 0, "internal_weight": 0, "internal_count": 26886144, "left_child": {"split_index": 2, "split_feature": 5, "split_gain": 9.0949502703358e-13, "threshold": 1.0000000180025095e-35, "decision_type": "<=", "default_left": true, "missing_type": "None", "internal_value": -0.100061, "internal_weight": 7954.45, "internal_count": 12988502, "left_child": {"leaf_index": 0, "leaf_value": -0.10006132303400368, "leaf_weight": 5113.332797046751, "leaf_count": 8349360}, "right_child": {"split_index": 3, "split_feature": 27, "split_gain": 4.5474699852075806e-13, "threshold": 1.0000000180025095e-35, "decision_type": "<=", "default_left": true, "missing_type": "None", "internal_value": -0.100061, "internal_weight": 2841.11, "internal_count": 4639142, "left_child": {"leaf_index": 3, "leaf_value": -0.10006132303400368, "leaf_weight": 2503.842540517915, "leaf_count": 4088426}, "right_child": {"leaf_index": 4, "leaf_value": -0.10006132303400368, "leaf_weight": 337.27066321950406, "leaf_count": 550716}}}, "right_child": {"split_index": 1, "split_feature": 4, "split_gain": 9.0949502703358e-13, "threshold": 1.0000000180025095e-35, "decision_type": "<=", "default_left": true, "missing_type": "None", "internal_value": 0.100058, "internal_weight": 7983.16, "internal_count": 13897642, "left_child": {"split_index": 4, "split_feature": 24, "split_gain": 2.273740007038838e-13, "threshold": 1.0000000180025095e-35, "decision_type": "<=", "default_left": true, "missing_type": "None", "internal_value": 0.100058, "internal_weight": 2004.28, "internal_count": 3489186, "left_child": {"leaf_index": 1, "leaf_value": 0.10005750586863855, "leaf_weight": 1205.9889032797655, "leaf_count": 2099469}, "right_child": {"split_index": 5, "split_feature": 58, "split_gain": 1.136870003519419e-13, "threshold": 1.0000000180025095e-35, "decision_type": "<=", "default_left": true, "missing_type": "None", "internal_value": 0.100058, "internal_weight": 798.289, "internal_count": 1389717, "left_child": {"leaf_index": 5, "leaf_value": 0.10005750586863855, "leaf_weight": 361.43782726302743, "leaf_count": 629216}, "right_child": {"leaf_index": 6, "leaf_value": 0.10005750586863855, "leaf_weight": 436.85130236891564, "leaf_count": 760501}}}, "right_child": {"leaf_index": 2, "leaf_value": 0.10005750586863855, "leaf_weight": 5978.884392327629, "leaf_count": 10408456}}}}, {"tree_index": 68, "num_leaves": 4, "num_cat": 0, "shrinkage": 0.1, "tree_structure": {"split_index": 0, "split_feature": 61, "split_gain": 14437.2001953125, "threshold": 1.0000000180025095e-35, "decision_type": "<=", "default_left": true, "missing_type": "None", "internal_value": 0, "internal_weight": 0, "internal_count": 26886144, "left_child": {"split_index": 2, "split_feature": 35, "split_gain": 9.0949502703358e-13, "threshold": 1.0000000180025095e-35, "decision_type": "<=", "default_left": true, "missing_type": "None", "internal_value": -0.100055, "internal_weight": 7197.88, "internal_count": 12988502, "left_child": {"leaf_index": 0, "leaf_value": -0.10005547956845678, "leaf_weight": 6057.790141826612, "leaf_count": 10931223}, "right_child": {"leaf_index": 3, "leaf_value": -0.10005547956845678, "leaf_weight": 1140.0887572403299, "leaf_count": 2057279}}, "right_child": {"split_index": 1, "split_feature": 5, "split_gain": 9.0949502703358e-13, "threshold": 1.0000000180025095e-35, "decision_type": "<=", "default_left": true, "missing_type": "None", "internal_value": 0.100052, "internal_weight": 7223.84, "internal_count": 13897642, "left_child": {"leaf_index": 1, "leaf_value": 0.10005203863333806, "leaf_weight": 5874.3715635519475, "leaf_count": 11301458}, "right_child": {"leaf_index": 2, "leaf_value": 0.10005203863333806, "leaf_weight": 1349.467428304255, 