{"name": "tree", "version": "v4", "num_class": 1, "num_tree_per_iteration": 1, "label_index": 0, "max_feature_idx": 57, "objective": "binary sigmoid:1", "average_output": false, "feature_names": ["Column_0", "Column_1", "Column_2", "Column_3", "Column_4", "Column_5", "Column_6", "Column_7", "Column_8", "Column_9", "Column_10", "Column_11", "Column_12", "Column_13", "Column_14", "Column_15", "Column_16", "Column_17", "Column_18", "Column_19", "Column_20", "Column_21", "Column_22", "Column_23", "Column_24", "Column_25", "Column_26", "Column_27", "Column_28", "Column_29", "Column_30", "Column_31", "Column_32", "Column_33", "Column_34", "Column_35", "Column_36", "Column_37", "Column_38", "Column_39", "Column_40", "Column_41", "Column_42", "Column_43", "Column_44", "Column_45", "Column_46", "Column_47", "Column_48", "Column_49", "Column_50", "Column_51", "Column_52", "Column_53", "Column_54", "Column_55", "Column_56", "Column_57"], "monotone_constraints": [], "feature_infos": {"Column_0": {"min_value": 0, "max_value": 1, "values": []}, "Column_1": {"min_value": 0, "max_value": 1, "values": []}, "Column_2": {"min_value": 0, "max_value": 1, "values": []}, "Column_3": {"min_value": 0, "max_value": 1, "values": []}, "Column_4": {"min_value": 0, "max_value": 1, "values": []}, "Column_5": {"min_value": 0, "max_value": 1, "values": []}, "Column_6": {"min_value": 0, "max_value": 1, "values": []}, "Column_7": {"min_value": 0, "max_value": 1, "values": []}, "Column_8": {"min_value": 0, "max_value": 1, "values": []}, "Column_9": {"min_value": 0, "max_value": 1, "values": []}, "Column_10": {"min_value": 0, "max_value": 1, "values": []}, "Column_11": {"min_value": 0, "max_value": 1, "values": []}, "Column_12": {"min_value": 0, "max_value": 1, "values": []}, "Column_13": {"min_value": 0, "max_value": 1, "values": []}, "Column_14": {"min_value": 0, "max_value": 1, "values": []}, "Column_15": {"min_value": 0, "max_value": 1, "values": []}, "Column_16": {"min_value": 0, "max_value": 1, "values": []}, "Column_17": {"min_value": 0, "max_value": 1, "values": []}, "Column_18": {"min_value": 0, "max_value": 1, "values": []}, "Column_19": {"min_value": 0, "max_value": 1, "values": []}, "Column_20": {"min_value": 0, "max_value": 1, "values": []}, "Column_21": {"min_value": 0, "max_value": 1, "values": []}, "Column_22": {"min_value": 0, "max_value": 1, "values": []}, "Column_23": {"min_value": 0, "max_value": 1, "values": []}, "Column_24": {"min_value": 0, "max_value": 1, "values": []}, "Column_25": {"min_value": 0, "max_value": 1, "values": []}, "Column_26": {"min_value": 0, "max_value": 1, "values": []}, "Column_27": {"min_value": 0, "max_value": 1, "values": []}, "Column_28": {"min_value": 0, "max_value": 1, "values": []}, "Column_29": {"min_value": 0, "max_value": 1, "values": []}, "Column_30": {"min_value": 0, "max_value": 1, "values": []}, "Column_31": {"min_value": 0, "max_value": 1, "values": []}, "Column_32": {"min_value": 0, "max_value": 1, "values": []}, "Column_33": {"min_value": 0, "max_value": 1, "values": []}, "Column_34": {"min_value": 0, "max_value": 1, "values": []}, "Column_35": {"min_value": 0, "max_value": 1, "values": []}, "Column_36": {"min_value": 0, "max_value": 1, "values": []}, "Column_37": {"min_value": 0, "max_value": 1, "values": []}, "Column_38": {"min_value": 0, "max_value": 1, "values": []}, "Column_39": {"min_value": 0, "max_value": 1, "values": []}, "Column_40": {"min_value": 0, "max_value": 1, "values": []}, "Column_41": {"min_value": 0, "max_value": 1, "values": []}, "Column_42": {"min_value": 0, "max_value": 1, "values": []}, "Column_43": {"min_value": 0, "max_value": 1, "values": []}, "Column_44": {"min_value": 0, "max_value": 1, "values": []}, "Column_45": {"min_value": 0, "max_value": 1, "values": []}, "Column_46": {"min_value": 0, "max_value": 1, "values": []}, "Column_47": {"min_value": 0, "max_value": 1, "values": []}, "Column_48": {"min_value": 0, "max_value": 1, "values": []}, "Column_49": {"min_value": 0, "max_value": 1, "values": []}, "Column_50": {"min_value": 0, "max_value": 1, "values": []}, "Column_51": {"min_value": 0, "max_value": 1, "values": []}, "Column_53": {"min_value": 0, "max_value": 1, "values": []}, "Column_54": {"min_value": 0, "max_value": 1, "values": []}, "Column_55": {"min_value": 0, "max_value": 1, "values": []}, "Column_56": {"min_value": 0, "max_value": 1, "values": []}, "Column_57": {"min_value": 0, "max_value": 1, "values": []}}, "tree_info": [{"tree_index": 0, "num_leaves": 25, "num_cat": 0, "shrinkage": 1, "tree_structure": {"split_index": 0, "split_feature": 13, "split_gain": 12960400, "threshold": 1.0000000180025095e-35, "decision_type": "<=", "default_left": true, "missing_type": "None", "internal_value": -0.906985, "internal_weight": 0, "internal_count": 26886144, "left_child": {"split_index": 1, "split_feature": 1, "split_gain": 5250720, "threshold": 1.0000000180025095e-35, "decision_type": "<=", "default_left": true, "missing_type": "None", "internal_value": -0.739384, "internal_weight": 2510900, "internal_count": 12254636, "left_child": {"split_index": 8, "split_feature": 55, "split_gain": 6004.31982421875, "threshold": 1.0000000180025095e-35, "decision_type": "<=", "default_left": true, "missing_type": "None", "internal_value": -1.04177, "internal_weight": 467348, "internal_count": 2280930, "left_child": {"split_index": 14, "split_feature": 22, "split_gain": 1.1641500263781523e-10, "threshold": 1.0000000180025095e-35, "decision_type": "<=", "default_left": true, "missing_type": "None", "internal_value": -1.04736, "internal_weight": 376062, "internal_count": 1835402, "left_child": {"leaf_index": 0, "leaf_value": -1.0473586784706141, "leaf_weight": 204232.79234208167, "leaf_count": 996775}, "right_child": {"leaf_index": 15, "leaf_value": -1.0473586784706141, "leaf_weight": 171829.28338237107, "leaf_count": 838627}}, "right_child": {"split_index": 9, "split_feature": 31, "split_gain": 119917, "threshold": 1.0000000180025095e-35, "decision_type": "<=", "default_left": true, "missing_type": "None", "internal_value": -1.01877, "internal_weight": 91285.8, "internal_count": 445528, "left_child": {"split_index": 18, "split_feature": 3, "split_gain": 2.9103799231711136e-11, "threshold": 1.0000000180025095e-35, "decision_type": "<=", "default_left": true, "missing_type": "None", "internal_value": -1.04736, "internal_weight": 85938.3, "internal_count": 419429, "left_child": {"leaf_index": 9, "leaf_value": -1.0473586784706141, "leaf_weight": 42984.00823362172, "leaf_count": 209787}, "right_child": {"leaf_index": 19, "leaf_value": -1.0473586784706141, "leaf_weight": 42954.29866537452, "leaf_count": 209642}}, "right_child": {"split_index": 21, "split_feature": 18, "split_gain": 7.27596021626864e-12, "threshold": 1.0000000180025095e-35, "decision_type": "<=", "default_left": true, "missing_type": "None", "internal_value": -0.5593, "internal_weight": 5347.52, "internal_count": 26099, "left_child": {"split_index": 22, "split_feature": 32, "split_gain": 3.63798010813432e-12, "threshold": 1.0000000180025095e-35, "decision_type": "<=", "default_left": true, "missing_type": "None", "internal_value": -0.5593, "internal_weight": 2674.89, "internal_count": 13055, "left_child": {"leaf_index": 10, "leaf_value": -0.5593004246665717, "leaf_weight": 1333.037593215704, "leaf_count": 6506}, "right_child": {"leaf_index": 23, "leaf_value": -0.5593004246665717, "leaf_weight": 1341.8480169028044, "leaf_count": 6549}}, "right_child": {"split_index": 23, "split_feature": 32, "split_gain": 3.63798010813432e-12, "threshold": 1.0000000180025095e-35, "decision_type": "<=", "default_left": true, "missing_type": "None", "internal_value": -0.5593, "internal_weight": 2672.63, "internal_count": 13044, "left_child": {"leaf_index": 22, "leaf_value": -0.5593004246665717, "leaf_weight": 1337.750145420432, "leaf_count": 6529}, "right_child": {"leaf_index": 24, "leaf_value": -0.5593004246665717, "leaf_weight": 1334.8816353827715, "leaf_count": 6515}}}}}, "right_child": {"split_index": 2, "split_feature": 57, "split_gain": 3946020, "threshold": 1.0000000180025095e-35, "decision_type": "<=", "default_left": true, "missing_type": "None", "internal_value": -0.670229, "internal_weight": 2043550.0000000002, "internal_count": 9973706, "left_child": {"split_index": 3, "split_feature": 53, "split_gain": 2208580, "threshold": 1.0000000180025095e-35, "decision_type": "<=", "default_left": true, "missing_type": "None", "internal_value": -0.619028, "internal_weight": 1799270, "internal_count": 8781474, "left_child": {"split_index": 4, "split_feature": 36, "split_gain": 373477, "threshold": 1.0000000180025095e-35, "decision_type": "<=", "default_left": true, "missing_type": "None", "internal_value": -0.59037, "internal_weight": 1686440.0000000002, "internal_count": 8230794, "left_child": {"split_index": 5, "split_feature": 14, "split_gain": 786891, "threshold": 1.0000000180025095e-35, "decision_type": "<=", "default_left": true, "missing_type": "None", "internal_value": -0.74704, "internal_weight": 139565, "internal_count": 681158, "left_child": {"split_index": 13, "split_feature": 4, "split_gain": 1.1641500263781523e-10, "threshold": 1.0000000180025095e-35, "decision_type": "<=", "default_left": true, "missing_type": "None", "internal_value": -0.5593, "internal_weight": 85878.9, "internal_count": 419139, "left_child": {"leaf_index": 2, "leaf_value": -0.5593004246665717, "leaf_weight": 42921.92548066378, "leaf_count": 209484}, "right_child": {"split_index": 15, "split_feature": 11, "split_gain": 5.820770254683083e-11, "threshold": 1.0000000180025095e-35, "decision_type": "<=", "default_left": true, "missing_type": "None", "internal_value": -0.5593, "internal_weight": 42957, "internal_count": 209655, "left_child": {"leaf_index": 14, "leaf_value": -0.5593004246665717, "leaf_weight": 21507.063794508576, "leaf_count": 104967}, "right_child": {"leaf_index": 16, "leaf_value": -0.5593004246665717, "leaf_weight": 21449.898487329483, "leaf_count": 104688}}}, "right_child": {"split_index": 19, "split_feature": 21, "split_gain": 2.9103799231711136e-11, "threshold": 1.0000000180025095e-35, "decision_type": "<=", "default_left": true, "missing_type": "None", "internal_value": -1.04736, "internal_weight": 53686, "internal_count": 262019, "left_child": {"leaf_index": 6, "leaf_value": -1.0473586784706141, "leaf_weight": 5340.960796549916, "leaf_count": 26067}, "right_child": {"leaf_index": 20, "leaf_value": -1.0473586784706141, "leaf_weight": 48345.04860043526, "leaf_count": 235952}}}, "right_child": {"split_index": 6, "split_feature": 3, "split_gain": 260015, "threshold": 1.0000000180025095e-35, "decision_type": "<=", "default_left": true, "missing_type": "None", "internal_value": -0.576235, "internal_weight": 1546870, "internal_count": 7549636, "left_child": {"split_index": 7, "split_feature": 24, "split_gain": 974118, "threshold": 1.0000000180025095e-35, "decision_type": "<=", "default_left": true, "missing_type": "None", "internal_value": -0.675494, "internal_weight": 225447, "internal_count": 1100311, "left_child": {"split_index": 20, "split_feature": 7, "split_gain": 1.4551899615855568e-11, "threshold": 1.0000000180025095e-35, "decision_type": "<=", "default_left": true, "missing_type": "None", "internal_value": -1.04736, "internal_weight": 53672.9, "internal_count": 261955, "left_child": {"leaf_index": 5, "leaf_value": -1.0473586784706141, "leaf_weight": 42950.200793892145, "leaf_count": 209622}, "right_child": {"leaf_index": 21, "leaf_value": -1.0473586784706141, "leaf_weight": 10722.695414349437, "leaf_count": 52333}}, "right_child": {"split_index": 12, "split_feature": 18, "split_gain": 2.3283100447635263e-10, "threshold": 1.0000000180025095e-35, "decision_type": "<=", "default_left": true, "missing_type": "None", "internal_value": -0.5593, "internal_weight": 171774, "internal_count": 838356, "left_child": {"leaf_index": 8, "leaf_value": -0.5593004246665717, "leaf_weight": 85815.98543524742, "leaf_count": 418832}, "right_child": {"leaf_index": 13, "leaf_value": -0.5593004246665717, "leaf_weight": 85957.7717885375, "leaf_count": 419524}}}, "right_child": {"split_index": 10, "split_feature": 12, "split_gain": 1.8626500342122654e-09, "threshold": 1.0000000180025095e-35, "decision_type": "<=", "default_left": true, "missing_type": "None", "internal_value": -0.5593, "internal_weight": 1321429.9999999998, "internal_count": 6449325, "left_child": {"split_index": 11, "split_feature": 35, "split_gain": 9.313230187046884e-10, "threshold": 1.0000000180025095e-35, "decision_type": "<=", "default_left": true, "missing_type": "None", "internal_value": -0.5593, "internal_weight": 494260, "internal_count": 2412276, "left_child": {"leaf_index": 7, "leaf_value": -0.5593004246665717, "leaf_weight": 276766.5518350899, "leaf_count": 1350782}, "right_child": {"leaf_index": 12, "leaf_value": -0.5593004246665717, "leaf_weight": 217493.29956546426, "leaf_count": 1061494}}, "right_child": {"leaf_index": 11, "leaf_value": -0.5593004246665717, "leaf_weight": 827165.3985019773, "leaf_count": 4037049}}}}, "right_child": {"split_index": 17, "split_feature": 2, "split_gain": 2.9103799231711136e-11, "threshold": 1.0000000180025095e-35, "decision_type": "<=", "default_left": true, "missing_type": "None", "internal_value": -1.04736, "internal_weight": 112831, "internal_count": 550680, "left_child": {"leaf_index": 4, "leaf_value": -1.0473586784706141, "leaf_weight": 99398.7902507186, "leaf_count": 485124}, "right_child": {"leaf_index": 18, "leaf_value": -1.0473586784706141, "leaf_weight": 13432.003144919872, "leaf_count": 65556}}}, "right_child": {"split_index": 16, "split_feature": 39, "split_gain": 5.820770254683083e-11, "threshold": 1.0000000180025095e-35, "decision_type": "<=", "default_left": true, "missing_type": "None", "internal_value": -1.04736, "internal_weight": 244281, "internal_count": 1192232, "left_child": {"leaf_index": 3, "leaf_value": -1.0473586784706141, "leaf_weight": 233531.34407959878, "leaf_count": 1139769}, "right_child": {"leaf_index": 17, "leaf_value": -1.0473586784706141, "leaf_weight": 10749.331578984857, "leaf_count": 52463}}}}, "right_child": {"leaf_index": 1, "leaf_value": -1.0473586784706141, "leaf_weight": 2997901.9688650966, "leaf_count": 14631508}}}, {"tree_index": 1, "num_leaves": 22, "num_cat": 0, "shrinkage": 0.1, "tree_structure": {"split_index": 0, "split_feature": 13, "split_gain": 10410400, "threshold": 1.0000000180025095e-35, "decision_type": "<=", "default_left": true, "missing_type": "None", "internal_value": 0, "internal_weight": 0, "internal_count": 26886144, "left_child": {"split_index": 1, "split_feature": 1, "split_gain": 3848660, "threshold": 1.0000000180025095e-35, "decision_type": "<=", "default_left": true, "missing_type": "None", "internal_value": 0.140879, "internal_weight": 2658990, "internal_count": 12254636, "left_child": {"split_index": 8, "split_feature": 55, "split_gain": 5680.27978515625, "threshold": 1.0000000180025095e-35, "decision_type": "<=", "default_left": true, "missing_type": "None", "internal_value": -0.129452, "internal_weight": 439580, "internal_count": 2280930, "left_child": {"leaf_index": 0, "leaf_value": -0.13508632945437726, "leaf_weight": 352895.66125655174, "leaf_count": 1835402}, "right_child": {"split_index": 9, "split_feature": 31, "split_gain": 94471.5, "threshold": 1.0000000180025095e-35, "decision_type": "<=", "default_left": true, "missing_type": "None", "internal_value": -0.106516, "internal_weight": 86684.2, "internal_count": 445528, "left_child": {"split_index": 18, "split_feature": 9, "split_gain": 2.9103799231711136e-11, "threshold": 1.0000000180025095e-35, "decision_type": "<=", "default_left": true, "missing_type": "None", "internal_value": -0.135086, "internal_weight": 80644.3, "internal_count": 419429, "left_child": {"leaf_index": 9, "leaf_value": -0.13508632945437726, "leaf_weight": 40355.8840739727, "leaf_count": 209890}, "right_child": {"leaf_index": 19, "leaf_value": -0.13508632945437726, "leaf_weight": 40288.39674580097, "leaf_count": 209539}}, "right_child": {"leaf_index": 10, "leaf_value": 0.2749448300938164, "leaf_weight": 6039.957243815064, "leaf_count": 26099}}}, "right_child": {"split_index": 2, "split_feature": 57, "split_gain": 2775570, "threshold": 1.0000000180025095e-35, "decision_type": "<=", "default_left": true, "missing_type": "None", "internal_value": 0.194421, "internal_weight": 2219410, "internal_count": 9973706, "left_child": {"split_index": 3, "split_feature": 53, "split_gain": 1510000, "threshold": 1.0000000180025095e-35, "decision_type": "<=", "default_left": true, "missing_type": "None", "internal_value": 0.232374, "internal_weight": 1990180, "internal_count": 8781474, "left_child": {"split_index": 4, "split_feature": 36, "split_gain": 223528, "threshold": 1.0000000180025095e-35, "decision_type": "<=", "default_left": true, "missing_type": "None", "internal_value": 0.253022, "internal_weight": 1884300, "internal_count": 8230794, "left_child": {"split_index": 5, "split_feature": 14, "split_gain": 557464, "threshold": 1.0000000180025095e-35, "decision_type": "<=", "default_left": true, "missing_type": "None", "internal_value": 0.134782, "internal_weight": 147378, "internal_count": 681158, "left_child": {"split_index": 14, "split_feature": 4, "split_gain": 1.1641500263781523e-10, "threshold": 1.0000000180025095e-35, "decision_type": "<=", "default_left": true, "missing_type": "None", "internal_value": 0.274945, "internal_weight": 96999.2, "internal_count": 419139, "left_child": {"split_index": 15, "split_feature": 15, "split_gain": 5.820770254683083e-11, "threshold": 1.0000000180025095e-35, "decision_type": "<=", "default_left": true, "missing_type": "None", "internal_value": 0.274945, "internal_weight": 48479.8, "internal_count": 209484, "left_child": {"leaf_index": 2, "leaf_value": 0.2749448300938164, "leaf_weight": 24242.67907270789, "leaf_count": 104754}, "right_child": {"leaf_index": 16, "leaf_value": 0.2749448300938164, "leaf_weight": 24237.124876230955, "leaf_count": 104730}}, "right_child": {"leaf_index": 15, "leaf_value": 0.2749448300938164, "leaf_weight": 48519.37759883702, "leaf_count": 209655}}, "right_child": {"leaf_index": 6, "leaf_value": -0.13508632945437726, "leaf_weight": 50378.809801220894, "leaf_count": 262019}}, "right_child": {"split_index": 6, "split_feature": 3, "split_gain": 149966, "threshold": 1.0000000180025095e-35, "decision_type": "<=", "default_left": true, "missing_type": "None", "internal_value": 0.263055, "internal_weight": 1736920, "internal_count": 7549636, "left_child": {"split_index": 7, "split_feature": 24, "split_gain": 672269, "threshold": 1.0000000180025095e-35, "decision_type": "<=", "default_left": true, "missing_type": "None", "internal_value": 0.190439, "internal_weight": 244383, "internal_count": 1100311, "left_child": {"split_index": 19, "split_feature": 7, "split_gain": 1.4551899615855568e-11, "threshold": 1.0000000180025095e-35, "decision_type": "<=", "default_left": true, "missing_type": "None", "internal_value": -0.135086, "internal_weight": 50366.5, "internal_count": 261955, "left_child": {"leaf_index": 5, "leaf_value": -0.13508632945437726, "leaf_weight": 40304.3552877903, "leaf_count": 209622}, "right_child": {"split_index": 20, "split_feature": 30, "split_gain": 3.63798010813432e-12, "threshold": 1.0000000180025095e-35, "decision_type": "<=", "default_left": true, "missing_type": "None", "internal_value": -0.135086, "internal_weight": 10062.1, "internal_count": 52333, "left_child": {"leaf_index": 20, "leaf_value": -0.13508632945437726, "leaf_weight": 5027.517541408539, "leaf_count": 26148}, "right_child": {"leaf_index": 21, "leaf_value": -0.13508632945437726, "leaf_weight": 5034.631590247154, "leaf_count": 26185}}}, "right_child": {"split_index": 13, "split_feature": 11, "split_gain": 2.3283100447635263e-10, "threshold": 1.0000000180025095e-35, "decision_type": "<=", "default_left": true, "missing_type": "None", "internal_value": 0.274945, "internal_weight": 194016, "internal_count": 838356, "left_child": {"leaf_index": 8, "leaf_value": 0.2749448300938164, "leaf_weight": 97026.25825560093, "leaf_count": 419256}, "right_child": {"leaf_index": 14, "leaf_value": 0.2749448300938164, "leaf_weight": 96990.15597850084, "leaf_count": 419100}}}, "right_child": {"split_index": 10, "split_feature": 5, "split_gain": 1.8626500342122654e-09, "threshold": 1.0000000180025095e-35, "decision_type": "<=", "default_left": true, "missing_type": "None", "internal_value": 0.274945, "internal_weight": 1492530, "internal_count": 6449325, "left_child": {"split_index": 12, "split_feature": 50, "split_gain": 9.313230187046884e-10, "threshold": 1.0000000180025095e-35, "decision_type": "<=", "default_left": true, "missing_type": "None", "internal_value": 0.274945, "internal_weight": 691554, "internal_count": 2988246, "left_child": {"leaf_index": 7, "leaf_value": 0.2749448300938164, "leaf_weight": 400302.97418516874, "leaf_count": 1729732}, "right_child": {"leaf_index": 13, "leaf_value": 0.2749448300938164, "leaf_weight": 291251.4177072942, "leaf_count": 1258514}}, "right_child": {"leaf_index": 11, "leaf_value": 0.2749448300938164, "leaf_weight": 800979.6995082647, "leaf_count": 3461079}}}}, "right_child": {"split_index": 17, "split_feature": 36, "split_gain": 5.820770254683083e-11, "threshold": 1.0000000180025095e-35, "decision_type": "<=", "default_left": true, "missing_type": "None", "internal_value": -0.135086, "internal_weight": 105880, "internal_count": 550680, "left_child": {"leaf_index": 4, "leaf_value": -0.13508632945437726, "leaf_weight": 5044.629712939262, "leaf_count": 26237}, "right_child": {"leaf_index": 18, "leaf_value": -0.13508632945437726, "leaf_weight": 100835.48959648609, "leaf_count": 524443}}}, "right_child": {"split_index": 16, "split_feature": 28, "split_gain": 5.820770254683083e-11, "threshold": 1.0000000180025095e-35, "decision_type": "<=", "default_left": true, "missing_type": "None", "internal_value": -0.135086, "internal_weight": 229232, "internal_count": 1192232, "left_child": {"leaf_index": 3, "leaf_value": -0.13508632945437726, "leaf_weight": 76815.19210028648, "leaf_count": 399514}, "right_child": {"leaf_index": 17, "leaf_value": -0.13508632945437726, "leaf_weight": 152417.1504662037, "leaf_count": 792718}}}}, "right_child": {"split_index": 11, "split_feature": 5, "split_gain": 9.313230187046884e-10, "threshold": 1.0000000180025095e-35, "decision_type": "<=", "default_left": true, "missing_type": "None", "internal_value": -0.135086, "internal_weight": 2813220.0000000005, "internal_count": 14631508, "left_child": {"leaf_index": 1, "leaf_value": -0.13508632945437726, "leaf_weight": 2535959.4098705053, "leaf_count": 13189465}, "right_child": {"leaf_index": 12, "leaf_value": -0.13508632945437726, "leaf_weight": 277263.90079414845, "leaf_count": 1442043}}}}, {"tree_index": 2, "num_leaves": 15, "num_cat": 0, "shrinkage": 0.1, "tree_structure": {"split_index": 0, "split_feature": 13, "split_gain": 8634140, "threshold": 1.0000000180025095e-35, "decision_type": "<=", "default_left": true, "missing_type": "None", "internal_value": 0, "internal_weight": 0, "internal_count": 26886144, "left_child": {"split_index": 1, "split_feature": 1, "split_gain": 3002940, "threshold": 1.0000000180025095e-35, "decision_type": "<=", "default_left": true, "missing_type": "None", "internal_value": 0.123831, "internal_weight": 2706630, "internal_count": 12254636, "left_child": {"split_index": 8, "split_feature": 55, "split_gain": 5299.93994140625, "threshold": 1.0000000180025095e-35, "decision_type": "<=", "default_left": true, "missing_type": "None", "internal_value": -0.125001, "internal_weight": 411294, "internal_count": 2280930, "left_child": {"leaf_index": 0, "leaf_value": -0.13065284253649329, "leaf_weight": 329582.5160716772, "leaf_count": 1835402}, "right_child": {"split_index": 9, "split_feature": 31, "split_gain": 77899.703125, "threshold": 1.0000000180025095e-35, "decision_type": "<=", "default_left": true, "missing_type": "None", "internal_value": -0.102202, "internal_weight": 81711.3, "internal_count": 445528, "left_child": {"split_index": 12, "split_feature": 11, "split_gain": 1.4551899615855568e-11, "threshold": 1.0000000180025095e-35, "decision_type": "<=", "default_left": true, "missing_type": "None", "internal_value": -0.130653, "internal_weight": 75316.7, "internal_count": 419429, "left_child": {"leaf_index": 9, "leaf_value": -0.13065284253649329, "leaf_weight": 37665.45480287075, "leaf_count": 209754}, "right_child": {"split_index": 13, "split_feature": 49, "split_gain": 7.27596021626864e-12, "threshold": 1.0000000180025095e-35, "decision_type": "<=", "default_left": true, "missing_type": "None", "internal_value": -0.130653, "internal_weight": 37651.3, "internal_count": 209675, "left_child": {"leaf_index": 13, "leaf_value": -0.13065284253649329, "leaf_weight": 9432.255615770817, "leaf_count": 52527}, "right_child": {"leaf_index": 14, "leaf_value": -0.13065284253649329, "leaf_weight": 28219.01318383217, "leaf_count": 157148}}}, "right_child": {"leaf_index": 10, "leaf_value": 0.23289054626488004, "leaf_weight": 6394.612528517842, "leaf_count": 26099}}}, "right_child": {"split_index": 2, "split_feature": 57, "split_gain": 2111860, "threshold": 1.0000000180025095e-35, "decision_type": "<=", "default_left": true, "missing_type": "None", "internal_value": 0.168418, "internal_weight": 2295340, "internal_count": 9973706, "left_child": {"split_index": 3, "split_feature": 53, "split_gain": 1129450, "threshold": 1.0000000180025095e-35, "decision_type": "<=", "default_left": true, "missing_type": "None", "internal_value": 0.199183, "internal_weight": 2081249.9999999998, "internal_count": 8781474, "left_child": {"split_index": 4, "split_feature": 36, "split_gain": 152320, "threshold": 1.0000000180025095e-35, "decision_type": "<=", "default_left": true, "missing_type": "None", "internal_value": 0.215636, "internal_weight": 1982370, "internal_count": 8230794, "left_child": {"split_index": 5, "split_feature": 14, "split_gain": 426455, "threshold": 1.0000000180025095e-35, "decision_type": "<=", "default_left": true, "missing_type": "None", "internal_value": 0.118664, "internal_weight": 149745, "internal_count": 681158, "left_child": {"leaf_index": 2, "leaf_value": 0.23289054626488004, "leaf_weight": 102694.7967581302, "leaf_count": 419139}, "right_child": {"split_index": 10, "split_feature": 0, "split_gain": 1.4551899615855568e-11, "threshold": 1.0000000180025095e-35, "decision_type": "<=", "default_left": true, "missing_type": "None", "internal_value": -0.130653, "internal_weight": 47050.7, "internal_count": 262019, "left_child": {"leaf_index": 6, "leaf_value": -0.13065284253649329, "leaf_weight": 37656.83545911312, "leaf_count": 209706}, "right_child": {"leaf_index": 11, "leaf_value": -0.13065284253649329, "leaf_weight": 9393.827708184719, "leaf_count": 52313}}}, "right_child": {"split_index": 6, "split_feature": 3, "split_gain": 99883.1015625, "threshold": 1.0000000180025095e-35, "decision_type": "<=", "default_left": true, "missing_type": "None", "internal_value": 0.223559, "internal_weight": 1832620, "internal_count": 7549636, "left_child": {"split_index": 7, "split_feature": 24, "split_gain": 505847, "threshold": 1.0000000180025095e-35, "decision_type": "<=", "default_left": true, "missing_type": "None", "internal_value": 0.165151, "internal_weight": 252448, "internal_count": 1100311, "left_child": {"split_index": 11, "split_feature": 4, "split_gain": 1.4551899615855568e-11, "threshold": 1.0000000180025095e-35, "decision_type": "<=", "default_left": true, "missing_type": "None", "internal_value": -0.130653, "internal_weight": 47039.2, "internal_count": 261955, "left_child": {"leaf_index": 5, "leaf_value": -0.13065284253649329, "leaf_weight": 23507.464402318, "leaf_count": 130910}, "right_child": {"leaf_index": 12, "leaf_value": -0.13065284253649329, "leaf_weight": 23531.706306636333, "leaf_count": 131045}}, "right_child": {"leaf_index": 8, "leaf_value": 0.23289054626488004, "leaf_weight": 205408.70458477736, "leaf_count": 838356}}, "right_child": {"leaf_index": 7, "leaf_value": 0.23289054626488004, "leaf_weight": 1580172.9738872498, "leaf_count": 6449325}}}, "right_child": {"leaf_index": 4, "leaf_value": -0.13065284253649329, "leaf_weight": 98885.42125940323, "leaf_count": 550680}}, "right_child": {"leaf_index": 3, "leaf_value": -0.13065284253649329, "leaf_weight": 214088.69680929184, "leaf_count": 1192232}}}, "right_child": {"leaf_index": 1, "leaf_value": -0.13065284253649329, "leaf_weight": 2627374.9405105114, "leaf_count": 14631508}}}, {"tree_index": 3, "num_leaves": 16, "num_cat": 0, "shrinkage": 0.1, "tree_structure": {"split_index": 0, "split_feature": 13, "split_gain": 7299790, "threshold": 1.0000000180025095e-35, "decision_type": "<=", "default_left": true, "missing_type": "None", "internal_value": 0, "internal_weight": 0, "internal_count": 26886144, "left_child": {"split_index": 1, "split_feature": 1, "split_gain": 2429450, "threshold": 1.0000000180025095e-35, "decision_type": "<=", "default_left": true, "missing_type": "None", "internal_value": 0.111916, "internal_weight": 2687250, "internal_count": 12254636, "left_child": {"split_index": 8, "split_feature": 55, "split_gain": 4901.6298828125, "threshold": 1.0000000180025095e-35, "decision_type": "<=", "default_left": true, "missing_type": "None", "internal_value": -0.121246, "internal_weight": 383163, "internal_count": 2280930, "left_child": {"leaf_index": 0, "leaf_value": -0.12689855257085872, "leaf_weight": 306582.0591043532, "leaf_count": 1835402}, "right_child": {"split_index": 9, "split_feature": 31, "split_gain": 65822.6015625, "threshold": 1.0000000180025095e-35, "decision_type": "<=", "default_left": true, "missing_type": "None", "internal_value": -0.0986154, "internal_weight": 76581.1, "internal_count": 445528, "left_child": {"split_index": 13, "split_feature": 3, "split_gain": 1.4551899615855568e-11, "threshold": 1.0000000180025095e-35, "decision_type": "<=", "default_left": true, "missing_type": "None", "internal_value": -0.126899, "internal_weight": 70060.6, "internal_count": 419429, "left_child": {"leaf_index": 9, "leaf_value": -0.12689855257085872, "leaf_weight": 35042.421460434794, "leaf_count": 209787}, "right_child": {"leaf_index": 14, "leaf_value": -0.12689855257085872, "leaf_weight": 35018.20093622804, "leaf_count": 209642}}, "right_child": {"split_index": 14, "split_feature": 10, "split_gain": 3.63798010813432e-12, "threshold": 1.0000000180025095e-35, "decision_type": "<=", "default_left": true, "missing_type": "None", "internal_value": 0.205281, "internal_weight": 6520.43, "internal_count": 26099, "left_child": {"leaf_index": 10, "leaf_value": 0.2052812244126724, "leaf_weight": 3255.843692779541, "leaf_count": 13032}, "right_child": {"leaf_index": 15, "leaf_value": 0.2052812244126724, "leaf_weight": 3264.5879015922546, "leaf_count": 13067}}}}, "right_child": {"split_index": 2, "split_feature": 57, "split_gain": 1679730, "threshold": 1.0000000180025095e-35, "decision_type": "<=", "default_left": true, "missing_type": "None", "internal_value": 0.15069, "internal_weight": 2304090, "internal_count": 9973706, "left_child": {"split_index": 3, "split_feature": 53, "split_gain": 888063, "threshold": 1.0000000180025095e-35, "decision_type": "<=", "default_left": true, "missing_type": "None", "internal_value": 0.176953, "internal_weight": 2104940, "internal_count": 8781474, "left_child": {"split_index": 4, "split_feature": 36, "split_gain": 111693, "threshold": 1.0000000180025095e-35, "decision_type": "<=", "default_left": true, "missing_type": "None", "internal_value": 0.190838, "internal_weight": 2012950, "internal_count": 8230794, "left_child": {"split_index": 5, "split_feature": 14, "split_gain": 340588, "threshold": 1.0000000180025095e-35, "decision_type": "<=", "default_left": true, "missing_type": "None", "internal_value": 0.107367, "internal_weight": 148483, "internal_count": 681158, "left_child": {"leaf_index": 2, "leaf_value": 0.2052812244126724, "leaf_weight": 104715.39821577072, "leaf_count": 419139}, "right_child": {"leaf_index": 6, "leaf_value": -0.12689855257085872, "leaf_weight": 43767.155394002795, "leaf_count": 262019}}, "right_child": {"split_index": 6, "split_feature": 3, "split_gain": 72105.203125, "threshold": 1.0000000180025095e-35, "decision_type": "<=", "default_left": true, "missing_type": "None", "internal_value": 0.197485, "internal_weight": 1864469.9999999998, "internal_count": 7549636, "left_child": {"split_index": 7, "split_feature": 24, "split_gain": 399387, "threshold": 1.0000000180025095e-35, "decision_type": "<=", "default_left": true, "missing_type": "None", "internal_value": 0.147877, "internal_weight": 253207, "internal_count": 1100311, "left_child": {"leaf_index": 5, "leaf_value": -0.12689855257085872, "leaf_weight": 43756.46495573223, "leaf_count": 261955}, "right_child": {"leaf_index": 8, "leaf_value": 0.2052812244126724, "leaf_weight": 209450.28352546692, "leaf_count": 838356}}, "right_child": {"leaf_index": 7, "leaf_value": 0.2052812244126724, "leaf_weight": 1611264.128601551, "leaf_count": 6449325}}}, "right_child": {"split_index": 12, "split_feature": 2, "split_gain": 2.9103799231711136e-11, "threshold": 1.0000000180025095e-35, "decision_type": "<=", "default_left": true, "missing_type": "None", "internal_value": -0.126899, "internal_weight": 91984.5, "internal_count": 550680, "left_child": {"leaf_index": 4, "leaf_value": -0.12689855257085872, "leaf_weight": 81034.19024330378, "leaf_count": 485124}, "right_child": {"leaf_index": 13, "leaf_value": -0.12689855257085872, "leaf_weight": 10950.349551022053, "leaf_count": 65556}}}, "right_child": {"split_index": 11, "split_feature": 7, "split_gain": 5.820770254683083e-11, "threshold": 1.0000000180025095e-35, "decision_type": "<=", "default_left": true, "missing_type": "None", "internal_value": -0.126899, "internal_weight": 199148, "internal_count": 1192232, "left_child": {"leaf_index": 3, "leaf_value": -0.12689855257085872, "leaf_weight": 109433.84062336385, "leaf_count": 655143}, "right_child": {"leaf_index": 12, "leaf_value": -0.12689855257085872, "leaf_weight": 89714.32500471175, "leaf_count": 537089}}}}, "right_child": {"split_index": 10, "split_feature": 10, "split_gain": 4.656610097519831e-10, "threshold": 1.0000000180025095e-35, "decision_type": "<=", "default_left": true, "missing_type": "None", "internal_value": -0.126899, "internal_weight": 2444020, "internal_count": 14631508, "left_child": {"leaf_index": 1, "leaf_value": -0.12689855257085872, "leaf_weight": 593703.6786800176, "leaf_count": 3554301}, "right_child": {"leaf_index": 11, "leaf_value": -0.12689855257085872, "leaf_weight": 1850315.5881845802, "leaf_count": 11077207}}}}, {"tree_index": 4, "num_leaves": 17, "num_cat": 0, "shrinkage": 0.1, "tree_structure": {"split_index": 0, "split_feature": 13, "split_gain": 6252230, "threshold": 1.0000000180025095e-35, "decision_type": "<=", "default_left": true, "missing_type": "None", "internal_value": 0, "internal_weight": 0, "internal_count": 26886144, "left_child": {"split_index": 1, "split_feature": 1, "split_gain": 2012560, "threshold": 1.0000000180025095e-35, "decision_type": "<=", "default_left": true, "missing_type": "None", "internal_value": 0.103109, "internal_weight": 2622060, "internal_count": 12254636, "left_child": {"split_index": 8, "split_feature": 55, "split_gain": 4506.4501953125, "threshold": 1.0000000180025095e-35, "decision_type": "<=", "default_left": true, "missing_type": "None", "internal_value": -0.11805, "internal_weight": 355661, "internal_count": 2280930, "left_child": {"split_index": 11, "split_feature": 20, "split_gain": 5.820770254683083e-11, "threshold": 1.0000000180025095e-35, "decision_type": "<=", "default_left": true, "missing_type": "None", "internal_value": -0.123693, "internal_weight": 284223, "internal_count": 1835402, "left_child": {"leaf_index": 0, "leaf_value": -0.1236928604729598, "leaf_weight": 251775.8399553597, "leaf_count": 1625870}, "right_child": {"leaf_index": 12, "leaf_value": -0.1236928604729598, "leaf_weight": 32447.302242815495, "leaf_count": 209532}}, "right_child": {"split_index": 9, "split_feature": 31, "split_gain": 56467.6015625, "threshold": 1.0000000180025095e-35, "decision_type": "<=", "default_left": true, "missing_type": "None", "internal_value": -0.095597, "internal_weight": 71437.4, "internal_count": 445528, "left_child": {"leaf_index": 9, "leaf_value": -0.1236928604729598, "leaf_weight": 64951.12695150077, "leaf_count": 419429}, "right_child": {"leaf_index": 10, "leaf_value": 0.1857429601488059, "leaf_weight": 6486.308645144105, "leaf_count": 26099}}}, "right_child": {"split_index": 2, "split_feature": 57, "split_gain": 1374550, "threshold": 1.0000000180025095e-35, "decision_type": "<=", "default_left": true, "missing_type": "None", "internal_value": 0.137815, "internal_weight": 2266390, "internal_count": 9973706, "left_child": {"split_index": 3, "split_feature": 53, "split_gain": 720719, "threshold": 1.0000000180025095e-35, "decision_type": "<=", "default_left": true, "missing_type": "None", "internal_value": 0.161007, "internal_weight": 2081770.0000000002, "internal_count": 8781474, "left_child": {"split_index": 4, "split_feature": 36, "split_gain": 85843.1015625, "threshold": 1.0000000180025095e-35, "decision_type": "<=", "default_left": true, "missing_type": "None", "internal_value": 0.173167, "internal_weight": 1996490, "internal_count": 8230794, "left_child": {"split_index": 5, "split_feature": 14, "split_gain": 279600, "threshold": 1.0000000180025095e-35, "decision_type": "<=", "default_left": true, "missing_type": "None", "internal_value": 0.0989998, "internal_weight": 144743, "internal_count": 681158, "left_child": {"leaf_index": 2, "leaf_value": 0.1857429601488059, "leaf_weight": 104167.39795459807, "leaf_count": 419139}, "right_child": {"split_index": 13, "split_feature": 24, "split_gain": 1.4551899615855568e-11, "threshold": 1.0000000180025095e-35, "decision_type": "<=", "default_left": true, "missing_type": "None", "internal_value": -0.123693, "internal_weight": 40575.2, "internal_count": 262019, "left_child": {"leaf_index": 6, "leaf_value": -0.1236928604729598, "leaf_weight": 24332.069848552346, "leaf_count": 157127}, "right_child": {"leaf_index": 14, "leaf_value": -0.1236928604729598, "leaf_weight": 16243.162986338139, "leaf_count": 104892}}}, "right_child": {"split_index": 6, "split_feature": 3, "split_gain": 54789.5, "threshold": 1.0000000180025095e-35, "decision_type": "<=", "default_left": true, "missing_type": "None", "internal_value": 0.178964, "internal_weight": 1851750, "internal_count": 7549636, "left_child": {"split_index": 7, "split_feature": 24, "split_gain": 325117, "threshold": 1.0000000180025095e-35, "decision_type": "<=", "default_left": true, "missing_type": "None", "internal_value": 0.135316, "internal_weight": 248920, "internal_count": 1100311, "left_child": {"split_index": 14, "split_feature": 2, "split_gain": 7.27596021626864e-12, "threshold": 1.0000000180025095e-35, "decision_type": "<=", "default_left": true, "missing_type": "None", "internal_value": -0.123693, "internal_weight": 40565.3, "internal_count": 261955, "left_child": {"leaf_index": 5, "leaf_value": -0.1236928604729598, "leaf_weight": 24347.400599569082, "leaf_count": 157226}, "right_child": {"split_index": 15, "split_feature": 10, "split_gain": 3.63798010813432e-12, "threshold": 1.0000000180025095e-35, "decision_type": "<=", "default_left": true, "missing_type": "None", "internal_value": -0.123693, "internal_weight": 16217.9, "internal_count": 104729, "left_child": {"leaf_index": 15, "leaf_value": -0.1236928604729598, "leaf_weight": 8100.2113553881645, "leaf_count": 52308}, "right_child": {"leaf_index": 16, "leaf_value": -0.1236928604729598, "leaf_weight": 8117.710091397166, "leaf_count": 52421}}}, "right_child": {"split_index": 10, "split_feature": 15, "split_gain": 1.1641500263781523e-10, "threshold": 1.0000000180025095e-35, "decision_type": "<=", "default_left": true, "missing_type": "None", "internal_value": 0.185743, "internal_weight": 208354, "internal_count": 838356, "left_child": {"leaf_index": 8, "leaf_value": 0.1857429601488059, "leaf_weight": 104136.08354066312, "leaf_count": 419013}, "right_child": {"leaf_index": 11, "leaf_value": 0.1857429601488059, "leaf_weight": 104218.09748192132, "leaf_count": 419343}}}, "right_child": {"leaf_index": 7, "leaf_value": 0.1857429601488059, "leaf_weight": 1602832.005166635, "leaf_count": 6449325}}}, "right_child": {"split_index": 12, "split_feature": 9, "split_gain": 1.4551899615855568e-11, "threshold": 1.0000000180025095e-35, "decision_type": "<=", "default_left": true, "missing_type": "None", "internal_value": -0.123693, "internal_weight": 85276.1, "internal_count": 550680, "left_child": {"leaf_index": 4, "leaf_value": -0.1236928604729598, "leaf_weight": 44685.57752415538, "leaf_count": 288562}, "right_child": {"leaf_index": 13, "leaf_value": -0.1236928604729598, "leaf_weight": 40590.56358590722, "leaf_count": 262118}}}, "right_child": {"leaf_index": 3, "leaf_value": -0.1236928604729598, "leaf_weight": 184624.3630927801, "leaf_count": 1192232}}}, "right_child": {"leaf_index": 1, "leaf_value": -0.1236928604729598, "leaf_weight": 2265777.839872539, "leaf_count": 14631508}}}, {"tree_index": 5, "num_leaves": 19, "num_cat": 0, "shrinkage": 0.1, "tree_structure": {"split_index": 0, "split_feature": 13, "split_gain": 5405600, "threshold": 1.0000000180025095e-35, "decision_type": "<=", "default_left": true, "missing_type": "None", "internal_value": 0, "internal_weight": 0, "internal_count": 26886144, "left_child": {"split_index": 1, "split_feature": 1, "split_gain": 1695190, "threshold": 1.0000000180025095e-35, "decision_type": "<=", "default_left": true, "missing_type": "None", "internal_value": 0.0963428, "internal_weight": 2525830, "internal_count": 12254636, "left_child": {"split_index": 8, "split_feature": 55, "split_gain": 4126.0400390625, "threshold": 1.0000000180025095e-35, "decision_type": "<=", "default_left": true, "missing_type": "None", "internal_value": -0.115308, "internal_weight": 329115, "internal_count": 2280930, "left_child": {"split_index": 13, "split_feature": 19, "split_gain": 5.820770254683083e-11, "threshold": 1.0000000180025095e-35, "decision_type": "<=", "default_left": true, "missing_type": "None", "internal_value": -0.120936, "internal_weight": 262734, "internal_count": 1835402, "left_child": {"leaf_index": 0, "leaf_value": -0.12093622801047542, "leaf_weight": 240263.6266658008, "leaf_count": 1678427}, "right_child": {"leaf_index": 14, "leaf_value": -0.12093622801047542, "leaf_weight": 22470.672120898962, "leaf_count": 156975}}, "right_child": {"split_index": 9, "split_feature": 31, "split_gain": 48944.3984375, "threshold": 1.0000000180025095e-35, "decision_type": "<=", "default_left": true, "missing_type": "None", "internal_value": -0.0930326, "internal_weight": 66380.7, "internal_count": 445528, "left_child": {"split_index": 14, "split_feature": 9, "split_gain": 1.4551899615855568e-11, "threshold": 1.0000000180025095e-35, "decision_type": "<=", "default_left": true, "missing_type": "None", "internal_value": -0.120936, "internal_weight": 60040.5, "internal_count": 419429, "left_child": {"leaf_index": 9, "leaf_value": -0.12093622801047542, "leaf_weight": 30045.35353690386, "leaf_count": 209890}, "right_child": {"leaf_index": 15, "leaf_value": -0.12093622801047542, "leaf_weight": 29995.10855576396, "leaf_count": 209539}}, "right_child": {"leaf_index": 10, "leaf_value": 0.17120841232049433, "leaf_weight": 6340.229552164674, "leaf_count": 26099}}}, "right_child": {"split_index": 2, "split_feature": 57, "split_gain": 1147180, "threshold": 1.0000000180025095e-35, "decision_type": "<=", "default_left": true, "missing_type": "None", "internal_value": 0.128053, "internal_weight": 2196720, "internal_count": 9973706, "left_child": {"split_index": 3, "split_feature": 53, "split_gain": 597760, "threshold": 1.0000000180025095e-35, "decision_type": "<=", "default_left": true, "missing_type": "None", "internal_value": 0.149026, "internal_weight": 2026050.0000000002, "internal_count": 8781474, "left_child": {"split_index": 4, "split_feature": 36, "split_gain": 68156.3984375, "threshold": 1.0000000180025095e-35, "decision_type": "<=", "default_left": true, "missing_type": "None", "internal_value": 0.159955, "internal_weight": 1947220, "internal_count": 8230794, "left_child": {"split_index": 5, "split_feature": 14, "split_gain": 233944, "threshold": 1.0000000180025095e-35, "decision_type": "<=", "default_left": true, "missing_type": "None", "internal_value": 0.0925627, "internal_weight": 139329, "internal_count": 681158, "left_child": {"leaf_index": 2, "leaf_value": 0.17120841232049433, "leaf_weight": 101821.42895378172, "leaf_count": 419139}, "right_child": {"split_index": 16, "split_feature": 0, "split_gain": 7.27596021626864e-12, "threshold": 1.0000000180025095e-35, "decision_type": "<=", "default_left": true, "missing_type": "None", "internal_value": -0.120936, "internal_weight": 37507.5, "internal_count": 262019, "left_child": {"leaf_index": 6, "leaf_value": -0.12093622801047542, "leaf_weight": 30019.014287531376, "leaf_count": 209706}, "right_child": {"leaf_index": 17, "leaf_value": -0.12093622801047542, "leaf_weight": 7488.506263166666, "leaf_count": 52313}}}, "right_child": {"split_index": 6, "split_feature": 3, "split_gain": 43125.80078125, "threshold": 1.0000000180025095e-35, "decision_type": "<=", "default_left": true, "missing_type": "None", "internal_value": 0.165149, "internal_weight": 1807890, "internal_count": 7549636, "left_child": {"split_index": 7, "split_feature": 24, "split_gain": 270279, "threshold": 1.0000000180025095e-35, "decision_type": "<=", "default_left": true, "missing_type": "None", "internal_value": 0.125782, "internal_weight": 241160, "internal_count": 1100311, "left_child": {"split_index": 17, "split_feature": 2, "split_gain": 7.27596021626864e-12, "threshold": 1.0000000180025095e-35, "decision_type": "<=", "default_left": true, "missing_type": "None", "internal_value": -0.120936, "internal_weight": 37498.4, "internal_count": 261955, "left_child": {"leaf_index": 5, "leaf_value": -0.12093622801047542, "leaf_weight": 22506.602292597294, "leaf_count": 157226}, "right_child": {"leaf_index": 18, "leaf_value": -0.12093622801047542, "leaf_weight": 14991.756780058146, "leaf_count": 104729}}, "right_child": {"split_index": 12, "split_feature": 4, "split_gain": 1.1641500263781523e-10, "threshold": 1.0000000180025095e-35, "decision_type": "<=", "default_left": true, "missing_type": "None", "internal_value": 0.171208, "internal_weight": 203662, "internal_count": 838356, "left_child": {"leaf_index": 8, "leaf_value": 0.17120841232049433, "leaf_weight": 101837.4623324722, "leaf_count": 419205}, "right_child": {"leaf_index": 13, "leaf_value": 0.17120841232049433, "leaf_weight": 101824.34411354363, "leaf_count": 419151}}}, "right_child": {"split_index": 10, "split_feature": 0, "split_gain": 9.313230187046884e-10, "threshold": 1.0000000180025095e-35, "decision_type": "<=", "default_left": true, "missing_type": "None", "internal_value": 0.171208, "internal_weight": 1566730, "internal_count": 6449325, "left_child": {"leaf_index": 7, "leaf_value": 0.17120841232049433, "leaf_weight": 1553980.8132593334, "leaf_count": 6396826}, "right_child": {"leaf_index": 11, "leaf_value": 0.17120841232049433, "leaf_weight": 12753.581028357148, "leaf_count": 52499}}}}, "right_child": {"split_index": 15, "split_feature": 22, "split_gain": 1.4551899615855568e-11, "threshold": 1.0000000180025095e-35, "decision_type": "<=", "default_left": true, "missing_type": "None", "internal_value": -0.120936, "internal_weight": 78828.8, "internal_count": 550680, "left_child": {"leaf_index": 4, "leaf_value": -0.12093622801047542, "leaf_weight": 31908.425985723734, "leaf_count": 222905}, "right_child": {"leaf_index": 16, "leaf_value": -0.12093622801047542, "leaf_weight": 46920.36664709449, "leaf_count": 327775}}}, "right_child": {"leaf_index": 3, "leaf_value": -0.12093622801047542, "leaf_weight": 170665.73890137672, "leaf_count": 1192232}}}, "right_child": {"split_index": 11, "split_feature": 4, "split_gain": 4.656610097519831e-10, "threshold": 1.0000000180025095e-35, "decision_type": "<=", "default_left": true, "missing_type": "None", "internal_value": -0.120936, "internal_weight": 2094469.9999999998, "internal_count": 14631508, "left_child": {"leaf_index": 1, "leaf_value": -0.12093622801047542, "leaf_weight": 326860.6369382739, "leaf_count": 2283374}, "right_child": {"leaf_index": 12, "leaf_value": -0.12093622801047542, "leaf_weight": 1767611.851689279, "leaf_count": 12348134}}}}, {"tree_index": 6, "num_leaves": 24, "num_cat": 0, "shrinkage": 0.1, "tree_structure": {"split_index": 0, "split_feature": 13, "split_gain": 4707160, "threshold": 1.0000000180025095e-35, "decision_type": "<=", "default_left": true, "missing_type": "None", "internal_value": 0, "internal_weight": 0, "internal_count": 26886144, "left_child": {"split_index": 1, "split_feature": 1, "split_gain": 1445560, "threshold": 1.0000000180025095e-35, "decision_type": "<=", "default_left": true, "missing_type": "None", "internal_value": 0.090997, "internal_weight": 2409280, "internal_count": 12254636, "left_child": {"split_index": 8, "split_feature": 55, "split_gain": 3766.610107421875, "threshold": 1.0000000180025095e-35, "decision_type": "<=", "default_left": true, "missing_type": "None", "internal_value": -0.112942, "internal_weight": 303747, "internal_count": 2280930, "left_child": {"split_index": 15, "split_feature": 0, "split_gain": 5.820770254683083e-11, "threshold": 1.0000000180025095e-35, "decision_type": "<=", "default_left": true, "missing_type": "None", "internal_value": -0.118551, "internal_weight": 242267, "internal_count": 1835402, "left_child": {"leaf_index": 0, "leaf_value": -0.11855139052736746, "leaf_weight": 55338.305324316025, "leaf_count": 419240}, "right_child": {"leaf_index": 16, "leaf_value": -0.11855139052736746, "leaf_weight": 186928.7404462695, "leaf_count": 1416162}}, "right_child": {"split_index": 9, "split_feature": 31, "split_gain": 42741.3984375, "threshold": 1.0000000180025095e-35, "decision_type": "<=", "default_left": true, "missing_type": "None", "internal_value": -0.0908363, "internal_weight": 61480.3, "internal_count": 445528, "left_child": {"leaf_index": 9, "leaf_value": -0.11855139052736746, "leaf_weight": 55363.25270459056, "leaf_count": 419429}, "right_child": {"split_index": 22, "split_feature": 10, "split_gain": 1.81899005406716e-12, "threshold": 1.0000000180025095e-35, "decision_type": "<=", "default_left": true, "missing_type": "None", "internal_value": 0.160003, "internal_weight": 6117.04, "internal_count": 26099, "left_child": {"leaf_index": 10, "leaf_value": 0.16000349166894912, "leaf_weight": 3054.4192757606506, "leaf_count": 13032}, "right_child": {"leaf_index": 23, "leaf_value": 0.16000349166894912, "leaf_weight": 3062.622519671917, "leaf_count": 13067}}}}, "right_child": {"split_index": 2, "split_feature": 57, "split_gain": 971278, "threshold": 1.0000000180025095e-35, "decision_type": "<=", "default_left": true, "missing_type": "None", "internal_value": 0.120418, "internal_weight": 2105530, "internal_count": 9973706, "left_child": {"split_index": 3, "split_feature": 53, "split_gain": 503655, "threshold": 1.0000000180025095e-35, "decision_type": "<=", "default_left": true, "missing_type": "None", "internal_value": 0.139721, "internal_weight": 1948160, "internal_count": 8781474, "left_child": {"split_index": 4, "split_feature": 36, "split_gain": 55411, "threshold": 1.0000000180025095e-35, "decision_type": "<=", "default_left": true, "missing_type": "None", "internal_value": 0.149731, "internal_weight": 1875470, "internal_count": 8230794, "left_child": {"split_index": 5, "split_feature": 14, "split_gain": 198482, "threshold": 1.0000000180025095e-35, "decision_type": "<=", "default_left": true, "missing_type": "None", "internal_value": 0.0874707, "internal_weight": 132823, "internal_count": 681158, "left_child": {"leaf_index": 2, "leaf_value": 0.16000349166894912, "leaf_weight": 98237.12713497877, "leaf_count": 419139}, "right_child": {"split_index": 20, "split_feature": 11, "split_gain": 7.27596021626864e-12, "threshold": 1.0000000180025095e-35, "decision_type": "<=", "default_left": true, "missing_type": "None", "internal_value": -0.118551, "internal_weight": 34585.6, "internal_count": 262019, "left_child": {"leaf_index": 6, "leaf_value": -0.11855139052736746, "leaf_weight": 31138.68647441268, "leaf_count": 235905}, "right_child": {"leaf_index": 21, "leaf_value": -0.11855139052736746, "leaf_weight": 3446.96237295866, "leaf_count": 26114}}}, "right_child": {"split_index": 6, "split_feature": 3, "split_gain": 34824.1015625, "threshold": 1.0000000180025095e-35, "decision_type": "<=", "default_left": true, "missing_type": "None", "internal_value": 0.154476, "internal_weight": 1742650, "internal_count": 7549636, "left_child": {"split_index": 7, "split_feature": 24, "split_gain": 228147, "threshold": 1.0000000180025095e-35, "decision_type": "<=", "default_left": true, "missing_type": "None", "internal_value": 0.118321, "internal_weight": 231070, "internal_count": 1100311, "left_child": {"split_index": 19, "split_feature": 7, "split_gain": 7.27596021626864e-12, "threshold": 1.0000000180025095e-35, "decision_type": "<=", "default_left": true, "missing_type": "None", "internal_value": -0.118551, "internal_weight": 34577.2, "internal_count": 261955, "left_child": {"leaf_index": 5, "leaf_value": -0.11855139052736746, "leaf_weight": 27669.41665560007, "leaf_count": 209622}, "right_child": {"split_index": 21, "split_feature": 15, "split_gain": 3.63798010813432e-12, "threshold": 1.0000000180025095e-35, "decision_type": "<=", "default_left": true, "missing_type": "None", "internal_value": -0.118551, "internal_weight": 6907.78, "internal_count": 52333, "left_child": {"leaf_index": 20, "leaf_value": -0.11855139052736746, "leaf_weight": 3444.982422143221, "leaf_count": 26099}, "right_child": {"leaf_index": 22, "leaf_value": -0.11855139052736746, "leaf_weight": 3462.801979482174, "leaf_count": 26234}}}, "right_child": {"leaf_index": 8, "leaf_value": 0.16000349166894912, "leaf_weight": 196492.5357849598, "leaf_count": 838356}}, "right_child": {"split_index": 11, "split_feature": 9, "split_gain": 4.656610097519831e-10, "threshold": 1.0000000180025095e-35, "decision_type": "<=", "default_left": true, "missing_type": "None", "internal_value": 0.160003, "internal_weight": 1511580, "internal_count": 6449325, "left_child": {"leaf_index": 7, "leaf_value": 0.16000349166894912, "leaf_weight": 1259553.7267867327, "leaf_count": 5374018}, "right_child": {"split_index": 14, "split_feature": 10, "split_gain": 1.1641500263781523e-10, "threshold": 1.0000000180025095e-35, "decision_type": "<=", "default_left": true, "missing_type": "None", "internal_value": 0.160003, "internal_weight": 252029, "internal_count": 1075307, "left_child": {"leaf_index": 12, "leaf_value": 0.16000349166894912, "leaf_weight": 3070.5913851857185, "leaf_count": 13101}, "right_child": {"leaf_index": 15, "leaf_value": 0.16000349166894912, "leaf_weight": 248958.14005744457, "leaf_count": 1062206}}}}}, "right_child": {"split_index": 18, "split_feature": 23, "split_gain": 2.9103799231711136e-11, "threshold": 1.0000000180025095e-35, "decision_type": "<=", "default_left": true, "missing_type": "None", "internal_value": -0.118551, "internal_weight": 72688, "internal_count": 550680, "left_child": {"leaf_index": 4, "leaf_value": -0.11855139052736746, "leaf_weight": 41513.496750593185, "leaf_count": 314504}, "right_child": {"leaf_index": 19, "leaf_value": -0.11855139052736746, "leaf_weight": 31174.457585811615, "leaf_count": 236176}}}, "right_child": {"split_index": 17, "split_feature": 0, "split_gain": 2.9103799231711136e-11, "threshold": 1.0000000180025095e-35, "decision_type": "<=", "default_left": true, "missing_type": "None", "internal_value": -0.118551, "internal_weight": 157371, "internal_count": 1192232, "left_child": {"leaf_index": 3, "leaf_value": -0.11855139052736746, "leaf_weight": 127985.73666736484, "leaf_count": 969613}, "right_child": {"leaf_index": 18, "leaf_value": -0.11855139052736746, "leaf_weight": 29384.978038817644, "leaf_count": 222619}}}}, "right_child": {"split_index": 10, "split_feature": 1, "split_gain": 4.656610097519831e-10, "threshold": 1.0000000180025095e-35, "decision_type": "<=", "default_left": true, "missing_type": "None", "internal_value": -0.118551, "internal_weight": 1931309.9999999998, "internal_count": 14631508, "left_child": {"split_index": 13, "split_feature": 2, "split_gain": 1.1641500263781523e-10, "threshold": 1.0000000180025095e-35, "decision_type": "<=", "default_left": true, "missing_type": "None", "internal_value": -0.118551, "internal_weight": 501680, "internal_count": 3800702, "left_child": {"split_index": 16, "split_feature": 11, "split_gain": 5.820770254683083e-11, "threshold": 1.0000000180025095e-35, "decision_type": "<=", "default_left": true, "missing_type": "None", "internal_value": -0.118551, "internal_weight": 280325, "internal_count": 2123727, "left_child": {"leaf_index": 1, "leaf_value": -0.11855139052736746, "leaf_weight": 140127.05906108022, "leaf_count": 1061595}, "right_child": {"leaf_index": 17, "leaf_value": -0.11855139052736746, "leaf_weight": 140197.94130027294, "leaf_count": 1062132}}, "right_child": {"leaf_index": 14, "leaf_value": -0.11855139052736746, "leaf_weight": 221355.20124807954, "leaf_count": 1676975}}, "right_child": {"split_index": 12, "split_feature": 3, "split_gain": 2.3283100447635263e-10, "threshold": 1.0000000180025095e-35, "decision_type": "<=", "default_left": true, "missing_type": "None", "internal_value": -0.118551, "internal_weight": 1429630, "internal_count": 10830806, "left_child": {"leaf_index": 11, "leaf_value": -0.11855139052736746, "leaf_weight": 55322.06972762942, "leaf_count": 419117}, "right_child": {"leaf_index": 13, "leaf_value": -0.11855139052736746, "leaf_weight": 1374308.80837664, "leaf_count": 10411689}}}}}, {"tree_index": 7, "num_leaves": 24, "num_cat": 0, "shrinkage": 0.1, "tree_structure": {"split_index": 0, "split_feature": 13, "split_gain": 4122070, "threshold": 1.0000000180025095e-35, "decision_type": "<=", "default_left": true, "missing_type": "None", "internal_value": 0, "internal_weight": 0, "internal_count": 26886144, "left_child": {"split_index": 1, "split_feature": 1, "split_gain": 1244390, "threshold": 1.0000000180025095e-35, "decision_type": "<=", "default_left": true, "missing_type": "None", "internal_value": 0.0866813, "internal_weight": 2280270, "internal_count": 12254636, "left_child": {"split_index": 8, "split_feature": 55, "split_gain": 3431.110107421875, "threshold": 1.0000000180025095e-35, "decision_type": "<=", "default_left": true, "missing_type": "None", "internal_value": -0.110887, "internal_weight": 279697, "internal_count": 2280930, "left_child": {"leaf_index": 0, "leaf_value": -0.11647745526538458, "leaf_weight": 222914.1667392701, "leaf_count": 1835402}, "right_child": {"split_index": 9, "split_feature": 31, "split_gain": 37536, "threshold": 1.0000000180025095e-35, "decision_type": "<=", "default_left": true, "missing_type": "None", "internal_value": -0.0889426, "internal_weight": 56783.2, "internal_count": 445528, "left_child": {"split_index": 15, "split_feature": 22, "split_gain": 1.4551899615855568e-11, "threshold": 1.0000000180025095e-35, "decision_type": "<=", "default_left": true, "missing_type": "None", "internal_value": -0.116477, "internal_weight": 50940.7, "internal_count": 419429, "left_child": {"leaf_index": 9, "leaf_value": -0.11647745526538458, "leaf_weight": 25463.73175933957, "leaf_count": 209660}, "right_child": {"leaf_index": 16, "leaf_value": -0.11647745526538458, "leaf_weight": 25476.97008215636, "leaf_count": 209769}}, "right_child": {"split_index": 20, "split_feature": 10, "split_gain": 1.81899005406716e-12, "threshold": 1.0000000180025095e-35, "decision_type": "<=", "default_left": true, "missing_type": "None", "internal_value": 0.151131, "internal_weight": 5842.55, "internal_count": 26099, "left_child": {"leaf_index": 10, "leaf_value": 0.1511314244847569, "leaf_weight": 2917.355696797371, "leaf_count": 13032}, "right_child": {"leaf_index": 21, "leaf_value": 0.1511314244847569, "leaf_weight": 2925.190829500556, "leaf_count": 13067}}}}, "right_child": {"split_index": 2, "split_feature": 57, "split_gain": 831372, "threshold": 1.0000000180025095e-35, "decision_type": "<=", "default_left": true, "missing_type": "None", "internal_value": 0.114303, "internal_weight": 2000570.0000000002, "internal_count": 9973706, "left_child": {"split_index": 3, "split_feature": 53, "split_gain": 429441, "threshold": 1.0000000180025095e-35, "decision_type": "<=", "default_left": true, "missing_type": "None", "internal_value": 0.13231, "internal_weight": 1855780, "internal_count": 8781474, "left_child": {"split_index": 4, "split_feature": 36, "split_gain": 45863.80078125, "threshold": 1.0000000180025095e-35, "decision_type": "<=", "default_left": true, "missing_type": "None", "internal_value": 0.141612, "internal_weight": 1788889.9999999998, "internal_count": 8230794, "left_child": {"split_index": 5, "split_feature": 14, "split_gain": 170180, "threshold": 1.0000000180025095e-35, "decision_type": "<=", "default_left": true, "missing_type": "None", "internal_value": 0.0833561, "internal_weight": 125652, "internal_count": 681158, "left_child": {"leaf_index": 2, "leaf_value": 0.1511314244847569, "leaf_weight": 93828.84817372262, "leaf_count": 419139}, "right_child": {"split_index": 17, "split_feature": 0, "split_gain": 7.27596021626864e-12, "threshold": 1.0000000180025095e-35, "decision_type": "<=", "default_left": true, "missing_type": "None", "internal_value": -0.116477, "internal_weight": 31822.9, "internal_count": 262019, "left_child": {"split_index": 19, "split_feature": 24, "split_gain": 7.27596021626864e-12, "threshold": 1.0000000180025095e-35, "decision_type": "<=", "default_left": true, "missing_type": "None", "internal_value": -0.116477, "internal_weight": 25469.3, "internal_count": 209706, "left_child": {"leaf_index": 6, "leaf_value": -0.11647745526538458, "leaf_weight": 12729.922639623284, "leaf_count": 104814}, "right_child": {"leaf_index": 20, "leaf_value": -0.11647745526538458, "leaf_weight": 12739.395934849977, "leaf_count": 104892}}, "right_child": {"split_index": 21, "split_feature": 11, "split_gain": 1.81899005406716e-12, "threshold": 1.0000000180025095e-35, "decision_type": "<=", "default_left": true, "missing_type": "None", "internal_value": -0.116477, "internal_weight": 6353.54, "internal_count": 52313, "left_child": {"leaf_index": 18, "leaf_value": -0.11647745526538458, "leaf_weight": 3181.9341236427426, "leaf_count": 26199}, "right_child": {"leaf_index": 22, "leaf_value": -0.11647745526538458, "leaf_weight": 3171.610660895705, "leaf_count": 26114}}}}, "right_child": {"split_index": 6, "split_feature": 3, "split_gain": 28667.5, "threshold": 1.0000000180025095e-35, "decision_type": "<=", "default_left": true, "missing_type": "None", "internal_value": 0.146013, "internal_weight": 1663240, "internal_count": 7549636, "left_child": {"split_index": 7, "split_feature": 24, "split_gain": 194817, "threshold": 1.0000000180025095e-35, "decision_type": "<=", "default_left": true, "missing_type": "None", "internal_value": 0.112342, "internal_weight": 219490, "internal_count": 1100311, "left_child": {"split_index": 18, "split_feature": 9, "split_gain": 7.27596021626864e-12, "threshold": 1.0000000180025095e-35, "decision_type": "<=", "default_left": true, "missing_type": "None", "internal_value": -0.116477, "internal_weight": 31815.1, "internal_count": 261955, "left_child": {"leaf_index": 5, "leaf_value": -0.11647745526538458, "leaf_weight": 28634.492252714932, "leaf_count": 235767}, "right_child": {"split_index": 22, "split_feature": 11, "split_gain": 9.0949502703358e-13, "threshold": 1.0000000180025095e-35, "decision_type": "<=", "default_left": true, "missing_type": "None", "internal_value": -0.116477, "internal_weight": 3180.6, "internal_count": 26188, "left_child": {"leaf_index": 19, "leaf_value": -0.11647745526538458, "leaf_weight": 1589.8132630437613, "leaf_count": 13090}, "right_child": {"leaf_index": 23, "leaf_value": -0.11647745526538458, "leaf_weight": 1590.7848830670118, "leaf_count": 13098}}}, "right_child": {"split_index": 13, "split_feature": 11, "split_gain": 5.820770254683083e-11, "threshold": 1.0000000180025095e-35, "decision_type": "<=", "default_left": true, "missing_type": "None", "internal_value": 0.151131, "internal_weight": 187675, "internal_count": 838356, "left_child": {"leaf_index": 8, "leaf_value": 0.1511314244847569, "leaf_weight": 93855.0399030447, "leaf_count": 419256}, "right_child": {"leaf_index": 14, "leaf_value": 0.1511314244847569, "leaf_weight": 93820.11759728193, "leaf_count": 419100}}}, "right_child": {"split_index": 11, "split_feature": 32, "split_gain": 4.656610097519831e-10, "threshold": 1.0000000180025095e-35, "decision_type": "<=", "default_left": true, "missing_type": "None", "internal_value": 0.151131, "internal_weight": 1443750, "internal_count": 6449325, "left_child": {"leaf_index": 7, "leaf_value": 0.1511314244847569, "leaf_weight": 927137.7447349876, "leaf_count": 4141579}, "right_child": {"leaf_index": 12, "leaf_value": 0.1511314244847569, "leaf_weight": 516614.17586413026, "leaf_count": 2307746}}}}, "right_child": {"split_index": 16, "split_feature": 31, "split_gain": 1.4551899615855568e-11, "threshold": 1.0000000180025095e-35, "decision_type": "<=", "default_left": true, "missing_type": "None", "internal_value": -0.116477, "internal_weight": 66881.5, "internal_count": 550680, "left_child": {"leaf_index": 4, "leaf_value": -0.11647745526538458, "leaf_weight": 57336.8764545545, "leaf_count": 472093}, "right_child": {"leaf_index": 17, "leaf_value": -0.11647745526538458, "leaf_weight": 9544.587845899165, "leaf_count": 78587}}}, "right_child": {"split_index": 14, "split_feature": 29, "split_gain": 2.9103799231711136e-11, "threshold": 1.0000000180025095e-35, "decision_type": "<=", "default_left": true, "missing_type": "None", "internal_value": -0.116477, "internal_weight": 144800, "internal_count": 1192232, "left_child": {"leaf_index": 3, "leaf_value": -0.11647745526538458, "leaf_weight": 13536.974521435797, "leaf_count": 111459}, "right_child": {"leaf_index": 15, "leaf_value": -0.11647745526538458, "leaf_weight": 131262.58592357486, "leaf_count": 1080773}}}}, "right_child": {"split_index": 10, "split_feature": 9, "split_gain": 4.656610097519831e-10, "threshold": 1.0000000180025095e-35, "decision_type": "<=", "default_left": true, "missing_type": "None", "internal_value": -0.116477, "internal_weight": 1777030, "internal_count": 14631508, "left_child": {"leaf_index": 1, "leaf_value": -0.11647745526538458, "leaf_weight": 1103715.4089865834, "leaf_count": 9087630}, "right_child": {"split_index": 12, "split_feature": 43, "split_gain": 1.1641500263781523e-10, "threshold": 1.0000000180025095e-35, "decision_type": "<=", "default_left": true, "missing_type": "None", "internal_value": -0.116477, "internal_weight": 673318, "internal_count": 5543878, "left_child": {"leaf_index": 11, "leaf_value": -0.11647745526538458, "leaf_weight": 195796.85915286094, "leaf_count": 1612127}, "right_child": {"leaf_index": 13, "leaf_value": -0.11647745526538458, "leaf_weight": 477520.9997544363, "leaf_count": 3931751}}}}}, {"tree_index": 8, "num_leaves": 18, "num_cat": 0, "shrinkage": 0.1, "tree_structure": {"split_index": 0, "split_feature": 13, "split_gain": 3626100, "threshold": 1.0000000180025095e-35, "decision_type": "<=", "default_left": true, "missing_type": "None", "internal_value": 0, "internal_weight": 0, "internal_count": 26886144, "left_child": {"split_index": 1, "split_feature": 1, "split_gain": 1079220, "threshold": 1.0000000180025095e-35, "decision_type": "<=", "default_left": true, "missing_type": "None", "internal_value": 0.0831377, "internal_weight": 2144630, "internal_count": 12254636, "left_child": {"split_index": 8, "split_feature": 55, "split_gain": 3120.530029296875, "threshold": 1.0000000180025095e-35, "decision_type": "<=", "default_left": true, "missing_type": "None", "internal_value": -0.109096, "internal_weight": 257044, "internal_count": 2280930, "left_child": {"split_index": 12, "split_feature": 18, "split_gain": 5.820770254683083e-11, "threshold": 1.0000000180025095e-35, "decision_type": "<=", "default_left": true, "missing_type": "None", "internal_value": -0.114666, "internal_weight": 204724, "internal_count": 1835402, "left_child": {"leaf_index": 0, "leaf_value": -0.11466577426695977, "leaf_weight": 181357.61476054788, "leaf_count": 1625918}, "right_child": {"leaf_index": 13, "leaf_value": -0.11466577426695977, "leaf_weight": 23366.195940077305, "leaf_count": 209484}}, "right_child": {"split_index": 9, "split_feature": 31, "split_gain": 33110.6015625, "threshold": 1.0000000180025095e-35, "decision_type": "<=", "default_left": true, "missing_type": "None", "internal_value": -0.0873005, "internal_weight": 52319.8, "internal_count": 445528, "left_child": {"leaf_index": 9, "leaf_value": -0.11466577426695977, "leaf_weight": 46783.81259165704, "leaf_count": 419429}, "right_child": {"split_index": 16, "split_feature": 10, "split_gain": 1.81899005406716e-12, "threshold": 1.0000000180025095e-35, "decision_type": "<=", "default_left": true, "missing_type": "None", "internal_value": 0.143959, "internal_weight": 5536, "internal_count": 26099, "left_child": {"leaf_index": 10, "leaf_value": 0.14395945040096766, "leaf_weight": 2764.2860419750214, "leaf_count": 13032}, "right_child": {"leaf_index": 17, "leaf_value": 0.14395945040096766, "leaf_weight": 2771.7100760042667, "leaf_count": 13067}}}}, "right_child": {"split_index": 2, "split_feature": 57, "split_gain": 717709, "threshold": 1.0000000180025095e-35, "decision_type": "<=", "default_left": true, "missing_type": "None", "internal_value": 0.109315, "internal_weight": 1887589.9999999998, "internal_count": 9973706, "left_child": {"split_index": 3, "split_feature": 53, "split_gain": 369565, "threshold": 1.0000000180025095e-35, "decision_type": "<=", "default_left": true, "missing_type": "None", "internal_value": 0.126291, "internal_weight": 1754600, "internal_count": 8781474, "left_child": {"split_index": 4, "split_feature": 36, "split_gain": 38495, "threshold": 1.0000000180025095e-35, "decision_type": "<=", "default_left": true, "missing_type": "None", "internal_value": 0.135032, "internal_weight": 1693180, "internal_count": 8230794, "left_child": {"split_index": 5, "split_feature": 14, "split_gain": 147121, "threshold": 1.0000000180025095e-35, "decision_type": "<=", "default_left": true, "missing_type": "None", "internal_value": 0.0799751, "internal_weight": 118132, "internal_count": 681158, "left_child": {"split_index": 13, "split_feature": 10, "split_gain": 2.9103799231711136e-11, "threshold": 1.0000000180025095e-35, "decision_type": "<=", "default_left": true, "missing_type": "None", "internal_value": 0.143959, "internal_weight": 88905.8, "internal_count": 419139, "left_child": {"leaf_index": 2, "leaf_value": 0.14395945040096766, "leaf_weight": 44474.63037085533, "leaf_count": 209672}, "right_child": {"leaf_index": 14, "leaf_value": 0.14395945040096766, "leaf_weight": 44431.14674296975, "leaf_count": 209467}}, "right_child": {"leaf_index": 6, "leaf_value": -0.11466577426695977, "leaf_weight": 29226.037759557366, "leaf_count": 262019}}, "right_child": {"split_index": 6, "split_feature": 3, "split_gain": 23954.80078125, "threshold": 1.0000000180025095e-35, "decision_type": "<=", "default_left": true, "missing_type": "None", "internal_value": 0.139162, "internal_weight": 1575050, "internal_count": 7549636, "left_child": {"split_index": 7, "split_feature": 24, "split_gain": 167856, "threshold": 1.0000000180025095e-35, "decision_type": "<=", "default_left": true, "missing_type": "None", "internal_value": 0.107462, "internal_weight": 207047, "internal_count": 1100311, "left_child": {"split_index": 15, "split_feature": 2, "split_gain": 7.27596021626864e-12, "threshold": 1.0000000180025095e-35, "decision_type": "<=", "default_left": true, "missing_type": "None", "internal_value": -0.114666, "internal_weight": 29218.9, "internal_count": 261955, "left_child": {"leaf_index": 5, "leaf_value": -0.11466577426695977, "leaf_weight": 17537.25116416812, "leaf_count": 157226}, "right_child": {"leaf_index": 16, "leaf_value": -0.11466577426695977, "leaf_weight": 11681.647928282619, "leaf_count": 104729}}, "right_child": {"leaf_index": 8, "leaf_value": 0.14395945040096766, "leaf_weight": 177828.09921777248, "leaf_count": 838356}}, "right_child": {"split_index": 10, "split_feature": 0, "split_gain": 4.656610097519831e-10, "threshold": 1.0000000180025095e-35, "decision_type": "<=", "default_left": true, "missing_type": "None", "internal_value": 0.143959, "internal_weight": 1367999.9999999998, "internal_count": 6449325, "left_child": {"leaf_index": 7, "leaf_value": 0.14395945040096766, "leaf_weight": 1356864.3972331882, "leaf_count": 6396826}, "right_child": {"leaf_index": 11, "leaf_value": 0.14395945040096766, "leaf_weight": 11135.838928610086, "leaf_count": 52499}}}}, "right_child": {"split_index": 14, "split_feature": 19, "split_gain": 1.4551899615855568e-11, "threshold": 1.0000000180025095e-35, "decision_type": "<=", "default_left": true, "missing_type": "None", "internal_value": -0.114666, "internal_weight": 61423.8, "internal_count": 550680, "left_child": {"leaf_index": 4, "leaf_value": -0.11466577426695977, "leaf_weight": 52639.19274419546, "leaf_count": 471924}, "right_child": {"leaf_index": 15, "leaf_value": -0.11466577426695977, "leaf_weight": 8784.576041400433, "leaf_count": 78756}}}, "right_child": {"leaf_index": 3, "leaf_value": -0.11466577426695977, "leaf_weight": 132983.5525292158, "leaf_count": 1192232}}}, "right_child": {"split_index": 11, "split_feature": 43, "split_gain": 4.656610097519831e-10, "threshold": 1.0000000180025095e-35, "decision_type": "<=", "default_left": true, "missing_type": "None", "internal_value": -0.114666, "internal_weight": 1632020, "internal_count": 14631508, "left_child": {"leaf_index": 1, "leaf_value": -0.11466577426695977, "leaf_weight": 316188.96665364504, "leaf_count": 2834716}, "right_child": {"leaf_index": 12, "leaf_value": -0.11466577426695977, "leaf_weight": 1315833.9220958948, "leaf_count": 11796792}}}}, {"tree_index": 9, "num_leaves": 21, "num_cat": 0, "shrinkage": 0.1, "tree_structure": {"split_index": 0, "split_feature": 13, "split_gain": 3201690, "threshold": 1.0000000180025095e-35, "decision_type": "<=", "default_left": true, "missing_type": "None", "internal_value": 0, "internal_weight": 0, "internal_count": 26886144, "left_child": {"split_index": 1, "split_feature": 1, "split_gain": 941603, "threshold": 1.0000000180025095e-35, "decision_type": "<=", "default_left": true, "missing_type": "None", "internal_value": 0.080188, "internal_weight": 2006650, "internal_count": 12254636, "left_child": {"split_index": 8, "split_feature": 55, "split_gain": 2834.699951171875, "threshold": 1.0000000180025095e-35, "decision_type": "<=", "default_left": true, "missing_type": "None", "internal_value": -0.107526, "internal_weight": 235818, "internal_count": 2280930, "left_child": {"split_index": 12, "split_feature": 2, "split_gain": 5.820770254683083e-11, "threshold": 1.0000000180025095e-35, "decision_type": "<=", "default_left": true, "missing_type": "None", "internal_value": -0.113077, "internal_weight": 187711, "internal_count": 1835402, "left_child": {"leaf_index": 0, "leaf_value": -0.11307693815136033, "leaf_weight": 120684.05123301595, "leaf_count": 1180027}, "right_child": {"leaf_index": 13, "leaf_value": -0.11307693815136033, "leaf_weight": 67026.69521700591, "leaf_count": 655375}}, "right_child": {"split_index": 9, "split_feature": 31, "split_gain": 29310.69921875, "threshold": 1.0000000180025095e-35, "decision_type": "<=", "default_left": true, "missing_type": "None", "internal_value": -0.0858693, "internal_weight": 48107.7, "internal_count": 445528, "left_child": {"leaf_index": 9, "leaf_value": -0.11307693815136033, "leaf_weight": 42895.959943808615, "leaf_count": 419429}, "right_child": {"leaf_index": 10, "leaf_value": 0.13806550035112738, "leaf_weight": 5211.767625525594, "leaf_count": 26099}}}, "right_child": {"split_index": 2, "split_feature": 57, "split_gain": 623821, "threshold": 1.0000000180025095e-35, "decision_type": "<=", "default_left": true, "missing_type": "None", "internal_value": 0.105186, "internal_weight": 1770830.0000000002, "internal_count": 9973706, "left_child": {"split_index": 3, "split_feature": 53, "split_gain": 320387, "threshold": 1.0000000180025095e-35, "decision_type": "<=", "default_left": true, "missing_type": "None", "internal_value": 0.121326, "internal_weight": 1648900, "internal_count": 8781474, "left_child": {"split_index": 4, "split_feature": 36, "split_gain": 32671.19921875, "threshold": 1.0000000180025095e-35, "decision_type": "<=", "default_left": true, "missing_type": "None", "internal_value": 0.129615, "internal_weight": 1592580, "internal_count": 8230794, "left_child": {"split_index": 5, "split_feature": 14, "split_gain": 128028, "threshold": 1.0000000180025095e-35, "decision_type": "<=", "default_left": true, "missing_type": "None", "internal_value": 0.077159, "internal_weight": 110496, "internal_count": 681158, "left_child": {"split_index": 15, "split_feature": 4, "split_gain": 2.9103799231711136e-11, "threshold": 1.0000000180025095e-35, "decision_type": "<=", "default_left": true, "missing_type": "None", "internal_value": 0.138066, "internal_weight": 83698.8, "internal_count": 419139, "left_child": {"leaf_index": 2, "leaf_value": 0.13806550035112738, "leaf_weight": 41832.32803040743, "leaf_count": 209484}, "right_child": {"leaf_index": 16, "leaf_value": 0.13806550035112738, "leaf_weight": 41866.475402489305, "leaf_count": 209655}}, "right_child": {"split_index": 18, "split_feature": 18, "split_gain": 7.27596021626864e-12, "threshold": 1.0000000180025095e-35, "decision_type": "<=", "default_left": true, "missing_type": "None", "internal_value": -0.113077, "internal_weight": 26797.3, "internal_count": 262019, "left_child": {"leaf_index": 6, "leaf_value": -0.11307693815136033, "leaf_weight": 16073.725089415908, "leaf_count": 157166}, "right_child": {"leaf_index": 19, "leaf_value": -0.11307693815136033, "leaf_weight": 10723.555328764021, "leaf_count": 104853}}}, "right_child": {"split_index": 6, "split_feature": 3, "split_gain": 20256, "threshold": 1.0000000180025095e-35, "decision_type": "<=", "default_left": true, "missing_type": "None", "internal_value": 0.133526, "internal_weight": 1482080, "internal_count": 7549636, "left_child": {"split_index": 7, "split_feature": 24, "split_gain": 145665, "threshold": 1.0000000180025095e-35, "decision_type": "<=", "default_left": true, "missing_type": "None", "internal_value": 0.10342, "internal_weight": 194204, "internal_count": 1100311, "left_child": {"leaf_index": 5, "leaf_value": -0.11307693815136033, "leaf_weight": 26790.734992288053, "leaf_count": 261955}, "right_child": {"split_index": 13, "split_feature": 4, "split_gain": 5.820770254683083e-11, "threshold": 1.0000000180025095e-35, "decision_type": "<=", "default_left": true, "missing_type": "None", "internal_value": 0.138066, "internal_weight": 167413, "internal_count": 838356, "left_child": {"leaf_index": 8, "leaf_value": 0.13806550035112738, "leaf_weight": 83711.98312036693, "leaf_count": 419205}, "right_child": {"leaf_index": 14, "leaf_value": 0.13806550035112738, "leaf_weight": 83701.1997397095, "leaf_count": 419151}}}, "right_child": {"split_index": 10, "split_feature": 0, "split_gain": 4.656610097519831e-10, "threshold": 1.0000000180025095e-35, "decision_type": "<=", "default_left": true, "missing_type": "None", "internal_value": 0.138066, "internal_weight": 1287880, "internal_count": 6449325, "left_child": {"leaf_index": 7, "leaf_value": 0.13806550035112738, "leaf_weight": 1277396.476988405, "leaf_count": 6396826}, "right_child": {"leaf_index": 11, "leaf_value": 0.13806550035112738, "leaf_weight": 10483.642613604665, "leaf_count": 52499}}}}, "right_child": {"split_index": 16, "split_feature": 2, "split_gain": 1.4551899615855568e-11, "threshold": 1.0000000180025095e-35, "decision_type": "<=", "default_left": true, "missing_type": "None", "internal_value": -0.113077, "internal_weight": 56319.3, "internal_count": 550680, "left_child": {"leaf_index": 4, "leaf_value": -0.11307693815136033, "leaf_weight": 49614.737349539995, "leaf_count": 485124}, "right_child": {"split_index": 19, "split_feature": 11, "split_gain": 1.81899005406716e-12, "threshold": 1.0000000180025095e-35, "decision_type": "<=", "default_left": true, "missing_type": "None", "internal_value": -0.113077, "internal_weight": 6704.56, "internal_count": 65556, "left_child": {"leaf_index": 17, "leaf_value": -0.11307693815136033, "leaf_weight": 4686.729483142495, "leaf_count": 45826}, "right_child": {"leaf_index": 20, "leaf_value": -0.11307693815136033, "leaf_weight": 2017.8320757299662, "leaf_count": 19730}}}}, "right_child": {"split_index": 14, "split_feature": 0, "split_gain": 2.9103799231711136e-11, "threshold": 1.0000000180025095e-35, "decision_type": "<=", "default_left": true, "missing_type": "None", "internal_value": -0.113077, "internal_weight": 121932, "internal_count": 1192232, "left_child": {"split_index": 17, "split_feature": 20, "split_gain": 1.4551899615855568e-11, "threshold": 1.0000000180025095e-35, "decision_type": "<=", "default_left": true, "missing_type": "None", "internal_value": -0.113077, "internal_weight": 99164.5, "internal_count": 969613, "left_child": {"leaf_index": 3, "leaf_value": -0.11307693815136033, "leaf_weight": 49565.13529395312, "leaf_count": 484639}, "right_child": {"leaf_index": 18, "leaf_value": -0.11307693815136033, "leaf_weight": 49599.39650760591, "leaf_count": 484974}}, "right_child": {"leaf_index": 15, "leaf_value": -0.11307693815136033, "leaf_weight": 22767.75260349363, "leaf_count": 222619}}}}, "right_child": {"split_index": 11, "split_feature": 55, "split_gain": 2.3283100447635263e-10, "threshold": 1.0000000180025095e-35, "decision_type": "<=", "default_left": true, "missing_type": "None", "internal_value": -0.113077, "internal_weight": 1496400, "internal_count": 14631508, "left_child": {"leaf_index": 1, "leaf_value": -0.11307693815136033, "leaf_weight": 1225589.6802528799, "leaf_count": 11983596}, "right_child": {"leaf_index": 12, "leaf_value": -0.11307693815136033, "leaf_weight": 270807.9963157773, "leaf_count": 2647912}}}}, {"tree_index": 10, "num_leaves": 19, "num_cat": 0, "shrinkage": 0.1, "tree_structure": {"split_index": 0, "split_feature": 13, "split_gain": 2835730, "threshold": 1.0000000180025095e-35, "decision_type": "<=", "default_left": true, "missing_type": "None", "internal_value": 0, "internal_weight": 0, "internal_count": 26886144, "left_child": {"split_index": 1, "split_feature": 1, "split_gain": 825581, "threshold": 1.0000000180025095e-35, "decision_type": "<=", "default_left": true, "missing_type": "None", "internal_value": 0.077705, "internal_weight": 1869470, "internal_count": 12254636, "left_child": {"split_index": 8, "split_feature": 55, "split_gain": 2572.72998046875, "threshold": 1.0000000180025095e-35, "decision_type": "<=", "default_left": true, "missing_type": "None", "internal_value": -0.106147, "internal_weight": 216020, "internal_count": 2280930, "left_child": {"split_index": 11, "split_feature": 32, "split_gain": 2.9103799231711136e-11, "threshold": 1.0000000180025095e-35, "decision_type": "<=", "default_left": true, "missing_type": "None", "internal_value": -0.111679, "internal_weight": 171865, "internal_count": 1835402, "left_child": {"leaf_index": 0, "leaf_value": -0.11167877891710942, "leaf_weight": 125196.5301027894, "leaf_count": 1337015}, "right_child": {"leaf_index": 12, "leaf_value": -0.11167877891710942, "leaf_weight": 46668.37922412157, "leaf_count": 498387}}, "right_child": {"split_index": 9, "split_feature": 31, "split_gain": 26022.400390625, "threshold": 1.0000000180025095e-35, "decision_type": "<=", "default_left": true, "missing_type": "None", "internal_value": -0.0846168, "internal_weight": 44155.4, "internal_count": 445528, "left_child": {"split_index": 13, "split_feature": 11, "split_gain": 7.27596021626864e-12, "threshold": 1.0000000180025095e-35, "decision_type": "<=", "default_left": true, "missing_type": "None", "internal_value": -0.111679, "internal_weight": 39274.8, "internal_count": 419429, "left_child": {"leaf_index": 9, "leaf_value": -0.11167877891710942, "leaf_weight": 19641.120686888695, "leaf_count": 209754}, "right_child": {"split_index": 15, "split_feature": 16, "split_gain": 3.63798010813432e-12, "threshold": 1.0000000180025095e-35, "decision_type": "<=", "default_left": true, "missing_type": "None", "internal_value": -0.111679, "internal_weight": 19633.7, "internal_count": 209675, "left_child": {"leaf_index": 14, "leaf_value": -0.11167877891710942, "leaf_weight": 4924.1855390667915, "leaf_count": 52587}, "right_child": {"leaf_index": 16, "leaf_value": -0.11167877891710942, "leaf_weight": 14709.537679672241, "leaf_count": 157088}}}, "right_child": {"leaf_index": 10, "leaf_value": 0.13315663236237446, "leaf_weight": 4880.548947304487, "leaf_count": 26099}}}, "right_child": {"split_index": 2, "split_feature": 57, "split_gain": 545231, "threshold": 1.0000000180025095e-35, "decision_type": "<=", "default_left": true, "missing_type": "None", "internal_value": 0.101725, "internal_weight": 1653449.9999999998, "internal_count": 9973706, "left_child": {"split_index": 3, "split_feature": 53, "split_gain": 279417, "threshold": 1.0000000180025095e-35, "decision_type": "<=", "default_left": true, "missing_type": "None", "internal_value": 0.117177, "internal_weight": 1541820, "internal_count": 8781474, "left_child": {"split_index": 4, "split_feature": 36, "split_gain": 27979.5, "threshold": 1.0000000180025095e-35, "decision_type": "<=", "default_left": true, "missing_type": "None", "internal_value": 0.125096, "internal_weight": 1490250, "internal_count": 8230794, "left_child": {"split_index": 5, "split_feature": 14, "split_gain": 112012, "threshold": 1.0000000180025095e-35, "decision_type": "<=", "default_left": true, "missing_type": "None", "internal_value": 0.0747872, "internal_weight": 102915, "internal_count": 681158, "left_child": {"leaf_index": 2, "leaf_value": 0.13315663236237446, "leaf_weight": 78379.57029864192, "leaf_count": 419139}, "right_child": {"split_index": 16, "split_feature": 21, "split_gain": 3.63798010813432e-12, "threshold": 1.0000000180025095e-35, "decision_type": "<=", "default_left": true, "missing_type": "None", "internal_value": -0.111679, "internal_weight": 24535.2, "internal_count": 262019, "left_child": {"leaf_index": 6, "leaf_value": -0.11167877891710942, "leaf_weight": 2440.8835728764534, "leaf_count": 26067}, "right_child": {"leaf_index": 17, "leaf_value": -0.11167877891710942, "leaf_weight": 22094.27094745636, "leaf_count": 235952}}}, "right_child": {"split_index": 6, "split_feature": 3, "split_gain": 17293.69921875, "threshold": 1.0000000180025095e-35, "decision_type": "<=", "default_left": true, "missing_type": "None", "internal_value": 0.128828, "internal_weight": 1387340, "internal_count": 7549636, "left_child": {"split_index": 7, "split_feature": 24, "split_gain": 127145, "threshold": 1.0000000180025095e-35, "decision_type": "<=", "default_left": true, "missing_type": "None", "internal_value": 0.100032, "internal_weight": 181303, "internal_count": 1100311, "left_child": {"leaf_index": 5, "leaf_value": -0.11167877891710942, "leaf_weight": 24529.161634743214, "leaf_count": 261955}, "right_child": {"leaf_index": 8, "leaf_value": 0.13315663236237446, "leaf_weight": 156773.72670471668, "leaf_count": 838356}}, "right_child": {"leaf_index": 7, "leaf_value": 0.13315663236237446, "leaf_weight": 1206032.6579399407, "leaf_count": 6449325}}}, "right_child": {"split_index": 12, "split_feature": 10, "split_gain": 7.27596021626864e-12, "threshold": 1.0000000180025095e-35, "decision_type": "<=", "default_left": true, "missing_type": "None", "internal_value": -0.111679, "internal_weight": 51565, "internal_count": 550680, "left_child": {"split_index": 17, "split_feature": 31, "split_gain": 1.81899005406716e-12, "threshold": 1.0000000180025095e-35, "decision_type": "<=", "default_left": true, "missing_type": "None", "internal_value": -0.111679, "internal_weight": 8598.48, "internal_count": 91826, "left_child": {"leaf_index": 4, "leaf_value": -0.11167877891710942, "leaf_weight": 4915.477127194405, "leaf_count": 52494}, "right_child": {"leaf_index": 18, "leaf_value": -0.11167877891710942, "leaf_weight": 3683.00275015831, "leaf_count": 39332}}, "right_child": {"leaf_index": 13, "leaf_value": -0.11167877891710942, "leaf_weight": 42966.555067658424, "leaf_count": 458854}}}, "right_child": {"split_index": 10, "split_feature": 2, "split_gain": 2.9103799231711136e-11, "threshold": 1.0000000180025095e-35, "decision_type": "<=", "default_left": true, "missing_type": "None", "internal_value": -0.111679, "internal_weight": 111639, "internal_count": 1192232, "left_child": {"split_index": 14, "split_feature": 39, "split_gain": 7.27596021626864e-12, "threshold": 1.0000000180025095e-35, "decision_type": "<=", "default_left": true, "missing_type": "None", "internal_value": -0.111679, "internal_weight": 51553.7, "internal_count": 550559, "left_child": {"leaf_index": 3, "leaf_value": -0.11167877891710942, "leaf_weight": 49084.63578277826, "leaf_count": 524191}, "right_child": {"leaf_index": 15, "leaf_value": -0.11167877891710942, "leaf_weight": 2469.068862915039, "leaf_count": 26368}}, "right_child": {"leaf_index": 11, "leaf_value": -0.11167877891710942, "leaf_weight": 60085.51367086172, "leaf_count": 641673}}}}, "right_child": {"leaf_index": 1, "leaf_value": -0.11167877891710942, "leaf_weight": 1370077.3976142406, "leaf_count": 14631508}}}, {"tree_index": 11, "num_leaves": 18, "num_cat": 0, "shrinkage": 0.1, "tree_structure": {"split_index": 0, "split_feature": 13, "split_gain": 2518190, "threshold": 1.0000000180025095e-35, "decision_type": "<=", "default_left": true, "missing_type": "None", "internal_value": 0, "internal_weight": 0, "internal_count": 26886144, "left_child": {"split_index": 1, "split_feature": 1, "split_gain": 726817, "threshold": 1.0000000180025095e-35, "decision_type": "<=", "default_left": true, "missing_type": "None", "internal_value": 0.0755954, "internal_weight": 1735370, "internal_count": 12254636, "left_child": {"split_index": 8, "split_feature": 55, "split_gain": 2333.3798828125, "threshold": 1.0000000180025095e-35, "decision_type": "<=", "default_left": true, "missing_type": "None", "internal_value": -0.104931, "internal_weight": 197623, "internal_count": 2280930, "left_child": {"split_index": 10, "split_feature": 3, "split_gain": 2.9103799231711136e-11, "threshold": 1.0000000180025095e-35, "decision_type": "<=", "default_left": true, "missing_type": "None", "internal_value": -0.110445, "internal_weight": 157158, "internal_count": 1835402, "left_child": {"leaf_index": 0, "leaf_value": -0.11044469807759626, "leaf_weight": 8974.984048485756, "leaf_count": 104816}, "right_child": {"leaf_index": 11, "leaf_value": -0.11044469807759626, "leaf_weight": 148183.30927084386, "leaf_count": 1730586}}, "right_child": {"split_index": 9, "split_feature": 31, "split_gain": 23158.900390625, "threshold": 1.0000000180025095e-35, "decision_type": "<=", "default_left": true, "missing_type": "None", "internal_value": -0.0835166, "internal_weight": 40464.3, "internal_count": 445528, "left_child": {"leaf_index": 9, "leaf_value": -0.11044469807759626, "leaf_weight": 35914.064498476684, "leaf_count": 419429}, "right_child": {"split_index": 16, "split_feature": 20, "split_gain": 9.0949502703358e-13, "threshold": 1.0000000180025095e-35, "decision_type": "<=", "default_left": true, "missing_type": "None", "internal_value": 0.129023, "internal_weight": 4550.21, "internal_count": 26099, "left_child": {"leaf_index": 10, "leaf_value": 0.12902292889792932, "leaf_weight": 2274.668348327279, "leaf_count": 13047}, "right_child": {"leaf_index": 17, "leaf_value": 0.12902292889792932, "leaf_weight": 2275.5400691628456, "leaf_count": 13052}}}}, "right_child": {"split_index": 2, "split_feature": 57, "split_gain": 478730, "threshold": 1.0000000180025095e-35, "decision_type": "<=", "default_left": true, "missing_type": "None", "internal_value": 0.0987957, "internal_weight": 1537740, "internal_count": 9973706, "left_child": {"split_index": 3, "split_feature": 53, "split_gain": 244887, "threshold": 1.0000000180025095e-35, "decision_type": "<=", "default_left": true, "missing_type": "None", "internal_value": 0.113674, "internal_weight": 1435660, "internal_count": 8781474, "left_child": {"split_index": 4, "split_feature": 36, "split_gain": 24139.900390625, "threshold": 1.0000000180025095e-35, "decision_type": "<=", "default_left": true, "missing_type": "None", "internal_value": 0.121285, "internal_weight": 1388500, "internal_count": 8230794, "left_child": {"split_index": 5, "split_feature": 14, "split_gain": 98434.796875, "threshold": 1.0000000180025095e-35, "decision_type": "<=", "default_left": true, "missing_type": "None", "internal_value": 0.0727711, "internal_weight": 95510.1, "internal_count": 681158, "left_child": {"leaf_index": 2, "leaf_value": 0.12902292889792932, "leaf_weight": 73074.43985970318, "leaf_count": 419139}, "right_child": {"split_index": 13, "split_feature": 8, "split_gain": 3.63798010813432e-12, "threshold": 1.0000000180025095e-35, "decision_type": "<=", "default_left": true, "missing_type": "None", "internal_value": -0.110445, "internal_weight": 22435.7, "internal_count": 262019, "left_child": {"split_index": 15, "split_feature": 44, "split_gain": 1.81899005406716e-12, "threshold": 1.0000000180025095e-35, "decision_type": "<=", "default_left": true, "missing_type": "None", "internal_value": -0.110445, "internal_weight": 11213.8, "internal_count": 130962, "left_child": {"leaf_index": 6, "leaf_value": -0.11044469807759626, "leaf_weight": 5600.631169319153, "leaf_count": 65408}, "right_child": {"leaf_index": 16, "leaf_value": -0.11044469807759626, "leaf_weight": 5613.13257817924, "leaf_count": 65554}}, "right_child": {"leaf_index": 14, "leaf_value": -0.11044469807759626, "leaf_weight": 11221.898225866258, "leaf_count": 131057}}}, "right_child": {"split_index": 6, "split_feature": 3, "split_gain": 14881.5, "threshold": 1.0000000180025095e-35, "decision_type": "<=", "default_left": true, "missing_type": "None", "internal_value": 0.124869, "internal_weight": 1292990, "internal_count": 7549636, "left_child": {"split_index": 7, "split_feature": 24, "split_gain": 111513, "threshold": 1.0000000180025095e-35, "decision_type": "<=", "default_left": true, "missing_type": "None", "internal_value": 0.0971633, "internal_weight": 168593, "internal_count": 1100311, "left_child": {"split_index": 12, "split_feature": 4, "split_gain": 3.63798010813432e-12, "threshold": 1.0000000180025095e-35, "decision_type": "<=", "default_left": true, "missing_type": "None", "internal_value": -0.110445, "internal_weight": 22430.2, "internal_count": 261955, "left_child": {"leaf_index": 5, "leaf_value": -0.11044469807759626, "leaf_weight": 11209.311190918088, "leaf_count": 130910}, "right_child": {"split_index": 14, "split_feature": 16, "split_gain": 1.81899005406716e-12, "threshold": 1.0000000180025095e-35, "decision_type": "<=", "default_left": true, "missing_type": "None", "internal_value": -0.110445, "internal_weight": 11220.9, "internal_count": 131045, "left_child": {"leaf_index": 13, "leaf_value": -0.11044469807759626, "leaf_weight": 4481.241319812834, "leaf_count": 52335}, "right_child": {"leaf_index": 15, "leaf_value": -0.11044469807759626, "leaf_weight": 6739.62939299643, "leaf_count": 78710}}}, "right_child": {"leaf_index": 8, "leaf_value": 0.12902292889792932, "leaf_weight": 146162.4785644412, "leaf_count": 838356}}, "right_child": {"leaf_index": 7, "leaf_value": 0.12902292889792932, "leaf_weight": 1124402.1955680102, "leaf_count": 6449325}}}, "right_child": {"leaf_index": 4, "leaf_value": -0.11044469807759626, "leaf_weight": 47152.574185431, "leaf_count": 550680}}, "right_child": {"split_index": 11, "split_feature": 27, "split_gain": 1.4551899615855568e-11, "threshold": 1.0000000180025095e-35, "decision_type": "<=", "default_left": true, "missing_type": "None", "internal_value": -0.110445, "internal_weight": 102086, "internal_count": 1192232, "left_child": {"leaf_index": 3, "leaf_value": -0.11044469807759626, "leaf_weight": 53834.40596897155, "leaf_count": 628715}, "right_child": {"leaf_index": 12, "leaf_value": -0.11044469807759626, "leaf_weight": 48251.75627814978, "leaf_count": 563517}}}}, "right_child": {"leaf_index": 1, "leaf_value": -0.11044469807759626, "leaf_weight": 1252838.792792052, "leaf_count": 14631508}}}, {"tree_index": 12, "num_leaves": 21, "num_cat": 0, "shrinkage": 0.1, "tree_structure": {"split_index": 0, "split_feature": 13, "split_gain": 2241200, "threshold": 1.0000000180025095e-35, "decision_type": "<=", "default_left": true, "missing_type": "None", "internal_value": 0, "internal_weight": 0, "internal_count": 26886144, "left_child": {"split_index": 1, "split_feature": 1, "split_gain": 642068, "threshold": 1.0000000180025095e-35, "decision_type": "<=", "default_left": true, "missing_type": "None", "internal_value": 0.0737888, "internal_weight": 1605910, "internal_count": 12254636, "left_child": {"split_index": 8, "split_feature": 55, "split_gain": 2115.179931640625, "threshold": 1.0000000180025095e-35, "decision_type": "<=", "default_left": true, "missing_type": "None", "internal_value": -0.103856, "internal_weight": 180581, "internal_count": 2280930, "left_child": {"split_index": 11, "split_feature": 0, "split_gain": 2.9103799231711136e-11, "threshold": 1.0000000180025095e-35, "decision_type": "<=", "default_left": true, "missing_type": "None", "internal_value": -0.109353, "internal_weight": 143550, "internal_count": 1835402, "left_child": {"leaf_index": 0, "leaf_value": -0.10935255101875568, "leaf_weight": 32789.52721774578, "leaf_count": 419240}, "right_child": {"leaf_index": 12, "leaf_value": -0.10935255101875568, "leaf_weight": 110760.62027415633, "leaf_count": 1416162}}, "right_child": {"split_index": 9, "split_feature": 31, "split_gain": 20652.400390625, "threshold": 1.0000000180025095e-35, "decision_type": "<=", "default_left": true, "missing_type": "None", "internal_value": -0.0825469, "internal_weight": 37030.8, "internal_count": 445528, "left_child": {"split_index": 15, "split_feature": 17, "split_gain": 7.27596021626864e-12, "threshold": 1.0000000180025095e-35, "decision_type": "<=", "default_left": true, "missing_type": "None", "internal_value": -0.109353, "internal_weight": 32804.3, "internal_count": 419429, "left_child": {"leaf_index": 9, "leaf_value": -0.10935255101875568, "leaf_weight": 16395.780362650752, "leaf_count": 209633}, "right_child": {"leaf_index": 16, "leaf_value": -0.10935255101875568, "leaf_weight": 16408.528890788555, "leaf_count": 209796}}, "right_child": {"split_index": 16, "split_feature": 4, "split_gain": 9.0949502703358e-13, "threshold": 1.0000000180025095e-35, "decision_type": "<=", "default_left": true, "missing_type": "None", "internal_value": 0.12551, "internal_weight": 4226.45, "internal_count": 26099, "left_child": {"split_index": 18, "split_feature": 12, 