{"name": "tree", "version": "v4", "num_class": 1, "num_tree_per_iteration": 1, "label_index": 0, "max_feature_idx": 54, "objective": "binary sigmoid:1", "average_output": false, "feature_names": ["Column_0", "Column_1", "Column_2", "Column_3", "Column_4", "Column_5", "Column_6", "Column_7", "Column_8", "Column_9", "Column_10", "Column_11", "Column_12", "Column_13", "Column_14", "Column_15", "Column_16", "Column_17", "Column_18", "Column_19", "Column_20", "Column_21", "Column_22", "Column_23", "Column_24", "Column_25", "Column_26", "Column_27", "Column_28", "Column_29", "Column_30", "Column_31", "Column_32", "Column_33", "Column_34", "Column_35", "Column_36", "Column_37", "Column_38", "Column_39", "Column_40", "Column_41", "Column_42", "Column_43", "Column_44", "Column_45", "Column_46", "Column_47", "Column_48", "Column_49", "Column_50", "Column_51", "Column_52", "Column_53", "Column_54"], "monotone_constraints": [], "feature_infos": {"Column_0": {"min_value": 0, "max_value": 1, "values": []}, "Column_1": {"min_value": 0, "max_value": 1, "values": []}, "Column_2": {"min_value": 0, "max_value": 1, "values": []}, "Column_3": {"min_value": 0, "max_value": 1, "values": []}, "Column_4": {"min_value": 0, "max_value": 1, "values": []}, "Column_5": {"min_value": 0, "max_value": 1, "values": []}, "Column_6": {"min_value": 0, "max_value": 1, "values": []}, "Column_7": {"min_value": 0, "max_value": 1, "values": []}, "Column_8": {"min_value": 0, "max_value": 1, "values": []}, "Column_9": {"min_value": 0, "max_value": 1, "values": []}, "Column_10": {"min_value": 0, "max_value": 1, "values": []}, "Column_11": {"min_value": 0, "max_value": 1, "values": []}, "Column_12": {"min_value": 0, "max_value": 1, "values": []}, "Column_13": {"min_value": 0, "max_value": 1, "values": []}, "Column_14": {"min_value": 0, "max_value": 1, "values": []}, "Column_15": {"min_value": 0, "max_value": 1, "values": []}, "Column_16": {"min_value": 0, "max_value": 1, "values": []}, "Column_17": {"min_value": 0, "max_value": 1, "values": []}, "Column_18": {"min_value": 0, "max_value": 1, "values": []}, "Column_19": {"min_value": 0, "max_value": 1, "values": []}, "Column_20": {"min_value": 0, "max_value": 1, "values": []}, "Column_21": {"min_value": 0, "max_value": 1, "values": []}, "Column_22": {"min_value": 0, "max_value": 1, "values": []}, "Column_23": {"min_value": 0, "max_value": 1, "values": []}, "Column_24": {"min_value": 0, "max_value": 1, "values": []}, "Column_25": {"min_value": 0, "max_value": 1, "values": []}, "Column_26": {"min_value": 0, "max_value": 1, "values": []}, "Column_27": {"min_value": 0, "max_value": 1, "values": []}, "Column_28": {"min_value": 0, "max_value": 1, "values": []}, "Column_29": {"min_value": 0, "max_value": 1, "values": []}, "Column_30": {"min_value": 0, "max_value": 1, "values": []}, "Column_31": {"min_value": 0, "max_value": 1, "values": []}, "Column_32": {"min_value": 0, "max_value": 1, "values": []}, "Column_33": {"min_value": 0, "max_value": 1, "values": []}, "Column_34": {"min_value": 0, "max_value": 1, "values": []}, "Column_35": {"min_value": 0, "max_value": 1, "values": []}, "Column_36": {"min_value": 0, "max_value": 1, "values": []}, "Column_37": {"min_value": 0, "max_value": 1, "values": []}, "Column_38": {"min_value": 0, "max_value": 1, "values": []}, "Column_39": {"min_value": 0, "max_value": 1, "values": []}, "Column_40": {"min_value": 0, "max_value": 1, "values": []}, "Column_41": {"min_value": 0, "max_value": 1, "values": []}, "Column_42": {"min_value": 0, "max_value": 1, "values": []}, "Column_43": {"min_value": 0, "max_value": 1, "values": []}, "Column_44": {"min_value": 0, "max_value": 1, "values": []}, "Column_45": {"min_value": 0, "max_value": 1, "values": []}, "Column_46": {"min_value": 0, "max_value": 1, "values": []}, "Column_47": {"min_value": 0, "max_value": 1, "values": []}, "Column_48": {"min_value": 0, "max_value": 1, "values": []}, "Column_49": {"min_value": 0, "max_value": 1, "values": []}, "Column_50": {"min_value": 0, "max_value": 1, "values": []}, "Column_51": {"min_value": 0, "max_value": 1, "values": []}, "Column_53": {"min_value": 0, "max_value": 1, "values": []}, "Column_54": {"min_value": 0, "max_value": 1, "values": []}}, "tree_info": [{"tree_index": 0, "num_leaves": 19, "num_cat": 0, "shrinkage": 1, "tree_structure": {"split_index": 0, "split_feature": 24, "split_gain": 9163480, "threshold": 1.0000000180025095e-35, "decision_type": "<=", "default_left": true, "missing_type": "None", "internal_value": -1.5710899999999999, "internal_weight": 0, "internal_count": 26886144, "left_child": {"split_index": 11, "split_feature": 4, "split_gain": 4.656610097519831e-10, "threshold": 1.0000000180025095e-35, "decision_type": "<=", "default_left": true, "missing_type": "None", "internal_value": -1.69187, "internal_weight": 2379310, "internal_count": 16702064, "left_child": {"leaf_index": 0, "leaf_value": -1.6918732392094462, "leaf_weight": 384974.7316943854, "leaf_count": 2702413}, "right_child": {"leaf_index": 12, "leaf_value": -1.6918732392094462, "leaf_weight": 1994333.1709624082, "leaf_count": 13999651}}, "right_child": {"split_index": 1, "split_feature": 0, "split_gain": 12015000, "threshold": 1.0000000180025095e-35, "decision_type": "<=", "default_left": true, "missing_type": "None", "internal_value": -1.37301, "internal_weight": 1450780, "internal_count": 10184080, "left_child": {"split_index": 2, "split_feature": 53, "split_gain": 2081360, "threshold": 1.0000000180025095e-35, "decision_type": "<=", "default_left": true, "missing_type": "None", "internal_value": -1.6328200000000002, "internal_weight": 799286, "internal_count": 5610760, "left_child": {"split_index": 8, "split_feature": 39, "split_gain": 70077.8984375, "threshold": 1.0000000180025095e-35, "decision_type": "<=", "default_left": true, "missing_type": "None", "internal_value": -1.68462, "internal_weight": 724623, "internal_count": 5086648, "left_child": {"split_index": 14, "split_feature": 4, "split_gain": 1.1641500263781523e-10, "threshold": 1.0000000180025095e-35, "decision_type": "<=", "default_left": true, "missing_type": "None", "internal_value": -1.69187, "internal_weight": 687255, "internal_count": 4824333, "left_child": {"leaf_index": 1, "leaf_value": -1.6918732392094462, "leaf_weight": 171878.48150119185, "leaf_count": 1206538}, "right_child": {"leaf_index": 15, "leaf_value": -1.6918732392094462, "leaf_weight": 515376.3171840459, "leaf_count": 3617795}}, "right_child": {"split_index": 9, "split_feature": 5, "split_gain": 294970, "threshold": 1.0000000180025095e-35, "decision_type": "<=", "default_left": true, "missing_type": "None", "internal_value": -1.55126, "internal_weight": 37368.3, "internal_count": 262315, "left_child": {"leaf_index": 9, "leaf_value": -0.9899017024348147, "leaf_weight": 7485.48880264163, "leaf_count": 52546}, "right_child": {"split_index": 15, "split_feature": 4, "split_gain": 7.27596021626864e-12, "threshold": 1.0000000180025095e-35, "decision_type": "<=", "default_left": true, "missing_type": "None", "internal_value": -1.69187, "internal_weight": 29882.8, "internal_count": 209769, "left_child": {"leaf_index": 10, "leaf_value": -1.6918732392094462, "leaf_weight": 14951.603600084782, "leaf_count": 104956}, "right_child": {"leaf_index": 16, "leaf_value": -1.6918732392094462, "leaf_weight": 14931.232403442264, "leaf_count": 104813}}}}, "right_child": {"split_index": 5, "split_feature": 23, "split_gain": 588050, "threshold": 1.0000000180025095e-35, "decision_type": "<=", "default_left": true, "missing_type": "None", "internal_value": -1.1301, "internal_weight": 74662.9, "internal_count": 524112, "left_child": {"split_index": 13, "split_feature": 37, "split_gain": 2.3283100447635263e-10, "threshold": 1.0000000180025095e-35, "decision_type": "<=", "default_left": true, "missing_type": "None", "internal_value": -0.989902, "internal_weight": 59750.9, "internal_count": 419434, "left_child": {"leaf_index": 3, "leaf_value": -0.9899017024348147, "leaf_weight": 29864.886557534337, "leaf_count": 209643}, "right_child": {"leaf_index": 14, "leaf_value": -0.9899017024348147, "leaf_weight": 29885.97003377974, "leaf_count": 209791}}, "right_child": {"split_index": 17, "split_feature": 22, "split_gain": 7.27596021626864e-12, "threshold": 1.0000000180025095e-35, "decision_type": "<=", "default_left": true, "missing_type": "None", "internal_value": -1.69187, "internal_weight": 14912, "internal_count": 104678, "left_child": {"leaf_index": 6, "leaf_value": -1.6918732392094462, "leaf_weight": 7462.126031666994, "leaf_count": 52382}, "right_child": {"leaf_index": 18, "leaf_value": -1.6918732392094462, "leaf_weight": 7449.874822497368, "leaf_count": 52296}}}}, "right_child": {"split_index": 3, "split_feature": 23, "split_gain": 1271580, "threshold": 1.0000000180025095e-35, "decision_type": "<=", "default_left": true, "missing_type": "None", "internal_value": -1.05425, "internal_weight": 651497, "internal_count": 4573320, "left_child": {"split_index": 4, "split_feature": 2, "split_gain": 683723, "threshold": 1.0000000180025095e-35, "decision_type": "<=", "default_left": true, "missing_type": "None", "internal_value": -1.02364, "internal_weight": 621653, "internal_count": 4363824, "left_child": {"split_index": 6, "split_feature": 29, "split_gain": 111381, "threshold": 1.0000000180025095e-35, "decision_type": "<=", "default_left": true, "missing_type": "None", "internal_value": -1.00718, "internal_weight": 606709, "internal_count": 4258923, "left_child": {"split_index": 10, "split_feature": 35, "split_gain": 3.725290076417309e-09, "threshold": 1.0000000180025095e-35, "decision_type": "<=", "default_left": true, "missing_type": "None", "internal_value": -0.989902, "internal_weight": 521818, "internal_count": 3663011, "left_child": {"leaf_index": 2, "leaf_value": -0.9899017024348147, "leaf_weight": 519000.96562720835, "leaf_count": 3643239}, "right_child": {"leaf_index": 11, "leaf_value": -0.9899017024348147, "leaf_weight": 2816.638461649418, "leaf_count": 19772}}, "right_child": {"split_index": 7, "split_feature": 51, "split_gain": 606516, "threshold": 1.0000000180025095e-35, "decision_type": "<=", "default_left": true, "missing_type": "None", "internal_value": -1.11341, "internal_weight": 84891.2, "internal_count": 595912, "left_child": {"leaf_index": 7, "leaf_value": -1.6918732392094462, "leaf_weight": 14936.503272503614, "leaf_count": 104850}, "right_child": {"split_index": 12, "split_feature": 11, "split_gain": 4.656610097519831e-10, "threshold": 1.0000000180025095e-35, "decision_type": "<=", "default_left": true, "missing_type": "None", "internal_value": -0.989902, "internal_weight": 69954.7, "internal_count": 491062, "left_child": {"leaf_index": 8, "leaf_value": -0.9899017024348147, "leaf_weight": 34523.62252816558, "leaf_count": 242346}, "right_child": {"leaf_index": 13, "leaf_value": -0.9899017024348147, "leaf_weight": 35431.06674224138, "leaf_count": 248716}}}}, "right_child": {"leaf_index": 5, "leaf_value": -1.6918732392094462, "leaf_weight": 14943.768524453044, "leaf_count": 104901}}, "right_child": {"split_index": 16, "split_feature": 12, "split_gain": 7.27596021626864e-12, "threshold": 1.0000000180025095e-35, "decision_type": "<=", "default_left": true, "missing_type": "None", "internal_value": -1.69187, "internal_weight": 29843.9, "internal_count": 209496, "left_child": {"leaf_index": 4, "leaf_value": -1.6918732392094462, "leaf_weight": 14934.936257377267, "leaf_count": 104839}, "right_child": {"leaf_index": 17, "leaf_value": -1.6918732392094462, "leaf_weight": 14909.009279832244, "leaf_count": 104657}}}}}}, {"tree_index": 1, "num_leaves": 17, "num_cat": 0, "shrinkage": 0.1, "tree_structure": {"split_index": 0, "split_feature": 24, "split_gain": 6901450, "threshold": 1.0000000180025095e-35, "decision_type": "<=", "default_left": true, "missing_type": "None", "internal_value": 0, "internal_weight": 0, "internal_count": 26886144, "left_child": {"split_index": 10, "split_feature": 9, "split_gain": 4.656610097519831e-10, "threshold": 1.0000000180025095e-35, "decision_type": "<=", "default_left": true, "missing_type": "None", "internal_value": -0.118417, "internal_weight": 2193650, "internal_count": 16702064, "left_child": {"leaf_index": 0, "leaf_value": -0.11841742028955911, "leaf_weight": 1487736.1411079764, "leaf_count": 11327350}, "right_child": {"leaf_index": 11, "leaf_value": -0.11841742028955911, "leaf_weight": 705915.8819952607, "leaf_count": 5374714}}, "right_child": {"split_index": 1, "split_feature": 0, "split_gain": 6471500, "threshold": 1.0000000180025095e-35, "decision_type": "<=", "default_left": true, "missing_type": "None", "internal_value": 0.152593, "internal_weight": 1643770, "internal_count": 10184080, "left_child": {"split_index": 2, "split_feature": 53, "split_gain": 1423730, "threshold": 1.0000000180025095e-35, "decision_type": "<=", "default_left": true, "missing_type": "None", "internal_value": -0.0592492, "internal_weight": 768157, "internal_count": 5610760, "left_child": {"split_index": 6, "split_feature": 39, "split_gain": 63690.30078125, "threshold": 1.0000000180025095e-35, "decision_type": "<=", "default_left": true, "missing_type": "None", "internal_value": -0.110883, "internal_weight": 671559, "internal_count": 5086648, "left_child": {"split_index": 13, "split_feature": 7, "split_gain": 1.1641500263781523e-10, "threshold": 1.0000000180025095e-35, "decision_type": "<=", "default_left": true, "missing_type": "None", "internal_value": -0.118417, "internal_weight": 633629, "internal_count": 4824333, "left_child": {"leaf_index": 1, "leaf_value": -0.11841742028955911, "leaf_weight": 420051.4937572181, "leaf_count": 3198195}, "right_child": {"leaf_index": 14, "leaf_value": -0.11841742028955911, "leaf_weight": 213577.25090414286, "leaf_count": 1626138}}, "right_child": {"split_index": 7, "split_feature": 5, "split_gain": 179182, "threshold": 1.0000000180025095e-35, "decision_type": "<=", "default_left": true, "missing_type": "None", "internal_value": 0.0149862, "internal_weight": 37930.4, "internal_count": 262315, "left_child": {"leaf_index": 7, "leaf_value": 0.36909700423676967, "leaf_weight": 10379.286174237728, "leaf_count": 52546}, "right_child": {"leaf_index": 8, "leaf_value": -0.11841742028955911, "leaf_weight": 27551.09735146165, "leaf_count": 209769}}}, "right_child": {"split_index": 5, "split_feature": 23, "split_gain": 280253, "threshold": 1.0000000180025095e-35, "decision_type": "<=", "default_left": true, "missing_type": "None", "internal_value": 0.299711, "internal_weight": 96598.2, "internal_count": 524112, "left_child": {"split_index": 11, "split_feature": 11, "split_gain": 2.3283100447635263e-10, "threshold": 1.0000000180025095e-35, "decision_type": "<=", "default_left": true, "missing_type": "None", "internal_value": 0.369097, "internal_weight": 82849.8, "internal_count": 419434, "left_child": {"leaf_index": 3, "leaf_value": 0.36909700423676967, "leaf_weight": 41443.66442334652, "leaf_count": 209812}, "right_child": {"leaf_index": 12, "leaf_value": 0.36909700423676967, "leaf_weight": 41406.13417607546, "leaf_count": 209622}}, "right_child": {"leaf_index": 6, "leaf_value": -0.11841742028955911, "leaf_weight": 13748.426929414272, "leaf_count": 104678}}}, "right_child": {"split_index": 3, "split_feature": 23, "split_gain": 592924, "threshold": 1.0000000180025095e-35, "decision_type": "<=", "default_left": true, "missing_type": "None", "internal_value": 0.338439, "internal_weight": 875608, "internal_count": 4573320, "left_child": {"split_index": 4, "split_feature": 2, "split_gain": 311589, "threshold": 1.0000000180025095e-35, "decision_type": "<=", "default_left": true, "missing_type": "None", "internal_value": 0.353261, "internal_weight": 848093, "internal_count": 4363824, "left_child": {"split_index": 8, "split_feature": 29, "split_gain": 35287.69921875, "threshold": 1.0000000180025095e-35, "decision_type": "<=", "default_left": true, "missing_type": "None", "internal_value": 0.36105, "internal_weight": 834315, "internal_count": 4258923, "left_child": {"leaf_index": 2, "leaf_value": 0.36909700423676967, "leaf_weight": 723545.8346664011, "leaf_count": 3663011}, "right_child": {"split_index": 9, "split_feature": 51, "split_gain": 286606, "threshold": 1.0000000180025095e-35, "decision_type": "<=", "default_left": true, "missing_type": "None", "internal_value": 0.308488, "internal_weight": 110769, "internal_count": 595912, "left_child": {"leaf_index": 9, "leaf_value": -0.11841742028955911, "leaf_weight": 13771.01743966341, "leaf_count": 104850}, "right_child": {"split_index": 12, "split_feature": 19, "split_gain": 2.3283100447635263e-10, "threshold": 1.0000000180025095e-35, "decision_type": "<=", "default_left": true, "missing_type": "None", "internal_value": 0.369097, "internal_weight": 96998.3, "internal_count": 491062, "left_child": {"leaf_index": 10, "leaf_value": 0.36909700423676967, "leaf_weight": 53004.95585900545, "leaf_count": 268342}, "right_child": {"leaf_index": 13, "leaf_value": 0.36909700423676967, "leaf_weight": 43993.35090637207, "leaf_count": 222720}}}}, "right_child": {"split_index": 15, "split_feature": 9, "split_gain": 3.63798010813432e-12, "threshold": 1.0000000180025095e-35, "decision_type": "<=", "default_left": true, "missing_type": "None", "internal_value": -0.118417, "internal_weight": 13777.7, "internal_count": 104901, "left_child": {"leaf_index": 5, "leaf_value": -0.11841742028955911, "leaf_weight": 6875.264186114073, "leaf_count": 52347}, "right_child": {"leaf_index": 16, "leaf_value": -0.11841742028955911, "leaf_weight": 6902.4516025185585, "leaf_count": 52554}}}, "right_child": {"split_index": 14, "split_feature": 16, "split_gain": 7.27596021626864e-12, "threshold": 1.0000000180025095e-35, "decision_type": "<=", "default_left": true, "missing_type": "None", "internal_value": -0.118417, "internal_weight": 27515.2, "internal_count": 209496, "left_child": {"leaf_index": 4, "leaf_value": -0.11841742028955911, "leaf_weight": 13762.611668407917, "leaf_count": 104786}, "right_child": {"leaf_index": 15, "leaf_value": -0.11841742028955911, "leaf_weight": 13752.629815042019, "leaf_count": 104710}}}}}}, {"tree_index": 2, "num_leaves": 18, "num_cat": 0, "shrinkage": 0.1, "tree_structure": {"split_index": 0, "split_feature": 24, "split_gain": 5607120, "threshold": 1.0000000180025095e-35, "decision_type": "<=", "default_left": true, "missing_type": "None", "internal_value": 0, "internal_weight": 0, "internal_count": 26886144, "left_child": {"leaf_index": 0, "leaf_value": -0.11636065965562543, "leaf_weight": 2018173.848319292, "leaf_count": 16702064}, "right_child": {"split_index": 1, "split_feature": 0, "split_gain": 4377020, "threshold": 1.0000000180025095e-35, "decision_type": "<=", "default_left": true, "missing_type": "None", "internal_value": 0.129235, "internal_weight": 1723469.9999999998, "internal_count": 10184080, "left_child": {"split_index": 2, "split_feature": 53, "split_gain": 1111130, "threshold": 1.0000000180025095e-35, "decision_type": "<=", "default_left": true, "missing_type": "None", "internal_value": -0.0570611, "internal_weight": 728257, "internal_count": 5610760, "left_child": {"split_index": 6, "split_feature": 39, "split_gain": 58253.30078125, "threshold": 1.0000000180025095e-35, "decision_type": "<=", "default_left": true, "missing_type": "None", "internal_value": -0.108609, "internal_weight": 620238, "internal_count": 5086648, "left_child": {"split_index": 10, "split_feature": 4, "split_gain": 1.1641500263781523e-10, "threshold": 1.0000000180025095e-35, "decision_type": "<=", "default_left": true, "missing_type": "None", "internal_value": -0.116361, "internal_weight": 582942, "internal_count": 4824333, "left_child": {"leaf_index": 1, "leaf_value": -0.11636065965562543, "leaf_weight": 145790.57047101855, "leaf_count": 1206538}, "right_child": {"leaf_index": 11, "leaf_value": -0.11636065965562543, "leaf_weight": 437151.9147322327, "leaf_count": 3617795}}, "right_child": {"split_index": 7, "split_feature": 5, "split_gain": 131490, "threshold": 1.0000000180025095e-35, "decision_type": "<=", "default_left": true, "missing_type": "None", "internal_value": 0.0125535, "internal_weight": 37295.1, "internal_count": 262315, "left_child": {"leaf_index": 7, "leaf_value": 0.2860424405727912, "leaf_weight": 11947.876988530159, "leaf_count": 52546}, "right_child": {"leaf_index": 8, "leaf_value": -0.11636065965562543, "leaf_weight": 25347.185233399272, "leaf_count": 209769}}}, "right_child": {"split_index": 5, "split_feature": 23, "split_gain": 180834, "threshold": 1.0000000180025095e-35, "decision_type": "<=", "default_left": true, "missing_type": "None", "internal_value": 0.238923, "internal_weight": 108019, "internal_count": 524112, "left_child": {"leaf_index": 3, "leaf_value": 0.2860424405727912, "leaf_weight": 95370.64356577396, "leaf_count": 419434}, "right_child": {"split_index": 13, "split_feature": 4, "split_gain": 3.63798010813432e-12, "threshold": 1.0000000180025095e-35, "decision_type": "<=", "default_left": true, "missing_type": "None", "internal_value": -0.116361, "internal_weight": 12648.6, "internal_count": 104678, "left_child": {"leaf_index": 6, "leaf_value": -0.11636065965562543, "leaf_weight": 6322.26604399085, "leaf_count": 52322}, "right_child": {"leaf_index": 14, "leaf_value": -0.11636065965562543, "leaf_weight": 6326.3743931651115, "leaf_count": 52356}}}}, "right_child": {"split_index": 3, "split_feature": 23, "split_gain": 378876, "threshold": 1.0000000180025095e-35, "decision_type": "<=", "default_left": true, "missing_type": "None", "internal_value": 0.265559, "internal_weight": 995210, "internal_count": 4573320, "left_child": {"split_index": 4, "split_feature": 2, "split_gain": 197244, "threshold": 1.0000000180025095e-35, "decision_type": "<=", "default_left": true, "missing_type": "None", "internal_value": 0.275527, "internal_weight": 969896, "internal_count": 4363824, "left_child": {"split_index": 8, "split_feature": 29, "split_gain": 18190.69921875, "threshold": 1.0000000180025095e-35, "decision_type": "<=", "default_left": true, "missing_type": "None", "internal_value": 0.280716, "internal_weight": 957220, "internal_count": 4258923, "left_child": {"leaf_index": 2, "leaf_value": 0.2860424405727912, "leaf_weight": 832893.1761814952, "leaf_count": 3663011}, "right_child": {"split_index": 9, "split_feature": 51, "split_gain": 184248, "threshold": 1.0000000180025095e-35, "decision_type": "<=", "default_left": true, "missing_type": "None", "internal_value": 0.245036, "internal_weight": 124327, "internal_count": 595912, "left_child": {"split_index": 15, "split_feature": 9, "split_gain": 3.63798010813432e-12, "threshold": 1.0000000180025095e-35, "decision_type": "<=", "default_left": true, "missing_type": "None", "internal_value": -0.116361, "internal_weight": 12669.4, "internal_count": 104850, "left_child": {"split_index": 16, "split_feature": 15, "split_gain": 1.81899005406716e-12, "threshold": 1.0000000180025095e-35, "decision_type": "<=", "default_left": true, "missing_type": "None", "internal_value": -0.116361, "internal_weight": 6346.55, "internal_count": 52523, "left_child": {"leaf_index": 9, "leaf_value": -0.11636065965562543, "leaf_weight": 3184.574779048562, "leaf_count": 26355}, "right_child": {"leaf_index": 17, "leaf_value": -0.11636065965562543, "leaf_weight": 3161.978858590126, "leaf_count": 26168}}, "right_child": {"leaf_index": 16, "leaf_value": -0.11636065965562543, "leaf_weight": 6322.870212987065, "leaf_count": 52327}}, "right_child": {"split_index": 11, "split_feature": 9, "split_gain": 1.1641500263781523e-10, "threshold": 1.0000000180025095e-35, "decision_type": "<=", "default_left": true, "missing_type": "None", "internal_value": 0.286042, "internal_weight": 111657, "internal_count": 491062, "left_child": {"leaf_index": 10, "leaf_value": 0.2860424405727912, "leaf_weight": 29085.00622522831, "leaf_count": 127914}, "right_child": {"leaf_index": 12, "leaf_value": 0.2860424405727912, "leaf_weight": 82572.36768984795, "leaf_count": 363148}}}}, "right_child": {"split_index": 14, "split_feature": 9, "split_gain": 3.63798010813432e-12, "threshold": 1.0000000180025095e-35, "decision_type": "<=", "default_left": true, "missing_type": "None", "internal_value": -0.116361, "internal_weight": 12675.6, "internal_count": 104901, "left_child": {"leaf_index": 5, "leaf_value": -0.11636065965562543, "leaf_weight": 6325.286888971925, "leaf_count": 52347}, "right_child": {"leaf_index": 15, "leaf_value": -0.11636065965562543, "leaf_weight": 6350.29948541522, "leaf_count": 52554}}}, "right_child": {"split_index": 12, "split_feature": 2, "split_gain": 7.27596021626864e-12, "threshold": 1.0000000180025095e-35, "decision_type": "<=", "default_left": true, "missing_type": "None", "internal_value": -0.116361, "internal_weight": 25314.2, "internal_count": 209496, "left_child": {"leaf_index": 4, "leaf_value": -0.11636065965562543, "leaf_weight": 12677.39888137579, "leaf_count": 104916}, "right_child": {"leaf_index": 13, "leaf_value": -0.11636065965562543, "leaf_weight": 12636.79872483015, "leaf_count": 104580}}}}}}, {"tree_index": 3, "num_leaves": 19, "num_cat": 0, "shrinkage": 0.1, "tree_structure": {"split_index": 0, "split_feature": 24, "split_gain": 4701660, "threshold": 1.0000000180025095e-35, "decision_type": "<=", "default_left": true, "missing_type": "None", "internal_value": 0, "internal_weight": 0, "internal_count": 26886144, "left_child": {"leaf_index": 0, "leaf_value": -0.11456350471455251, "leaf_weight": 1853290.5014328957, "leaf_count": 16702064}, "right_child": {"split_index": 1, "split_feature": 0, "split_gain": 3243050, "threshold": 1.0000000180025095e-35, "decision_type": "<=", "default_left": true, "missing_type": "None", "internal_value": 0.114277, "internal_weight": 1741439.9999999998, "internal_count": 10184080, "left_child": {"split_index": 2, "split_feature": 53, "split_gain": 911575, "threshold": 1.0000000180025095e-35, "decision_type": "<=", "default_left": true, "missing_type": "None", "internal_value": -0.0552041, "internal_weight": 684958, "internal_count": 5610760, "left_child": {"split_index": 6, "split_feature": 39, "split_gain": 53248.80078125, "threshold": 1.0000000180025095e-35, "decision_type": "<=", "default_left": true, "missing_type": "None", "internal_value": -0.106641, "internal_weight": 571368, "internal_count": 5086648, "left_child": {"split_index": 11, "split_feature": 1, "split_gain": 1.1641500263781523e-10, "threshold": 1.0000000180025095e-35, "decision_type": "<=", "default_left": true, "missing_type": "None", "internal_value": -0.114564, "internal_weight": 535317, "internal_count": 4824333, "left_child": {"split_index": 14, "split_feature": 3, "split_gain": 1.4551899615855568e-11, "threshold": 1.0000000180025095e-35, "decision_type": "<=", "default_left": true, "missing_type": "None", "internal_value": -0.114564, "internal_weight": 48012.8, "internal_count": 432697, "left_child": {"leaf_index": 1, "leaf_value": -0.11456350471455251, "leaf_weight": 23286.103128284216, "leaf_count": 209857}, "right_child": {"leaf_index": 15, "leaf_value": -0.11456350471455251, "leaf_weight": 24726.719723939896, "leaf_count": 222840}}, "right_child": {"leaf_index": 12, "leaf_value": -0.11456350471455251, "leaf_weight": 487303.68202102184, "leaf_count": 4391636}}, "right_child": {"split_index": 7, "split_feature": 5, "split_gain": 103553, "threshold": 1.0000000180025095e-35, "decision_type": "<=", "default_left": true, "missing_type": "None", "internal_value": 0.0109948, "internal_weight": 36051.6, "internal_count": 262315, "left_child": {"split_index": 15, "split_feature": 14, "split_gain": 1.4551899615855568e-11, "threshold": 1.0000000180025095e-35, "decision_type": "<=", "default_left": true, "missing_type": "None", "internal_value": 0.239761, "internal_weight": 12775.2, "internal_count": 52546, "left_child": {"leaf_index": 7, "leaf_value": 0.23976079657657415, "leaf_weight": 6374.728685617447, "leaf_count": 26220}, "right_child": {"leaf_index": 16, "leaf_value": 0.23976079657657415, "leaf_weight": 6400.499899983406, "leaf_count": 26326}}, "right_child": {"split_index": 16, "split_feature": 4, "split_gain": 3.63798010813432e-12, "threshold": 1.0000000180025095e-35, "decision_type": "<=", "default_left": true, "missing_type": "None", "internal_value": -0.114564, "internal_weight": 23276.3, "internal_count": 209769, "left_child": {"leaf_index": 8, "leaf_value": -0.11456350471455251, "leaf_weight": 11646.103012681007, "leaf_count": 104956}, "right_child": {"leaf_index": 17, "leaf_value": -0.11456350471455251, "leaf_weight": 11630.23548027873, "leaf_count": 104813}}}}, "right_child": {"split_index": 5, "split_feature": 23, "split_gain": 130913, "threshold": 1.0000000180025095e-35, "decision_type": "<=", "default_left": true, "missing_type": "None", "internal_value": 0.203529, "internal_weight": 113590, "internal_count": 524112, "left_child": {"split_index": 12, "split_feature": 4, "split_gain": 1.1641500263781523e-10, "threshold": 1.0000000180025095e-35, "decision_type": "<=", "default_left": true, "missing_type": "None", "internal_value": 0.239761, "internal_weight": 101975, "internal_count": 419434, "left_child": {"leaf_index": 3, "leaf_value": 0.23976079657657415, "leaf_weight": 51024.086948633194, "leaf_count": 209868}, "right_child": {"leaf_index": 13, "leaf_value": 0.23976079657657415, "leaf_weight": 50950.66330015659, "leaf_count": 209566}}, "right_child": {"split_index": 17, "split_feature": 38, "split_gain": 1.81899005406716e-12, "threshold": 1.0000000180025095e-35, "decision_type": "<=", "default_left": true, "missing_type": "None", "internal_value": -0.114564, "internal_weight": 11615.3, "internal_count": 104678, "left_child": {"leaf_index": 6, "leaf_value": -0.11456350471455251, "leaf_weight": 5795.422026842833, "leaf_count": 52229}, "right_child": {"leaf_index": 18, "leaf_value": -0.11456350471455251, "leaf_weight": 5819.833615154028, "leaf_count": 52449}}}}, "right_child": {"split_index": 3, "split_feature": 23, "split_gain": 272709, "threshold": 1.0000000180025095e-35, "decision_type": "<=", "default_left": true, "missing_type": "None", "internal_value": 0.224159, "internal_weight": 1056480, "internal_count": 4573320, "left_child": {"split_index": 4, "split_feature": 2, "split_gain": 141217, "threshold": 1.0000000180025095e-35, "decision_type": "<=", "default_left": true, "missing_type": "None", "internal_value": 0.231779, "internal_weight": 1033230.0000000001, "internal_count": 4363824, "left_child": {"split_index": 8, "split_feature": 29, "split_gain": 11306.400390625, "threshold": 1.0000000180025095e-35, "decision_type": "<=", "default_left": true, "missing_type": "None", "internal_value": 0.235726, "internal_weight": 1021590, "internal_count": 4258923, "left_child": {"split_index": 10, "split_feature": 35, "split_gain": 9.313230187046884e-10, "threshold": 1.0000000180025095e-35, "decision_type": "<=", "default_left": true, "missing_type": "None", "internal_value": 0.239761, "internal_weight": 890568, "internal_count": 3663011, "left_child": {"leaf_index": 2, "leaf_value": 0.23976079657657415, "leaf_weight": 885761.2571266294, "leaf_count": 3643239}, "right_child": {"leaf_index": 11, "leaf_value": 0.23976079657657415, "leaf_weight": 4807.060853242874, "leaf_count": 19772}}, "right_child": {"split_index": 9, "split_feature": 51, "split_gain": 133094, "threshold": 1.0000000180025095e-35, "decision_type": "<=", "default_left": true, "missing_type": "None", "internal_value": 0.208298, "internal_weight": 131024, "internal_count": 595912, "left_child": {"leaf_index": 9, "leaf_value": -0.11456350471455251, "leaf_weight": 11634.341065585613, "leaf_count": 104850}, "right_child": {"split_index": 13, "split_feature": 4, "split_gain": 1.1641500263781523e-10, "threshold": 1.0000000180025095e-35, "decision_type": "<=", "default_left": true, "missing_type": "None", "internal_value": 0.239761, "internal_weight": 119389, "internal_count": 491062, "left_child": {"leaf_index": 10, "leaf_value": 0.23976079657657415, "leaf_weight": 83603.27815115452, "leaf_count": 343870}, "right_child": {"leaf_index": 14, "leaf_value": 0.23976079657657415, "leaf_weight": 35786.00551843643, "leaf_count": 147192}}}}, "right_child": {"leaf_index": 5, "leaf_value": -0.11456350471455251, "leaf_weight": 11640.000115603209, "leaf_count": 104901}}, "right_child": {"leaf_index": 4, "leaf_value": -0.11456350471455251, "leaf_weight": 23246.045931100845, "leaf_count": 209496}}}}}, {"tree_index": 4, "num_leaves": 20, "num_cat": 0, "shrinkage": 0.1, "tree_structure": {"split_index": 0, "split_feature": 24, "split_gain": 4014730, "threshold": 1.0000000180025095e-35, "decision_type": "<=", "default_left": true, "missing_type": "None", "internal_value": 0, "internal_weight": 0, "internal_count": 26886144, "left_child": {"leaf_index": 0, "leaf_value": -0.11298708441777348, "leaf_weight": 1699120.5738345385, "leaf_count": 16702064}, "right_child": {"split_index": 1, "split_feature": 0, "split_gain": 2528450, "threshold": 1.0000000180025095e-35, "decision_type": "<=", "default_left": true, "missing_type": "None", "internal_value": 0.103759, "internal_weight": 1719330, "internal_count": 10184080, "left_child": {"split_index": 2, "split_feature": 53, "split_gain": 768104, "threshold": 1.0000000180025095e-35, "decision_type": "<=", "default_left": true, "missing_type": "None", "internal_value": -0.0536259, "internal_weight": 640503, "internal_count": 5610760, "left_child": {"split_index": 6, "split_feature": 39, "split_gain": 48603.6015625, "threshold": 1.0000000180025095e-35, "decision_type": "<=", "default_left": true, "missing_type": "None", "internal_value": -0.104928, "internal_weight": 525232, "internal_count": 5086648, "left_child": {"leaf_index": 1, "leaf_value": -0.11298708441777348, "leaf_weight": 490785.0583813414, "leaf_count": 4824333}, "right_child": {"split_index": 7, "split_feature": 5, "split_gain": 84688.3984375, "threshold": 1.0000000180025095e-35, "decision_type": "<=", "default_left": true, "missing_type": "None", "internal_value": 0.00989508, "internal_weight": 34447, "internal_count": 262315, "left_child": {"split_index": 14, "split_feature": 4, "split_gain": 7.27596021626864e-12, "threshold": 1.0000000180025095e-35, "decision_type": "<=", "default_left": true, "missing_type": "None", "internal_value": 0.209966, "internal_weight": 13106.9, "internal_count": 52546, "left_child": {"split_index": 16, "split_feature": 48, "split_gain": 3.63798010813432e-12, "threshold": 1.0000000180025095e-35, "decision_type": "<=", "default_left": true, "missing_type": "None", "internal_value": 0.209966, "internal_weight": 6549.71, "internal_count": 26258, "left_child": {"leaf_index": 7, "leaf_value": 0.20996605736232887, "leaf_weight": 3289.0731952786446, "leaf_count": 13186}, "right_child": {"leaf_index": 17, "leaf_value": 0.20996605736232887, "leaf_weight": 3260.6374039649963, "leaf_count": 13072}}, "right_child": {"leaf_index": 15, "leaf_value": 0.20996605736232887, "leaf_weight": 6557.193702220917, "leaf_count": 26288}}, "right_child": {"leaf_index": 8, "leaf_value": -0.11298708441777348, "leaf_weight": 21340.046574644744, "leaf_count": 209769}}}, "right_child": {"split_index": 5, "split_feature": 23, "split_gain": 100807, "threshold": 1.0000000180025095e-35, "decision_type": "<=", "default_left": true, "missing_type": "None", "internal_value": 0.180131, "internal_weight": 115271, "internal_count": 524112, "left_child": {"split_index": 12, "split_feature": 11, "split_gain": 5.820770254683083e-11, "threshold": 1.0000000180025095e-35, "decision_type": "<=", "default_left": true, "missing_type": "None", "internal_value": 0.209966, "internal_weight": 104622, "internal_count": 419434, "left_child": {"split_index": 13, "split_feature": 29, "split_gain": 2.9103799231711136e-11, "threshold": 1.0000000180025095e-35, "decision_type": "<=", "default_left": true, "missing_type": "None", "internal_value": 0.209966, "internal_weight": 52334.8, "internal_count": 209812, "left_child": {"leaf_index": 3, "leaf_value": 0.20996605736232887, "leaf_weight": 26175.3953409791, "leaf_count": 104938}, "right_child": {"leaf_index": 14, "leaf_value": 0.20996605736232887, "leaf_weight": 26159.43138796091, "leaf_count": 104874}}, "right_child": {"leaf_index": 13, "leaf_value": 0.20996605736232887, "leaf_weight": 52287.43374341726, "leaf_count": 209622}}, "right_child": {"split_index": 17, "split_feature": 4, "split_gain": 1.81899005406716e-12, "threshold": 1.0000000180025095e-35, "decision_type": "<=", "default_left": true, "missing_type": "None", "internal_value": -0.112987, "internal_weight": 10649, "internal_count": 104678, "left_child": {"leaf_index": 6, "leaf_value": -0.11298708441777348, "leaf_weight": 5322.7784700244665, "leaf_count": 52322}, "right_child": {"leaf_index": 18, "leaf_value": -0.11298708441777348, "leaf_weight": 5326.237329930067, "leaf_count": 52356}}}}, "right_child": {"split_index": 3, "split_feature": 23, "split_gain": 209189, "threshold": 1.0000000180025095e-35, "decision_type": "<=", "default_left": true, "missing_type": "None", "internal_value": 0.197198, "internal_weight": 1078830, "internal_count": 4573320, "left_child": {"split_index": 4, "split_feature": 2, "split_gain": 107947, "threshold": 1.0000000180025095e-35, "decision_type": "<=", "default_left": true, "missing_type": "None", "internal_value": 0.20345, "internal_weight": 1057520, "internal_count": 4363824, "left_child": {"split_index": 8, "split_feature": 29, "split_gain": 7778.240234375, "threshold": 1.0000000180025095e-35, "decision_type": "<=", "default_left": true, "missing_type": "None", "internal_value": 0.206675, "internal_weight": 1046850.0000000001, "internal_count": 4258923, "left_child": {"split_index": 10, "split_feature": 1, "split_gain": 4.656610097519831e-10, "threshold": 1.0000000180025095e-35, "decision_type": "<=", "default_left": true, "missing_type": "None", "internal_value": 0.209966, "internal_weight": 913690, "internal_count": 3663011, "left_child": {"leaf_index": 2, "leaf_value": 0.20996605736232887, "leaf_weight": 84957.41415837407, "leaf_count": 340597}, "right_child": {"leaf_index": 11, "leaf_value": 0.20996605736232887, "leaf_weight": 828732.203171432, "leaf_count": 3322414}}, "right_child": {"split_index": 9, "split_feature": 51, "split_gain": 102339, "threshold": 1.0000000180025095e-35, "decision_type": "<=", "default_left": true, "missing_type": "None", "internal_value": 0.184096, "internal_weight": 133155, "internal_count": 595912, "left_child": {"split_index": 18, "split_feature": 18, "split_gain": 1.81899005406716e-12, "threshold": 1.0000000180025095e-35, "decision_type": "<=", "default_left": true, "missing_type": "None", "internal_value": -0.112987, "internal_weight": 10666.5, "internal_count": 104850, "left_child": {"leaf_index": 9, "leaf_value": -0.11298708441777348, "leaf_weight": 5337.2242966890335, "leaf_count": 52464}, "right_child": {"leaf_index": 19, "leaf_value": -0.11298708441777348, "leaf_weight": 5329.289265140891, "leaf_count": 52386}}, "right_child": {"split_index": 11, "split_feature": 26, "split_gain": 1.1641500263781523e-10, "threshold": 1.0000000180025095e-35, "decision_type": "<=", "default_left": true, "missing_type": "None", "internal_value": 0.209966, "internal_weight": 122489, "internal_count": 491062, "left_child": {"leaf_index": 10, "leaf_value": 0.20996605736232887, "leaf_weight": 115968.39064326882, "leaf_count": 464921}, "right_child": {"leaf_index": 12, "leaf_value": 0.20996605736232887, "leaf_weight": 6520.526497632265, "leaf_count": 26141}}}}, "right_child": {"leaf_index": 5, "leaf_value": -0.11298708441777348, "leaf_weight": 10671.701851688325, "leaf_count": 104901}}, "right_child": {"split_index": 15, "split_feature": 2, "split_gain": 3.63798010813432e-12, "threshold": 1.0000000180025095e-35, "decision_type": "<=", "default_left": true, "missing_type": "None", "internal_value": -0.112987, "internal_weight": 21312.3, "internal_count": 209496, "left_child": {"leaf_index": 4, "leaf_value": -0.11298708441777348, "leaf_weight": 10673.227819293737, "leaf_count": 104916}, "right_child": {"leaf_index": 16, "leaf_value": -0.11298708441777348, "leaf_weight": 10639.046144932508, "leaf_count": 104580}}}}}}, {"tree_index": 5, "num_leaves": 17, "num_cat": 0, "shrinkage": 0.1, "tree_structure": {"split_index": 0, "split_feature": 24, "split_gain": 3469280, "threshold": 1.0000000180025095e-35, "decision_type": "<=", "default_left": true, "missing_type": "None", "internal_value": 0, "internal_weight": 0, "internal_count": 26886144, "left_child": {"split_index": 10, "split_feature": 0, "split_gain": 4.656610097519831e-10, "threshold": 1.0000000180025095e-35, "decision_type": "<=", "default_left": true, "missing_type": "None", "internal_value": -0.1116, "internal_weight": 1555560, "internal_count": 16702064, "left_child": {"split_index": 13, "split_feature": 5, "split_gain": 1.1641500263781523e-10, "threshold": 1.0000000180025095e-35, "decision_type": "<=", "default_left": true, "missing_type": "None", "internal_value": -0.1116, "internal_weight": 654703, "internal_count": 7029551, "left_child": {"leaf_index": 0, "leaf_value": -0.111599566864771, "leaf_weight": 386091.64883217216, "leaf_count": 4145467}, "right_child": {"leaf_index": 14, "leaf_value": -0.111599566864771, "leaf_weight": 268611.6538692713, "leaf_count": 2884084}}, "right_child": {"leaf_index": 11, "leaf_value": -0.111599566864771, "leaf_weight": 900857.8508816063, "leaf_count": 9672513}}, "right_child": {"split_index": 1, "split_feature": 0, "split_gain": 2036740, "threshold": 1.0000000180025095e-35, "decision_type": "<=", "default_left": true, "missing_type": "None", "internal_value": 0.0959389, "internal_weight": 1670350, "internal_count": 10184080, "left_child": {"split_index": 2, "split_feature": 53, "split_gain": 658005, "threshold": 1.0000000180025095e-35, "decision_type": "<=", "default_left": true, "missing_type": "None", "internal_value": -0.052277, "internal_weight": 596211, "internal_count": 5610760, "left_child": {"split_index": 6, "split_feature": 39, "split_gain": 44300.1015625, "threshold": 1.0000000180025095e-35, "decision_type": "<=", "default_left": true, "missing_type": "None", "internal_value": -0.103429, "internal_weight": 481949, "internal_count": 5086648, "left_child": {"leaf_index": 1, "leaf_value": -0.111599566864771, "leaf_weight": 449318.4199718535, "leaf_count": 4824333}, "right_child": {"split_index": 7, "split_feature": 5, "split_gain": 70903, "threshold": 1.0000000180025095e-35, "decision_type": "<=", "default_left": true, "missing_type": "None", "internal_value": 0.00907504, "internal_weight": 32630.2, "internal_count": 262315, "left_child": {"leaf_index": 7, "leaf_value": 0.18913977608528026, "leaf_weight": 13093.189336240292, "leaf_count": 52546}, "right_child": {"leaf_index": 8, "leaf_value": -0.111599566864771, "leaf_weight": 19537.01695945859, "leaf_count": 209769}}}, "right_child": {"split_index": 5, "split_feature": 23, "split_gain": 80652.8984375, "threshold": 1.0000000180025095e-35, "decision_type": "<=", "default_left": true, "missing_type": "None", "internal_value": 0.16348, "internal_weight": 114262, "internal_count": 524112, "left_child": {"split_index": 14, "split_feature": 21, "split_gain": 5.820770254683083e-11, "threshold": 1.0000000180025095e-35, "decision_type": "<=", "default_left": true, "missing_type": "None", "internal_value": 0.18914, "internal_weight": 104513, "internal_count": 419434, "left_child": {"leaf_index": 3, "leaf_value": 0.18913977608528026, "leaf_weight": 52274.332920879126, "leaf_count": 209789}, "right_child": {"leaf_index": 15, "leaf_value": 0.18913977608528026, "leaf_weight": 52238.451611846685, "leaf_count": 209645}}, "right_child": {"leaf_index": 6, "leaf_value": -0.111599566864771, "leaf_weight": 9749.275923907757, "leaf_count": 104678}}}, "right_child": {"split_index": 3, "split_feature": 23, "split_gain": 166906, "threshold": 1.0000000180025095e-35, "decision_type": "<=", "default_left": true, "missing_type": "None", "internal_value": 0.178207, "internal_weight": 1074140, "internal_count": 4573320, "left_child": {"split_index": 4, "split_feature": 2, "split_gain": 85917, "threshold": 1.0000000180025095e-35, "decision_type": "<=", "default_left": true, "missing_type": "None", "internal_value": 0.183569, "internal_weight": 1054630, "internal_count": 4363824, "left_child": {"split_index": 8, "split_feature": 29, "split_gain": 5702.27978515625, "threshold": 1.0000000180025095e-35, "decision_type": "<=", "default_left": true, "missing_type": "None", "internal_value": 0.186329, "internal_weight": 1044859.9999999999, "internal_count": 4258923, "left_child": {"split_index": 11, "split_feature": 4, "split_gain": 4.656610097519831e-10, "threshold": 1.0000000180025095e-35, "decision_type": "<=", "default_left": true, "missing_type": "None", "internal_value": 0.18914, "internal_weight": 912734, "internal_count": 3663011, "left_child": {"split_index": 12, "split_feature": 32, "split_gain": 2.3283100447635263e-10, "threshold": 1.0000000180025095e-35, "decision_type": "<=", "default_left": true, "missing_type": "None", "internal_value": 0.18914, "internal_weight": 480888, "internal_count": 1929916, "left_child": {"leaf_index": 2, "leaf_value": 0.18913977608528026, "leaf_weight": 307713.621098578, "leaf_count": 1234926}, "right_child": {"leaf_index": 13, "leaf_value": 0.18913977608528026, "leaf_weight": 173174.65947538614, "leaf_count": 694990}}, "right_child": {"leaf_index": 12, "leaf_value": 0.18913977608528026, "leaf_weight": 431845.25887206197, "leaf_count": 1733095}}, "right_child": {"split_index": 9, "split_feature": 51, "split_gain": 81793.6015625, "threshold": 1.0000000180025095e-35, "decision_type": "<=", "default_left": true, "missing_type": "None", "internal_value": 0.166912, "internal_weight": 132126, "internal_count": 595912, "left_child": {"leaf_index": 9, "leaf_value": -0.111599566864771, "leaf_weight": 9765.295292437077, "leaf_count": 104850}, "right_child": {"leaf_index": 10, "leaf_value": 0.18913977608528026, "leaf_weight": 122360.74566727877, "leaf_count": 491062}}}, "right_child": {"split_index": 15, "split_feature": 11, "split_gain": 1.81899005406716e-12, "threshold": 1.0000000180025095e-35, "decision_type": "<=", "default_left": true, "missing_type": "None", "internal_value": -0.1116, "internal_weight": 9770.05, "internal_count": 104901, "left_child": {"leaf_index": 5, "leaf_value": -0.111599566864771, "leaf_weight": 4883.579004853964, "leaf_count": 52435}, "right_child": {"leaf_index": 16, "leaf_value": -0.111599566864771, "leaf_weight": 4886.466216623783, "leaf_count": 52466}}}, "right_child": {"leaf_index": 4, "leaf_value": -0.111599566864771, "leaf_weight": 19511.59086871147, "leaf_count": 209496}}}}}, {"tree_index": 6, "num_leaves": 20, "num_cat": 0, "shrinkage": 0.1, "tree_structure": {"split_index": 0, "split_feature": 24, "split_gain": 3023360, "threshold": 1.0000000180025095e-35, "decision_type": "<=", "default_left": true, "missing_type": "None", "internal_value": 0, "internal_weight": 0, "internal_count": 26886144, "left_child": {"leaf_index": 0, "leaf_value": -0.1103746809927218, "leaf_weight": 1422348.8010418415, "leaf_count": 16702064}, "right_child": {"split_index": 1, "split_feature": 0, "split_gain": 1678280, "threshold": 1.0000000180025095e-35, "decision_type": "<=", "default_left": true, "missing_type": "None", "internal_value": 0.0899021, "internal_weight": 1603500, "internal_count": 10184080, "left_child": {"split_index": 2, "split_feature": 53, "split_gain": 570019, "threshold": 1.0000000180025095e-35, "decision_type": "<=", "default_left": true, "missing_type": "None", "internal_value": -0.0511169, "internal_weight": 552927, "internal_count": 5610760, "left_child": {"split_index": 6, "split_feature": 39, "split_gain": 40327.69921875, "threshold": 1.0000000180025095e-35, "decision_type": "<=", "default_left": true, "missing_type": "None", "internal_value": -0.102113, "internal_weight": 441542, "internal_count": 5086648, "left_child": {"split_index": 13, "split_feature": 21, "split_gain": 5.820770254683083e-11, "threshold": 1.0000000180025095e-35, "decision_type": "<=", "default_left": true, "missing_type": "None", "internal_value": -0.110375, "internal_weight": 410840, "internal_count": 4824333, "left_child": {"leaf_index": 1, "leaf_value": -0.1103746809927218, "leaf_weight": 103852.78042398393, "leaf_count": 1219501}, "right_child": {"leaf_index": 14, "leaf_value": -0.1103746809927218, "leaf_weight": 306987.7155995369, "leaf_count": 3604832}}, "right_child": {"split_index": 7, "split_feature": 5, "split_gain": 60311.69921875, "threshold": 1.0000000180025095e-35, "decision_type": "<=", "default_left": true, "missing_type": "None", "internal_value": 0.00844057, "internal_weight": 30701.3, "internal_count": 262315, "left_child": {"leaf_index": 7, "leaf_value": 0.1737783855426243, "leaf_weight": 12837.406331002712, "leaf_count": 52546}, "right_child": {"split_index": 15, "split_feature": 4, "split_gain": 3.63798010813432e-12, "threshold": 1.0000000180025095e-35, "decision_type": "<=", "default_left": true, "missing_type": "None", "internal_value": -0.110375, "internal_weight": 17863.9, "internal_count": 209769, "left_child": {"leaf_index": 8, "leaf_value": -0.1103746809927218, "leaf_weight": 8938.059437572956, "leaf_count": 104956}, "right_child": {"split_index": 16, "split_feature": 6, "split_gain": 1.81899005406716e-12, "threshold": 1.0000000180025095e-35, "decision_type": "<=", "default_left": true, "missing_type": "None", "internal_value": -0.110375, "internal_weight": 8925.88, "internal_count": 104813, "left_child": {"leaf_index": 16, "leaf_value": -0.1103746809927218, "leaf_weight": 4463.323994651437, "leaf_count": 52411}, "right_child": {"split_index": 18, "split_feature": 17, "split_gain": 9.0949502703358e-13, "threshold": 1.0000000180025095e-35, "decision_type": "<=", "default_left": true, "missing_type": "None", "internal_value": -0.110375, "internal_weight": 4462.56, "internal_count": 52402, "left_child": {"leaf_index": 17, "leaf_value": -0.1103746809927218, "leaf_weight": 2229.745895937085, "leaf_count": 26183}, "right_child": {"leaf_index": 19, "leaf_value": -0.1103746809927218, "leaf_weight": 2232.8116581588984, "leaf_count": 26219}}}}}}, "right_child": {"split_index": 5, "split_feature": 23, "split_gain": 66216.8984375, "threshold": 1.0000000180025095e-35, "decision_type": "<=", "default_left": true, "missing_type": "None", "internal_value": 0.151037, "internal_weight": 111385, "internal_count": 524112, "left_child": {"split_index": 12, "split_feature": 6, "split_gain": 5.820770254683083e-11, "threshold": 1.0000000180025095e-35, "decision_type": "<=", "default_left": true, "missing_type": "None", "internal_value": 0.173778, "internal_weight": 102471, "internal_count": 419434, "left_child": {"leaf_index": 3, "leaf_value": 0.1737783855426243, "leaf_weight": 51327.88191512227, "leaf_count": 210095}, "right_child": {"leaf_index": 13, "leaf_value": 0.1737783855426243, "leaf_weight": 51143.185093551874, "leaf_count": 209339}}, "right_child": {"split_index": 17, "split_feature": 22, "split_gain": 1.81899005406716e-12, "threshold": 1.0000000180025095e-35, "decision_type": "<=", "default_left": true, "missing_type": "None", "internal_value": -0.110375, "internal_weight": 8914.38, "internal_count": 104678, "left_child": {"leaf_index": 6, "leaf_value": -0.1103746809927218, "leaf_weight": 4460.854352861643, "leaf_count": 52382}, "right_child": {"leaf_index": 18, "leaf_value": -0.1103746809927218, "leaf_weight": 4453.530587553978, "leaf_count": 52296}}}}, "right_child": {"split_index": 3, "split_feature": 23, "split_gain": 136749, "threshold": 1.0000000180025095e-35, "decision_type": "<=", "default_left": true, "missing_type": "None", "internal_value": 0.164122, "internal_weight": 1050580, "internal_count": 4573320, "left_child": {"split_index": 4, "split_feature": 2, "split_gain": 70264.8984375, "threshold": 1.0000000180025095e-35, "decision_type": "<=", "default_left": true, "missing_type": "None", "internal_value": 0.168864, "internal_weight": 1032740, "internal_count": 4363824, "left_child": {"split_index": 8, "split_feature": 29, "split_gain": 4365.3798828125, "threshold": 1.0000000180025095e-35, "decision_type": "<=", "default_left": true, "missing_type": "None", "internal_value": 0.1713, "internal_weight": 1023800, "internal_count": 4258923, "left_child": {"split_index": 10, "split_feature": 7, "split_gain": 4.656610097519831e-10, "threshold": 1.0000000180025095e-35, "decision_type": "<=", "default_left": true, "missing_type": "None", "internal_value": 0.173778, "internal_weight": 894903, "internal_count": 3663011, "left_child": {"leaf_index": 2, "leaf_value": 0.1737783855426243, "leaf_weight": 835622.6571527123, "leaf_count": 3420366}, "right_child": {"leaf_index": 11, "leaf_value": 0.1737783855426243, "leaf_weight": 59280.106177181005, "leaf_count": 242645}}, "right_child": {"split_index": 9, "split_feature": 51, "split_gain": 67101.5, "threshold": 1.0000000180025095e-35, "decision_type": "<=", "default_left": true, "missing_type": "None", "internal_value": 0.154095, "internal_weight": 128899, "internal_count": 595912, "left_child": {"leaf_index": 9, "leaf_value": -0.1103746809927218, "leaf_weight": 8929.03247103095, "leaf_count": 104850}, "right_child": {"split_index": 11, "split_feature": 4, "split_gain": 5.820770254683083e-11, "threshold": 1.0000000180025095e-35, "decision_type": "<=", "default_left": true, "missing_type": "None", "internal_value": 0.173778, "internal_weight": 119970, "internal_count": 491062, "left_child": {"leaf_index": 10, "leaf_value": 0.1737783855426243, "leaf_weight": 84010.17993837595, "leaf_count": 343870}, "right_child": {"split_index": 14, "split_feature": 28, "split_gain": 1.4551899615855568e-11, "threshold": 1.0000000180025095e-35, "decision_type": "<=", "default_left": true, "missing_type": "None", "internal_value": 0.173778, "internal_weight": 35960.2, "internal_count": 147192, "left_child": {"leaf_index": 12, "leaf_value": 0.1737783855426243, "leaf_weight": 18737.93230265379, "leaf_count": 76698}, "right_child": {"leaf_index": 15, "leaf_value": 0.1737783855426243, "leaf_weight": 17222.245687544346, "leaf_count": 70494}}}}}, "right_child": {"leaf_index": 5, "leaf_value": -0.1103746809927218, "leaf_weight": 8933.37563417852, "leaf_count": 104901}}, "right_child": {"leaf_index": 4, "leaf_value": -0.1103746809927218, "leaf_weight": 17840.692289471626, "leaf_count": 209496}}}}}, {"tree_index": 7, "num_leaves": 22, "num_cat": 0, "shrinkage": 0.1, "tree_structure": {"split_index": 0, "split_feature": 24, "split_gain": 2651360, "threshold": 1.0000000180025095e-35, "decision_type": "<=", "default_left": true, "missing_type": "None", "internal_value": 0, "internal_weight": 0, "internal_count": 26886144, "left_child": {"split_index": 11, "split_feature": 6, "split_gain": 2.3283100447635263e-10, "threshold": 1.0000000180025095e-35, "decision_type": "<=", "default_left": true, "missing_type": "None", "internal_value": -0.109291, "internal_weight": 1299110, "internal_count": 16702064, "left_child": {"leaf_index": 0, "leaf_value": -0.10929051926310351, "leaf_weight": 1227603.928800799, "leaf_count": 15782777}, "right_child": {"leaf_index": 12, "leaf_value": -0.10929051926310351, "leaf_weight": 71503.28062643856, "leaf_count": 919287}}, "right_child": {"split_index": 1, "split_feature": 0, "split_gain": 1406060, "threshold": 1.0000000180025095e-35, "decision_type": "<=", "default_left": true, "missing_type": "None", "internal_value": 0.0851123, "internal_weight": 1525230, "internal_count": 10184080, "left_child": {"split_index": 2, "split_feature": 53, "split_gain": 497766, "threshold": 1.0000000180025095e-35, "decision_type": "<=", "default_left": true, "missing_type": "None", "internal_value": -0.0501134, "internal_weight": 511207, "internal_count": 5610760, "left_child": {"split_index": 6, "split_feature": 39, "split_gain": 36673.69921875, "threshold": 1.0000000180025095e-35, "decision_type": "<=", "default_left": true, "missing_type": "None", "internal_value": -0.100953, "internal_weight": 403973, "internal_count": 5086648, "left_child": {"split_index": 12, "split_feature": 7, "split_gain": 5.820770254683083e-11, "threshold": 1.0000000180025095e-35, "decision_type": "<=", "default_left": true, "missing_type": "None", "internal_value": -0.109291, "internal_weight": 375243, "internal_count": 4824333, "left_child": {"leaf_index": 1, "leaf_value": -0.10929051926310351, "leaf_weight": 248759.56538390368, "leaf_count": 3198195}, "right_child": {"leaf_index": 13, "leaf_value": -0.10929051926310351, "leaf_weight": 126483.02624894679, "leaf_count": 1626138}}, "right_child": {"split_index": 7, "split_feature": 5, "split_gain": 51891.19921875, "threshold": 1.0000000180025095e-35, "decision_type": "<=", "default_left": true, "missing_type": "None", "internal_value": 0.00793643, "internal_weight": 28730.2, "internal_count": 262315, "left_child": {"split_index": 15, "split_feature": 30, "split_gain": 7.27596021626864e-12, "threshold": 1.0000000180025095e-35, "decision_type": "<=", "default_left": true, "missing_type": "None", "internal_value": 0.162009, "internal_weight": 12414.1, "internal_count": 52546, "left_child": {"leaf_index": 7, "leaf_value": 0.16200949537445347, "leaf_weight": 6204.71119017899, "leaf_count": 26263}, "right_child": {"leaf_index": 16, "leaf_value": 0.16200949537445347, "leaf_weight": 6209.436249151826, "leaf_count": 26283}}, "right_child": {"split_index": 17, "split_feature": 22, "split_gain": 3.63798010813432e-12, "threshold": 1.0000000180025095e-35, "decision_type": "<=", "default_left": true, "missing_type": "None", "internal_value": -0.109291, "internal_weight": 16316.1, "internal_count": 209769, "left_child": {"leaf_index": 8, "leaf_value": -0.10929051926310351, "leaf_weight": 8149.762519732118, "leaf_count": 104778}, "right_child": {"leaf_index": 18, "leaf_value": -0.10929051926310351, "leaf_weight": 8166.329923354089, "leaf_count": 104991}}}}, "right_child": {"split_index": 5, "split_feature": 23, "split_gain": 55377.8984375, "threshold": 1.0000000180025095e-35, "decision_type": "<=", "default_left": true, "missing_type": "None", "internal_value": 0.141411, "internal_weight": 107235, "internal_count": 524112, "left_child": {"split_index": 14, "split_feature": 6, "split_gain": 2.9103799231711136e-11, "threshold": 1.0000000180025095e-35, "decision_type": "<=", "default_left": true, "missing_type": "None", "internal_value": 0.162009, "internal_weight": 99092.5, "internal_count": 419434, "left_child": {"leaf_index": 3, "leaf_value": 0.16200949537445347, "leaf_weight": 49635.56324489415, "leaf_count": 210095}, "right_child": {"leaf_index": 15, "leaf_value": 0.16200949537445347, "leaf_weight": 49456.95601572096, "leaf_count": 209339}}, "right_child": {"split_index": 18, "split_feature": 4, "split_gain": 1.81899005406716e-12, "threshold": 1.0000000180025095e-35, "decision_type": "<=", "default_left": true, "missing_type": "None", "internal_value": -0.109291, "internal_weight": 8141.98, "internal_count": 104678, "left_child": {"leaf_index": 6, "leaf_value": -0.10929051926310351, "leaf_weight": 4069.6699169427156, "leaf_count": 52322}, "right_child": {"split_index": 20, "split_feature": 11, "split_gain": 9.0949502703358e-13, "threshold": 1.0000000180025095e-35, "decision_type": "<=", "default_left": true, "missing_type": "None", "internal_value": -0.109291, "internal_weight": 4072.31, "internal_count": 52356, "left_child": {"leaf_index": 19, "leaf_value": -0.10929051926310351, "leaf_weight": 2041.524144910276, "leaf_count": 26247}, "right_child": {"leaf_index": 21, "leaf_value": -0.10929051926310351, "leaf_weight": 2030.7903341129422, "leaf_count": 26109}}}}}, "right_child": {"split_index": 3, "split_feature": 23, "split_gain": 114181, "threshold": 1.0000000180025095e-35, "decision_type": "<=", "default_left": true, "missing_type": "None", "internal_value": 0.153285, "internal_weight": 1014019.9999999999, "internal_count": 4573320, "left_child": {"split_index": 4, "split_feature": 2, "split_gain": 58586.80078125, "threshold": 1.0000000180025095e-35, "decision_type": "<=", "default_left": true, "missing_type": "None", "internal_value": 0.157573, "internal_weight": 997727, "internal_count": 4363824, "left_child": {"split_index": 8, "split_feature": 29, "split_gain": 3447.77001953125, "threshold": 1.0000000180025095e-35, "decision_type": "<=", "default_left": true, "missing_type": "None", "internal_value": 0.159774, "internal_weight": 989567, "internal_count": 4258923, "left_child": {"split_index": 10, "split_feature": 1, "split_gain": 4.656610097519831e-10, "threshold": 1.0000000180025095e-35, "decision_type": "<=", "default_left": true, "missing_type": "None", "internal_value": 0.162009, "internal_weight": 865397, "internal_count": 3663011, "left_child": {"leaf_index": 2, "leaf_value": 0.16200949537445347, "leaf_weight": 80467.04554854333, "leaf_count": 340597}, "right_child": {"leaf_index": 11, "leaf_value": 0.16200949537445347, "leaf_weight": 784930.104108721, "leaf_count": 3322414}}, "right_child": {"split_index": 9, "split_feature": 51, "split_gain": 56084, "threshold": 1.0000000180025095e-35, "decision_type": "<=", "default_left": true, "missing_type": "None", "internal_value": 0.144191, "internal_weight": 124170, "internal_count": 595912, "left_child": {"leaf_index": 9, "leaf_value": -0.10929051926310351, "leaf_weight": 8155.36276884377, "leaf_count": 104850}, "right_child": {"split_index": 13, "split_feature": 10, "split_gain": 5.820770254683083e-11, "threshold": 1.0000000180025095e-35, "decision_type": "<=", "default_left": true, "missing_type": "None", "internal_value": 0.162009, "internal_weight": 116015, "internal_count": 491062, "left_child": {"leaf_index": 10, "leaf_value": 0.16200949537445347, "leaf_weight": 60360.7383543849, "leaf_count": 255492}, "right_child": {"leaf_index": 14, "leaf_value": 0.16200949537445347, "leaf_weight": 55654.10711154342, "leaf_count": 235570}}}}, "right_child": {"leaf_index": 5, "leaf_value": -0.10929051926310351, "leaf_weight": 8159.329611964524, "leaf_count": 104901}}, "right_child": {"split_index": 16, "split_feature": 9, "split_gain": 3.63798010813432e-12, "threshold": 1.0000000180025095e-35, "decision_type": "<=", "default_left": true, "missing_type": "None", "internal_value": -0.109291, "internal_weight": 16294.9, "internal_count": 209496, "left_child": {"split_index": 19, "split_feature": 22, "split_gain": 1.81899005406716e-12, "threshold": 1.0000000180025095e-35, "decision_type": "<=", "default_left": true, "missing_type": "None", "internal_value": -0.109291, "internal_weight": 8146.65, "internal_count": 104738, "left_child": {"leaf_index": 4, "leaf_value": -0.10929051926310351, "leaf_weight": 4080.092602789402, "leaf_count": 52456}, "right_child": {"leaf_index": 20, "leaf_value": -0.10929051926310351, "leaf_weight": 4066.558667436242, "leaf_count": 52282}}, "right_child": {"leaf_index": 17, "leaf_value": -0.10929051926310351, "leaf_weight": 8148.206894978881, "leaf_count": 104758}}}}}}, {"tree_index": 8, "num_leaves": 14, "num_cat": 0, "shrinkage": 0.1, "tree_structure": {"split_index": 0, "split_feature": 24, "split_gain": 2336440, "threshold": 1.0000000180025095e-35, "decision_type": "<=", "default_left": true, "missing_type": "None", "internal_value": 0, "internal_weight": 0, "internal_count": 26886144, "left_child": {"split_index": 10, "split_feature": 2, "split_gain": 2.3283100447635263e-10, "threshold": 1.0000000180025095e-35, "decision_type": "<=", "default_left": true, "missing_type": "None", "internal_value": -0.108329, "internal_weight": 1185379.9999999998, "internal_count": 16702064, "left_child": {"leaf_index": 0, "leaf_value": -0.10832866702821348, "leaf_weight": 697705.6899376363, "leaf_count": 9830679}, "right_child": {"leaf_index": 11, "leaf_value": -0.10832866702821348, "leaf_weight": 487677.8513724357, "leaf_count": 6871385}}, "right_child": {"split_index": 1, "split_feature": 0, "split_gain": 1192950, "threshold": 1.0000000180025095e-35, "decision_type": "<=", "default_left": true, "missing_type": "None", "internal_value": 0.0812318, "internal_weight": 1440230.0000000002, "internal_count": 10184080, "left_child": {"split_index": 2, "split_feature": 53, "split_gain": 437283, "threshold": 1.0000000180025095e-35, "decision_type": "<=", "default_left": true, "missing_type": "None", "internal_value": -0.0492411, "internal_weight": 471406, "internal_count": 5610760, "left_child": {"split_index": 6, "split_feature": 39, "split_gain": 33322.6015625, "threshold": 1.0000000180025095e-35, "decision_type": "<=", "default_left": true, "missing_type": "None", "internal_value": -0.0999284, "internal_weight": 369160, "internal_count": 5086648, "left_child": {"split_index": 11, "split_feature": 1, "split_gain": 5.820770254683083e-11, "threshold": 1.0000000180025095e-35, "decision_type": "<=", "default_left": true, "missing_type": "None", "internal_value": -0.108329, "internal_weight": 342394, "internal_count": 4824333, "left_child": {"leaf_index": 1, "leaf_value": -0.10832866702821348, "leaf_weight": 30709.49208278954, "leaf_count": 432697}, "right_child": {"leaf_index": 12, "leaf_value": -0.10832866702821348, "leaf_weight": 311684.41420322657, "leaf_count": 4391636}}, "right_child": {"split_index": 7, "split_feature": 5, "split_gain": 45029.3984375, "threshold": 1.0000000180025095e-35, "decision_type": "<=", "default_left": true, "missing_type": "None", "internal_value": 0.00752763, "internal_weight": 26766.3, "internal_count": 262315, "left_child": {"leaf_index": 7, "leaf_value": 0.15273492942513117, "leaf_weight": 11878.490978121758, "leaf_count": 52546}, "right_child": {"leaf_index": 8, "leaf_value": -0.10832866702821348, "leaf_weight": 14887.783933594823, "leaf_count": 209769}}}, "right_child": {"split_index": 5, "split_feature": 23, "split_gain": 46954.30078125, "threshold": 1.0000000180025095e-35, "decision_type": "<=", "default_left": true, "missing_type": "None", "internal_value": 0.133766, "internal_weight": 102246, "internal_count": 524112, "left_child": {"leaf_index": 3, "leaf_value": 0.15273492942513117, "leaf_weight": 94816.78881204128, "leaf_count": 419434}, "right_child": {"split_index": 12, "split_feature": 14, "split_gain": 1.81899005406716e-12, "threshold": 1.0000000180025095e-35, "decision_type": "<=", "default_left": true, "missing_type": "None", "internal_value": -0.108329, "internal_weight": 7429.24, "internal_count": 104678, "left_child": {"leaf_index": 6, "leaf_value": -0.10832866702821348, "leaf_weight": 3713.624483719468, "leaf_count": 52325}, "right_child": {"leaf_index": 13, "leaf_value": -0.10832866702821348, "leaf_weight": 3715.611707523465, "leaf_count": 52353}}}}, "right_child": {"split_index": 3, "split_feature": 23, "split_gain": 96689.3984375, "threshold": 1.0000000180025095e-35, "decision_type": "<=", "default_left": true, "missing_type": "None", "internal_value": 0.144717, "internal_weight": 968820, "internal_count": 4573320, "left_child": {"split_index": 4, "split_feature": 2, "split_gain": 49556.69921875, "threshold": 1.0000000180025095e-35, "decision_type": "<=", "default_left": true, "missing_type": "None", "internal_value": 0.148661, "internal_weight": 953952, "internal_count": 4363824, "left_child": {"split_index": 8, "split_feature": 29, "split_gain": 2787.449951171875, "threshold": 1.0000000180025095e-35, "decision_type": "<=", "default_left": true, "missing_type": "None", "internal_value": 0.150682, "internal_weight": 946507, "internal_count": 4258923, "left_child": {"leaf_index": 2, "leaf_value": 0.15273492942513117, "leaf_weight": 828056.2386530042, "leaf_count": 3663011}, "right_child": {"split_index": 9, "split_feature": 51, "split_gain": 47530.3984375, "threshold": 1.0000000180025095e-35, "decision_type": "<=", "default_left": true, "missing_type": "None", "internal_value": 0.136334, "internal_weight": 118450, "internal_count": 595912, "left_child": {"leaf_index": 9, "leaf_value": -0.10832866702821348, "leaf_weight": 7441.443423181772, "leaf_count": 104850}, "right_child": {"leaf_index": 10, "leaf_value": 0.15273492942513117, "leaf_weight": 111008.93572676182, "leaf_count": 491062}}}, "right_child": {"leaf_index": 5, "leaf_value": -0.10832866702821348, "leaf_weight": 7445.063009396195, "leaf_count": 104901}}, "right_child": {"leaf_index": 4, "leaf_value": -0.10832866702821348, "leaf_weight": 14868.408501505852, "leaf_count": 209496}}}}}, {"tree_index": 9, "num_leaves": 20, "num_cat": 0, "shrinkage": 0.1, "tree_structure": {"split_index": 0, "split_feature": 24, "split_gain": 2066870, "threshold": 1.0000000180025095e-35, "decision_type": "<=", "default_left": true, "missing_type": "None", "internal_value": 0, "internal_weight": 0, "internal_count": 26886144, "left_child": {"split_index": 10, "split_feature": 0, "split_gain": 2.3283100447635263e-10, "threshold": 1.0000000180025095e-35, "decision_type": "<=", "default_left": true, "missing_type": "None", "internal_value": -0.107474, "internal_weight": 1080680, "internal_count": 16702064, "left_child": {"leaf_index": 0, "leaf_value": -0.10747357994507799, "leaf_weight": 454834.20866662264, "leaf_count": 7029551}, "right_child": {"leaf_index": 11, "leaf_value": -0.10747357994507799, "leaf_weight": 625842.2189657092, "leaf_count": 9672513}}, "right_child": {"split_index": 1, "split_feature": 0, "split_gain": 1022190, "threshold": 1.0000000180025095e-35, "decision_type": "<=", "default_left": true, "missing_type": "None", "internal_value": 0.0780359, "internal_weight": 1351940, "internal_count": 10184080, "left_child": {"split_index": 2, "split_feature": 53, "split_gain": 385930, "threshold": 1.0000000180025095e-35, "decision_type": "<=", "default_left": true, "missing_type": "None", "internal_value": -0.0484793, "internal_weight": 433738, "internal_count": 5610760, "left_child": {"split_index": 6, "split_feature": 39, "split_gain": 30256.80078125, "threshold": 1.0000000180025095e-35, "decision_type": "<=", "default_left": true, "missing_type": "None", "internal_value": -0.0990202, "internal_weight": 336994, "internal_count": 5086648, "left_child": {"leaf_index": 1, "leaf_value": -0.10747357994507799, "leaf_weight": 312149.6212772727, "leaf_count": 4824333}, "right_child": {"split_index": 7, "split_feature": 5, "split_gain": 39334, "threshold": 1.0000000180025095e-35, "decision_type": "<=", "default_left": true, "missing_type": "None", "internal_value": 0.00719081, "internal_weight": 24844.2, "internal_count": 262315, "left_child": {"leaf_index": 7, "leaf_value": 0.14526539458362184, "leaf_weight": 11271.498845428228, "leaf_count": 52546}, "right_child": {"leaf_index": 8, "leaf_value": -0.10747357994507799, "leaf_weight": 13572.718530356884, "leaf_count": 209769}}}, "right_child": {"split_index": 5, "split_feature": 23, "split_gain": 40235, "threshold": 1.0000000180025095e-35, "decision_type": "<=", "default_left": true, "missing_type": "None", "internal_value": 0.127571, "internal_weight": 96744.6, "internal_count": 524112, "left_child": {"leaf_index": 3, "leaf_value": 0.14526539458362184, "leaf_weight": 89971.64097616076, "leaf_count": 419434}, "right_child": {"leaf_index": 6, "leaf_value": -0.10747357994507799, "leaf_weight": 6772.998061299324, "leaf_count": 104678}}}, "right_child": {"split_index": 3, "split_feature": 23, "split_gain": 82767, "threshold": 1.0000000180025095e-35, "decision_type": "<=", "default_left": true, "missing_type": "None", "internal_value": 0.137799, "internal_weight": 918205, "internal_count": 4573320, "left_child": {"split_index": 4, "split_feature": 2, "split_gain": 42382.8984375, "threshold": 1.0000000180025095e-35, "decision_type": "<=", "default_left": true, "missing_type": "None", "internal_value": 0.141474, "internal_weight": 904650, "internal_count": 4363824, "left_child": {"split_index": 8, "split_feature": 29, "split_gain": 2294.659912109375, "threshold": 1.0000000180025095e-35, "decision_type": "<=", "default_left": true, "missing_type": "None", "internal_value": 0.143356, "internal_weight": 897863, "internal_count": 4258923, "left_child": {"split_index": 11, "split_feature": 41, "split_gain": 2.3283100447635263e-10, "threshold": 1.0000000180025095e-35, "decision_type": "<=", "default_left": true, "missing_type": "None", "internal_value": 0.145265, "internal_weight": 785742, "internal_count": 3663011, "left_child": {"leaf_index": 2, "leaf_value": 0.14526539458362184, "leaf_weight": 639655.0926444829, "leaf_count": 2981974}, "right_child": {"leaf_index": 12, "leaf_value": 0.14526539458362184, "leaf_weight": 146087.38551352918, "leaf_count": 681037}}, "right_child": {"split_index": 9, "split_feature": 51, "split_gain": 40712.8984375, "threshold": 1.0000000180025095e-35, "decision_type": "<=", "default_left": true, "missing_type": "None", "internal_value": 0.129973, "internal_weight": 112120, "internal_count": 595912, "left_child": {"split_index": 14, "split_feature": 9, "split_gain": 9.0949502703358e-13, "threshold": 1.0000000180025095e-35, "decision_type": "<=", "default_left": true, "missing_type": "None", "internal_value": -0.107474, "internal_weight": 6784.13, "internal_count": 104850, "left_child": {"leaf_index": 9, "leaf_value": -0.10747357994507799, "leaf_weight": 3398.4044132828712, "leaf_count": 52523}, "right_child": {"split_index": 15, "split_feature": 11, "split_gain": 4.5474699852075806e-13, "threshold": 1.0000000180025095e-35, "decision_type": "<=", "default_left": true, "missing_type": "None", "internal_value": -0.107474, "internal_weight": 3385.72, "internal_count": 52327, "left_child": {"leaf_index": 15, "leaf_value": -0.10747357994507799, "leaf_weight": 1693.475976407528, "leaf_count": 26173}, "right_child": {"split_index": 18, "split_feature": 16, "split_gain": 2.273740007038838e-13, "threshold": 1.0000000180025095e-35, "decision_type": "<=", "default_left": true, "missing_type": "None", "internal_value": -0.107474, "internal_weight": 1692.25, "internal_count": 26154, "left_child": {"leaf_index": 16, "leaf_value": -0.10747357994507799, "leaf_weight": 845.7997922897339, "leaf_count": 13072}, "right_child": {"leaf_index": 19, "leaf_value": -0.10747357994507799, "leaf_weight": 846.4468239545822, "leaf_count": 13082}}}}, "right_child": {"leaf_index": 10, "leaf_value": 0.14526539458362184, "leaf_weight": 105336.36748817563, "leaf_count": 491062}}}, "right_child": {"split_index": 13, "split_feature": 9, "split_gain": 9.0949502703358e-13, "threshold": 1.0000000180025095e-35, "decision_type": "<=", "default_left": true, "missing_type": "None", "internal_value": -0.107474, "internal_weight": 6787.43, "internal_count": 104901, "left_child": {"split_index": 17, "split_feature": 21, "split_gain": 4.5474699852075806e-13, "threshold": 1.0000000180025095e-35, "decision_type": "<=", "default_left": true, "missing_type": "None", "internal_value": -0.107474, "internal_weight": 3387.02, "internal_count": 52347, "left_child": {"leaf_index": 5, "leaf_value": -0.10747357994507799, "leaf_weight": 1690.1761149168015, "leaf_count": 26122}, "right_child": {"leaf_index": 18, "leaf_value": -0.10747357994507799, "leaf_weight": 1696.8405410647392, "leaf_count": 26225}}, "right_child": {"split_index": 16, "split_feature": 18, "split_gain": 4.5474699852075806e-13, "threshold": 1.0000000180025095e-35, "decision_type": "<=", "default_left": true, "missing_type": "None", "internal_value": -0.107474, "internal_weight": 3400.41, "internal_count": 52554, "left_child": {"leaf_index": 14, "leaf_value": -0.10747357994507799, "leaf_weight": 1698.9757455587387, "leaf_count": 26258}, "right_child": {"leaf_index": 17, "leaf_value": -0.10747357994507799, "leaf_weight": 1701.4344658851624, "leaf_count": 26296}}}}, "right_child": {"split_index": 12, "split_feature": 12, "split_gain": 1.81899005406716e-12, "threshold": 1.0000000180025095e-35, "decision_type": "<=", "default_left": true, "missing_type": "None", "internal_value": -0.107474, "internal_weight": 13555.1, "internal_count": 209496, "left_child": {"leaf_index": 4, "leaf_value": -0.10747357994507799, "leaf_weight": 6783.415271103382, "leaf_count": 104839}, "right_child": {"leaf_index": 13, "leaf_value": -0.10747357994507799, "leaf_weight": 6771.639294803143, "leaf_count": 104657}}}}}}, {"tree_index": 10, "num_leaves": 19, "num_cat": 0, "shrinkage": 0.1, "tree_structure": {"split_index": 0, "split_feature": 24, "split_gain": 1834100, "threshold": 1.0000000180025095e-35, "decision_type": "<=", "default_left": true, "missing_type": "None", "internal_value": 0, "internal_weight": 0, "internal_count": 26886144, "left_child": {"split_index": 10, "split_feature": 6, "split_gain": 2.3283100447635263e-10, "threshold": 1.0000000180025095e-35, "decision_type": "<=", "default_left": true, "missing_type": "None", "internal_value": -0.106712, "internal_weight": 984458, "internal_count": 16702064, "left_child": {"leaf_index": 0, "leaf_value": -0.10671203666847384, "leaf_weight": 930273.1074949875, "leaf_count": 15782777}, "right_child": {"split_index": 16, "split_feature": 12, "split_gain": 7.27596021626864e-12, "threshold": 1.0000000180025095e-35, "decision_type": "<=", "default_left": true, "missing_type": "None", "internal_value": -0.106712, "internal_weight": 54184.9, "internal_count": 919287, "left_child": {"leaf_index": 11, "leaf_value": -0.10671203666847384, "leaf_weight": 27479.6055213511, "leaf_count": 466212}, "right_child": {"leaf_index": 17, "leaf_value": -0.10671203666847384, "leaf_weight": 26705.280583910644, "leaf_count": 453075}}}, "right_child": {"split_index": 1, "split_feature": 0, "split_gain": 882822, "threshold": 1.0000000180025095e-35, "decision_type": "<=", "default_left": true, "missing_type": "None", "internal_value": 0.0753689, "internal_weight": 1262910, "internal_count": 10184080, "left_child": {"split_index": 2, "split_feature": 53, "split_gain": 341859, "threshold": 1.0000000180025095e-35, "decision_type": "<=", "default_left": true, "missing_type": "None", "internal_value": -0.0478115, "internal_weight": 398317, "internal_count": 5610760, "left_child": {"split_index": 6, "split_feature": 39, "split_gain": 27457.69921875, "threshold": 1.0000000180025095e-35, "decision_type": "<=", "default_left": true, "missing_type": "None", "internal_value": -0.0982136, "internal_weight": 307345, "internal_count": 5086648, "left_child": {"split_index": 11, "split_feature": 3, "split_gain": 5.820770254683083e-11, "threshold": 1.0000000180025095e-35, "decision_type": "<=", "default_left": true, "missing_type": "None", "internal_value": -0.106712, "internal_weight": 284357, "internal_count": 4824333, "left_child": {"leaf_index": 1, "leaf_value": -0.10671203666847384, "leaf_weight": 26268.753942616284, "leaf_count": 445669}, "right_child": {"leaf_index": 12, "leaf_value": -0.10671203666847384, "leaf_weight": 258088.5078688264, "leaf_count": 4378664}}, "right_child": {"split_index": 7, "split_feature": 5, "split_gain": 34539.19921875, "threshold": 1.0000000180025095e-35, "decision_type": "<=", "default_left": true, "missing_type": "None", "internal_value": 0.00690969, "internal_weight": 22988.1, "internal_count": 262315, "left_child": {"leaf_index": 7, "leaf_value": 0.13914519180524448, "leaf_weight": 10623.844142854214, "leaf_count": 52546}, "right_child": {"leaf_index": 8, "leaf_value": -0.10671203666847384, "leaf_weight": 12364.266408003867, "leaf_count": 209769}}}, "right_child": {"split_index": 5, "split_feature": 23, "split_gain": 34765.3984375, "threshold": 1.0000000180025095e-35, "decision_type": "<=", "default_left": true, "missing_type": "None", "internal_value": 0.12247, "internal_weight": 90971.9, "internal_count": 524112, "left_child": {"split_index": 12, "split_feature": 11, "split_gain": 2.9103799231711136e-11, "threshold": 1.0000000180025095e-35, "decision_type": "<=", "default_left": true, "missing_type": "None", "internal_value": 0.139145, "internal_weight": 84801.9, "internal_count": 419434, "left_child": {"split_index": 15, "split_feature": 28, "split_gain": 1.4551899615855568e-11, "threshold": 1.0000000180025095e-35, "decision_type": "<=", "default_left": true, "missing_type": "None", "internal_value": 0.139145, "internal_weight": 42420.2, "internal_count": 209812, "left_child": {"leaf_index": 3, "leaf_value": 0.13914519180524448, "leaf_weight": 21216.147927045822, "leaf_count": 104936}, "right_child": {"leaf_index": 16, "leaf_value": 0.13914519180524448, "leaf_weight": 21204.017019867897, "leaf_count": 104876}}, "right_child": {"leaf_index": 13, "leaf_value": 0.13914519180524448, "leaf_weight": 42381.750407516956, "leaf_count": 209622}}, "right_child": {"leaf_index": 6, "leaf_value": -0.10671203666847384, "leaf_weight": 6169.9616199582815, "leaf_count": 104678}}}, "right_child": {"split_index": 3, "split_feature": 23, "split_gain": 71454.3984375, "threshold": 1.0000000180025095e-35, "decision_type": "<=", "default_left": true, "missing_type": "None", "internal_value": 0.132118, "internal_weight": 864589, "internal_count": 4573320, "left_child": {"split_index": 4, "split_feature": 2, "split_gain": 36563, "threshold": 1.0000000180025095e-35, "decision_type": "<=", "default_left": true, "missing_type": "None", "internal_value": 0.135579, "internal_weight": 852241, "internal_count": 4363824, "left_child": {"split_index": 8, "split_feature": 29, "split_gain": 1916.1700439453125, "threshold": 1.0000000180025095e-35, "decision_type": "<=", "default_left": true, "missing_type": "None", "internal_value": 0.137349, "internal_weight": 846058, "internal_count": 4258923, "left_child": {"leaf_index": 2, "leaf_value": 0.13914519180524448, "leaf_weight": 740594.1072119772, "leaf_count": 3663011}, "right_child": {"split_index": 9, "split_feature": 51, "split_gain": 35167.1015625, "threshold": 1.0000000180025095e-35, "decision_type": "<=", "default_left": true, "missing_type": "None", "internal_value": 0.124738, "internal_weight": 105464, "internal_count": 595912, "left_child": {"leaf_index": 9, "leaf_value": -0.10671203666847384, "leaf_weight": 6180.099694803357, "leaf_count": 104850}, "right_child": {"split_index": 13, "split_feature": 11, "split_gain": 2.9103799231711136e-11, "threshold": 1.0000000180025095e-35, "decision_type": "<=", "default_left": true, "missing_type": "None", "internal_value": 0.139145, "internal_weight": 99283.8, "internal_count": 491062, "left_child": {"leaf_index": 10, "leaf_value": 0.13914519180524448, "leaf_weight": 48997.94718235731, "leaf_count": 242346}, "right_child": {"split_index": 14, "split_feature": 26, "split_gain": 1.4551899615855568e-11, "threshold": 1.0000000180025095e-35, "decision_type": "<=", "default_left": true, "missing_type": "None", "internal_value": 0.139145, "internal_weight": 50285.8, "internal_count": 248716, "left_child": {"leaf_index": 14, "leaf_value": 0.13914519180524448, "leaf_weight": 47644.54230487347, "leaf_count": 235652}, "right_child": {"leaf_index": 15, "leaf_value": 0.13914519180524448, "leaf_weight": 2641.302856206894, "leaf_count": 13064}}}}}, "right_child": {"leaf_index": 5, "leaf_value": -0.10671203666847384, "leaf_weight": 6183.105751879513, "leaf_count": 104901}}, "right_child": {"split_index": 17, "split_feature": 16, "split_gain": 3.63798010813432e-12, "threshold": 1.0000000180025095e-35, "decision_type": "<=", "default_left": true, "missing_type": "None", "internal_value": -0.106712, "internal_weight": 12348.2, "internal_count": 209496, "left_child": {"leaf_index": 4, "leaf_value": -0.10671203666847384, "leaf_weight": 6176.327387884259, "leaf_count": 104786}, "right_child": {"leaf_index": 18, "leaf_value": -0.10671203666847384, "leaf_weight": 6171.8477734178305, "leaf_count": 104710}}}}}}, {"tree_index": 11, "num_leaves": 24, "num_cat": 0, "shrinkage": 0.1, "tree_structure": {"split_index": 0, "split_feature": 24, "split_gain": 1631740, "threshold": 1.0000000180025095e-35, "decision_type": "<=", "default_left": true, "missing_type": "None", "internal_value": 0, "internal_weight": 0, "internal_count": 26886144, "left_child": {"split_index": 10, "split_feature": 6, "split_gain": 1.1641500263781523e-10, "threshold": 1.0000000180025095e-35, "decision_type": "<=", "default_left": true, "missing_type": "None", "internal_value": -0.106033, "internal_weight": 896190, "internal_count": 16702064, "left_child": {"leaf_index": 0, "leaf_value": -0.10603266789372434, "leaf_weight": 846863.5055009164, "leaf_count": 15782777}, "right_child": {"leaf_index": 11, "leaf_value": -0.10603266789372434, "leaf_weight": 49326.592613037676, "leaf_count": 919287}}, "right_child": {"split_index": 1, "split_feature": 0, "split_gain": 767378, "threshold": 1.0000000180025095e-35, "decision_type": "<=", "default_left": true, "missing_type": "None", "internal_value": 0.0731189, "internal_weight": 1174950, "internal_count": 10184080, "left_child": {"split_index": 2, "split_feature": 53, "split_gain": 303720, "threshold": 1.0000000180025095e-35, "decision_type": "<=", "default_left": true, "missing_type": "None", "internal_value": -0.0472239, "internal_weight": 365182, "internal_count": 5610760, "left_child": {"split_index": 6, "split_feature": 39, "split_gain": 24906, "threshold": 1.0000000180025095e-35, "decision_type": "<=", "default_left": true, "missing_type": "None", "internal_value": -0.0974959, "internal_weight": 280075, "internal_count": 5086648, "left_child": {"split_index": 11, "split_feature": 1, "split_gain": 5.820770254683083e-11, "threshold": 1.0000000180025095e-35, "decision_type": "<=", "default_left": true, "missing_type": "None", "internal_value": -0.106033, "internal_weight": 258861, "internal_count": 4824333, "left_child": {"leaf_index": 1, "leaf_value": -0.10603266789372434, "leaf_weight": 23217.415936354548, "leaf_count": 432697}, "right_child": {"leaf_index": 12, "leaf_value": -0.10603266789372434, "leaf_weight": 235643.97177024186, "leaf_count": 4391636}}, "right_child": {"split_index": 7, "split_feature": 5, "split_gain": 30457.5, "threshold": 1.0000000180025095e-35, "decision_type": "<=", "default_left": true, "missing_type": "None", "internal_value": 0.00667256, "internal_weight": 21214, "internal_count": 262315, "left_child": {"split_index": 12, "split_feature": 4, "split_gain": 3.63798010813432e-12, "threshold": 1.0000000180025095e-35, "decision_type": "<=", "default_left": true, "missing_type": "None", "internal_value": 0.13406, "internal_weight": 9958.36, "internal_count": 52546, "left_child": {"leaf_index": 7, "leaf_value": 0.13406029814751505, "leaf_weight": 4976.336377024651, "leaf_count": 26258}, "right_child": {"leaf_index": 13, "leaf_value": 0.13406029814751505, "leaf_weight": 4982.021885871887, "leaf_count": 26288}}, "right_child": {"split_index": 13, "split_feature": 6, "split_gain": 1.81899005406716e-12, "threshold": 1.0000000180025095e-35, "decision_type": "<=", "default_left": true, "missing_type": "None", "internal_value": -0.106033, "internal_weight": 11255.7, "internal_count": 209769, "left_child": {"leaf_index": 8, "leaf_value": -0.10603266789372434, "leaf_weight": 5633.012344468385, "leaf_count": 104981}, "right_child": {"split_index": 16, "split_feature": 9, "split_gain": 9.0949502703358e-13, "threshold": 1.0000000180025095e-35, "decision_type": "<=", "default_left": true, "missing_type": "None", "internal_value": -0.106033, "internal_weight": 5622.66, "internal_count": 104788, "left_child": {"leaf_index": 14, "leaf_value": -0.10603266789372434, "leaf_weight": 2812.9379520714283, "leaf_count": 52424}, "right_child": {"split_index": 20, "split_feature": 14, "split_gain": 4.5474699852075806e-13, "threshold": 1.0000000180025095e-35, "decision_type": "<=", "default_left": true, "missing_type": "None", "internal_value": -0.106033, "internal_weight": 2809.72, "internal_count": 52364, "left_child": {"leaf_index": 17, "leaf_value": -0.10603266789372434, "leaf_weight": 1403.786103732884, "leaf_count": 26162}, "right_child": {"leaf_index": 21, "leaf_value": -0.10603266789372434, "leaf_weight": 1405.932401575148, "leaf_count": 26202}}}}}}, "right_child": {"split_index": 5, "split_feature": 23, "split_gain": 30240.80078125, "threshold": 1.0000000180025095e-35, "decision_type": "<=", "default_left": true, "missing_type": "None", "internal_value": 0.118215, "internal_weight": 85106.6, "internal_count": 524112, "left_child": {"leaf_index": 3, "leaf_value": 0.13406029814751505, "leaf_weight": 79489.85726106167, "leaf_count": 419434}, "right_child": {"split_index": 15, "split_feature": 4, "split_gain": 9.0949502703358e-13, "threshold": 1.0000000180025095e-35, "decision_type": "<=", "default_left": true, "missing_type": "None", "internal_value": -0.106033, "internal_weight": 5616.75, "internal_count": 104678, "left_child": {"split_index": 19, "split_feature": 12, "split_gain": 4.5474699852075806e-13, "threshold": 1.0000000180025095e-35, "decision_type": "<=", "default_left": true, "missing_type": "None", "internal_value": -0.106033, "internal_weight": 2807.46, "internal_count": 52322, "left_child": {"leaf_index": 6, "leaf_value": -0.10603266789372434, "leaf_weight": 1402.1227229051292, "leaf_count": 26131}, "right_child": {"leaf_index": 20, "leaf_value": -0.10603266789372434, "leaf_weight": 1405.3421696685255, "leaf_count": 26191}}, "right_child": {"leaf_index": 16, "leaf_value": -0.10603266789372434, "leaf_weight": 2809.289245739579, "leaf_count": 52356}}}}, "right_child": {"split_index": 3, "split_feature": 23, "split_gain": 62110.3984375, "threshold": 1.0000000180025095e-35, "decision_type": "<=", "default_left": true, "missing_type": "None", "internal_value": 0.12739, "internal_weight": 809763, "internal_count": 4573320, "left_child": {"split_index": 4, "split_feature": 2, "split_gain": 31762.30078125, "threshold": 1.0000000180025095e-35, "decision_type": "<=", "default_left": true, "missing_type": "None", "internal_value": 0.130676, "internal_weight": 798522, "internal_count": 4363824, "left_child": {"split_index": 8, "split_feature": 29, "split_gain": 1618.6500244140625, "threshold": 1.0000000180025095e-35, "decision_type": "<=", "default_left": true, "missing_type": "None", "internal_value": 0.132357, "internal_weight": 792893, "internal_count": 4258923, "left_child": {"leaf_index": 2, "leaf_value": 0.13406029814751505, "leaf_weight": 694202.7149341702, "leaf_count": 3663011}, "right_child": {"split_index": 9, "split_feature": 51, "split_gain": 30582, "threshold": 1.0000000180025095e-35, "decision_type": "<=", "default_left": true, "missing_type": "None", "internal_value": 0.120373, "internal_weight": 98690.6, "internal_count": 595912, "left_child": {"split_index": 17, "split_feature": 11, "split_gain": 9.0949502703358e-13, "threshold": 1.0000000180025095e-35, "decision_type": "<=", "default_left": true, "missing_type": "None", "internal_value": -0.106033, "internal_weight": 5625.98, "internal_count": 104850, "left_child": {"leaf_index": 9, "leaf_value": -0.10603266789372434, "leaf_weight": 2818.3573541231453, "leaf_count": 52525}, "right_child": {"split_index": 22, "split_feature": 30, "split_gain": 4.5474699852075806e-13, "threshold": 1.0000000180025095e-35, "decision_type": "<=", "default_left": true, "missing_type": "None", "internal_value": -0.106033, "internal_weight": 2807.63, "internal_count": 52325, "left_child": {"leaf_index": 18, "leaf_value": -0.10603266789372434, "leaf_weight": 1402.1227229051292, "leaf_count": 26131}, "right_child": {"leaf_index": 23, "leaf_value": -0.10603266789372434, "leaf_weight": 1405.5031420066953, "leaf_count": 26194}}}, "right_child": {"leaf_index": 10, "leaf_value": 0.13406029814751505, "leaf_weight": 93064.57818472385, "leaf_count": 491062}}}, "right_child": {"split_index": 18, "split_feature": 12, "split_gain": 9.0949502703358e-13, "threshold": 1.0000000180025095e-35, "decision_type": "<=", "default_left": true, "missing_type": "None", "internal_value": -0.106033, "internal_weight": 5628.72, "internal_count": 104901, "left_child": {"split_index": 21, "split_feature": 28, "split_gain": 4.5474699852075806e-13, "threshold": 1.0000000180025095e-35, "decision_type": "<=", "default_left": true, "missing_type": "None", "internal_value": -0.106033, "internal_weight": 2816.43, "internal_count": 52489, "left_child": {"leaf_index": 5, "leaf_value": -0.10603266789372434, "leaf_weight": 1410.2249972596765, "leaf_count": 26282}, "right_child": {"leaf_index": 22, "leaf_value": -0.10603266789372434, "leaf_weight": 1406.2006888054311, "leaf_count": 26207}}, "right_child": {"leaf_index": 19, "leaf_value": -0.10603266789372434, "leaf_weight": 2812.294062718749, "leaf_count": 52412}}}, "right_child": {"split_index": 14, "split_feature": 22, "split_gain": 1.81899005406716e-12, "threshold": 1.0000000180025095e-35, "decision_type": "<=", "default_left": true, "missing_type": "None", "internal_value": -0.106033, "internal_weight": 11241, "internal_count": 209496, "left_child": {"leaf_index": 4, "leaf_value": -0.10603266789372434, "leaf_weight": 5626.412478603423, "leaf_count": 104858}, "right_child": {"leaf_index": 15, "leaf_value": -0.10603266789372434, "leaf_weight": 5614.60784047097, "leaf_count": 104638}}}}}}, {"tree_index": 12, "num_leaves": 18, "num_cat": 0, "shrinkage": 0.1, "tree_structure": {"split_index": 0, "split_feature": 24, "split_gain": 1454820, "threshold": 1.0000000180025095e-35, "decision_type": "<=", "default_left": true, "missing_type": "None", "internal_value": 0, "internal_weight": 0, "internal_count": 26886144, "left_child": {"split_index": 11, "split_feature": 0, "split_gain": 1.1641500263781523e-10, "threshold": 1.0000000180025095e-35, "decision_type": "<=", "default_left": true, "missing_type": "None", "internal_value": -0.105426, "internal_weight": 815336, "internal_count": 16702064, "left_child": {"split_index": 12, "split_feature": 4, "split_gain": 5.820770254683083e-11, "threshold": 1.0000000180025095e-35, "decision_type": "<=", "default_left": true, "missing_type": "None", "internal_value": -0.105426, "internal_weight": 343158, "internal_count": 7029551, "left_child": {"leaf_index": 0, "leaf_value": -0.10542574650622093, "leaf_weight": 74329.64883304387, "leaf_count": 1522634}, "right_child": {"leaf_index": 13, "leaf_value": -0.10542574650622093, "leaf_weight": 268828.363718871, "leaf_count": 5506917}}, "right_child": {"leaf_index": 12, "leaf_value": -0.10542574650622093, "leaf_weight": 472178.14302258566, "leaf_count": 9672513}}, "right_child": {"split_index": 1, "split_feature": 0, "split_gain": 670588, "threshold": 1.0000000180025095e-35, "decision_type": "<=", "default_left": true, "missing_type": "None", "internal_value": 0.0712036, "internal_weight": 1089360, "internal_count": 10184080, "left_child": {"split_index": 2, "split_feature": 53, "split_gain": 270494, "threshold": 1.0000000180025095e-35, "decision_type": "<=", "default_left": true, "missing_type": "None", "internal_value": -0.0467055, "internal_weight": 334319, "internal_count": 5610760, "left_child": {"split_index": 6, "split_feature": 39, "split_gain": 22582.80078125, "threshold": 1.0000000180025095e-35, "decision_type": "<=", "default_left": true, "missing_type": "None", "internal_value": -0.0968562, "internal_weight": 255039, "internal_count": 5086648, "left_child": {"split_index": 13, "split_feature": 2, "split_gain": 2.9103799231711136e-11, "threshold": 1.0000000180025095e-35, "decision_type": "<=", "default_left": true, "missing_type": "None", "internal_value": -0.105426, "internal_weight": 235507, "internal_count": 4824333, "left_child": {"leaf_index": 1, "leaf_value": -0.10542574650622093, "leaf_weight": 152972.2346387282, "leaf_count": 3133618}, "right_child": {"leaf_index": 14, "leaf_value": -0.10542574650622093, "leaf_weight": 82534.77344309911, "leaf_count": 1690715}}, "right_child": {"split_index": 7, "split_feature": 5, "split_gain": 26951.599609375, "threshold": 1.0000000180025095e-35, "decision_type": "<=", "default_left": true, "missing_type": "None", "internal_value": 0.00647075, "internal_weight": 19532.1, "internal_count": 262315, "left_child": {"split_index": 14, "split_feature": 6, "split_gain": 1.81899005406716e-12, "threshold": 1.0000000180025095e-35, "decision_type": "<=", "default_left": true, "missing_type": "None", "internal_value": 0.129787, "internal_weight": 9291.89, "internal_count": 52546, "left_child": {"leaf_index": 7, "leaf_value": 0.1297870050882731, "leaf_weight": 4644.707027167082, "leaf_count": 26266}, "right_child": {"leaf_index": 15, "leaf_value": 0.1297870050882731, "leaf_weight": 4647.182695269585, "leaf_count": 26280}}, "right_child": {"leaf_index": 8, "leaf_value": -0.10542574650622093, "leaf_weight": 10240.18648346141, "leaf_count": 209769}}}, "right_child": {"split_index": 5, "split_feature": 23, "split_gain": 26448.900390625, "threshold": 1.0000000180025095e-35, "decision_type": "<=", "default_left": true, "missing_type": "None", "internal_value": 0.114626, "internal_weight": 79280, "internal_count": 524112, "left_child": {"leaf_index": 3, "leaf_value": 0.1297870050882731, "leaf_weight": 74169.95535036922, "leaf_count": 419434}, "right_child": {"leaf_index": 6, "leaf_value": -0.10542574650622093, "leaf_weight": 5110.012636356056, "leaf_count": 104678}}}, "right_child": {"split_index": 3, "split_feature": 23, "split_gain": 54289.69921875, "threshold": 1.0000000180025095e-35, "decision_type": "<=", "default_left": true, "missing_type": "None", "internal_value": 0.123411, "internal_weight": 755045, "internal_count": 4573320, "left_child": {"split_index": 4, "split_feature": 2, "split_gain": 27748.599609375, "threshold": 1.0000000180025095e-35, "decision_type": "<=", "default_left": true, "missing_type": "None", "internal_value": 0.126553, "internal_weight": 744818, "internal_count": 4363824, "left_child": {"split_index": 8, "split_feature": 29, "split_gain": 1380.280029296875, "threshold": 1.0000000180025095e-35, "decision_type": "<=", "default_left": true, "missing_type": "None", "internal_value": 0.128159, "internal_weight": 739697, "internal_count": 4258923, "left_child": {"split_index": 10, "split_feature": 6, "split_gain": 2.3283100447635263e-10, "threshold": 1.0000000180025095e-35, "decision_type": "<=", "default_left": true, "missing_type": "None", "internal_value": 0.129787, "internal_weight": 647743, "internal_count": 3663011, "left_child": {"leaf_index": 2, "leaf_value": 0.1297870050882731, "leaf_weight": 624550.7620598227, "leaf_count": 3531859}, "right_child": {"leaf_index": 11, "leaf_value": 0.1297870050882731, "leaf_weight": 23192.058784246445, "leaf_count": 131152}}, "right_child": {"split_index": 9, "split_feature": 51, "split_gain": 26741.400390625, "threshold": 1.0000000180025095e-35, "decision_type": "<=", "default_left": true, "missing_type": "None", "internal_value": 0.116695, "internal_weight": 91954.6, "internal_count": 595912, "left_child": {"split_index": 16, "split_feature": 9, "split_gain": 9.0949502703358e-13, "threshold": 1.0000000180025095e-35, "decision_type": "<=", "default_left": true, "missing_type": "None", "internal_value": -0.105426, "internal_weight": 5118.41, "internal_count": 104850, "left_child": {"leaf_index": 9, "leaf_value": -0.10542574650622093, "leaf_weight": 2563.988552507013, "leaf_count": 52523}, "right_child": {"leaf_index": 17, "leaf_value": -0.10542574650622093, "leaf_weight": 2554.420520287007, "leaf_count": 52327}}, "right_child": {"leaf_index": 10, "leaf_value": 0.1297870050882731, "leaf_weight": 86836.18069651723, "leaf_count": 491062}}}, "right_child": {"split_index": 15, "split_feature": 9, "split_gain": 9.0949502703358e-13, "threshold": 1.0000000180025095e-35, "decision_type": "<=", "default_left": true, "missing_type": "None", "internal_value": -0.105426,