{"name": "tree", "version": "v4", "num_class": 1, "num_tree_per_iteration": 1, "label_index": 0, "max_feature_idx": 49, "objective": "binary sigmoid:1", "average_output": false, "feature_names": ["Column_0", "Column_1", "Column_2", "Column_3", "Column_4", "Column_5", "Column_6", "Column_7", "Column_8", "Column_9", "Column_10", "Column_11", "Column_12", "Column_13", "Column_14", "Column_15", "Column_16", "Column_17", "Column_18", "Column_19", "Column_20", "Column_21", "Column_22", "Column_23", "Column_24", "Column_25", "Column_26", "Column_27", "Column_28", "Column_29", "Column_30", "Column_31", "Column_32", "Column_33", "Column_34", "Column_35", "Column_36", "Column_37", "Column_38", "Column_39", "Column_40", "Column_41", "Column_42", "Column_43", "Column_44", "Column_45", "Column_46", "Column_47", "Column_48", "Column_49"], "monotone_constraints": [], "feature_infos": {"Column_0": {"min_value": 0, "max_value": 1, "values": []}, "Column_1": {"min_value": 0, "max_value": 1, "values": []}, "Column_2": {"min_value": 0, "max_value": 1, "values": []}, "Column_3": {"min_value": 0, "max_value": 1, "values": []}, "Column_4": {"min_value": 0, "max_value": 1, "values": []}, "Column_5": {"min_value": 0, "max_value": 1, "values": []}, "Column_6": {"min_value": 0, "max_value": 1, "values": []}, "Column_7": {"min_value": 0, "max_value": 1, "values": []}, "Column_8": {"min_value": 0, "max_value": 1, "values": []}, "Column_9": {"min_value": 0, "max_value": 1, "values": []}, "Column_10": {"min_value": 0, "max_value": 1, "values": []}, "Column_11": {"min_value": 0, "max_value": 1, "values": []}, "Column_12": {"min_value": 0, "max_value": 1, "values": []}, "Column_13": {"min_value": 0, "max_value": 1, "values": []}, "Column_14": {"min_value": 0, "max_value": 1, "values": []}, "Column_15": {"min_value": 0, "max_value": 1, "values": []}, "Column_16": {"min_value": 0, "max_value": 1, "values": []}, "Column_17": {"min_value": 0, "max_value": 1, "values": []}, "Column_18": {"min_value": 0, "max_value": 1, "values": []}, "Column_19": {"min_value": 0, "max_value": 1, "values": []}, "Column_20": {"min_value": 0, "max_value": 1, "values": []}, "Column_21": {"min_value": 0, "max_value": 1, "values": []}, "Column_22": {"min_value": 0, "max_value": 1, "values": []}, "Column_23": {"min_value": 0, "max_value": 1, "values": []}, "Column_24": {"min_value": 0, "max_value": 1, "values": []}, "Column_25": {"min_value": 0, "max_value": 1, "values": []}, "Column_26": {"min_value": 0, "max_value": 1, "values": []}, "Column_27": {"min_value": 0, "max_value": 1, "values": []}, "Column_28": {"min_value": 0, "max_value": 1, "values": []}, "Column_29": {"min_value": 0, "max_value": 1, "values": []}, "Column_30": {"min_value": 0, "max_value": 1, "values": []}, "Column_31": {"min_value": 0, "max_value": 1, "values": []}, "Column_32": {"min_value": 0, "max_value": 1, "values": []}, "Column_33": {"min_value": 0, "max_value": 1, "values": []}, "Column_34": {"min_value": 0, "max_value": 1, "values": []}, "Column_35": {"min_value": 0, "max_value": 1, "values": []}, "Column_36": {"min_value": 0, "max_value": 1, "values": []}, "Column_37": {"min_value": 0, "max_value": 1, "values": []}, "Column_38": {"min_value": 0, "max_value": 1, "values": []}, "Column_39": {"min_value": 0, "max_value": 1, "values": []}, "Column_40": {"min_value": 0, "max_value": 1, "values": []}, "Column_41": {"min_value": 0, "max_value": 1, "values": []}, "Column_42": {"min_value": 0, "max_value": 1, "values": []}, "Column_43": {"min_value": 0, "max_value": 1, "values": []}, "Column_44": {"min_value": 0, "max_value": 1, "values": []}, "Column_45": {"min_value": 0, "max_value": 1, "values": []}, "Column_46": {"min_value": 0, "max_value": 1, "values": []}, "Column_47": {"min_value": 0, "max_value": 1, "values": []}, "Column_48": {"min_value": 0, "max_value": 1, "values": []}, "Column_49": {"min_value": 0, "max_value": 1, "values": []}}, "tree_info": [{"tree_index": 0, "num_leaves": 21, "num_cat": 0, "shrinkage": 1, "tree_structure": {"split_index": 0, "split_feature": 25, "split_gain": 9634070, "threshold": 1.0000000180025095e-35, "decision_type": "<=", "default_left": true, "missing_type": "None", "internal_value": -1.85154, "internal_weight": 0, "internal_count": 26886144, "left_child": {"split_index": 4, "split_feature": 6, "split_gain": 1416280, "threshold": 1.0000000180025095e-35, "decision_type": "<=", "default_left": true, "missing_type": "None", "internal_value": -1.9527999999999999, "internal_weight": 2360970, "internal_count": 20131182, "left_child": {"split_index": 6, "split_feature": 42, "split_gain": 348410, "threshold": 1.0000000180025095e-35, "decision_type": "<=", "default_left": true, "missing_type": "None", "internal_value": -1.95995, "internal_weight": 2340990, "internal_count": 19960761, "left_child": {"split_index": 11, "split_feature": 43, "split_gain": 6917.10986328125, "threshold": 1.0000000180025095e-35, "decision_type": "<=", "default_left": true, "missing_type": "None", "internal_value": -1.9644, "internal_weight": 2310250, "internal_count": 19698667, "left_child": {"split_index": 12, "split_feature": 45, "split_gain": 103324, "threshold": 1.0000000180025095e-35, "decision_type": "<=", "default_left": true, "missing_type": "None", "internal_value": -1.9538600000000002, "internal_weight": 490353, "internal_count": 4181067, "left_child": {"leaf_index": 0, "leaf_value": -1.967243766198473, "leaf_weight": 451945.38190243393, "leaf_count": 3853577}, "right_child": {"split_index": 13, "split_feature": 0, "split_gain": 447396, "threshold": 1.0000000180025095e-35, "decision_type": "<=", "default_left": true, "missing_type": "None", "internal_value": -1.7964, "internal_weight": 38407.8, "internal_count": 327490, "left_child": {"split_index": 16, "split_feature": 30, "split_gain": 5.820770254683083e-11, "threshold": 1.0000000180025095e-35, "decision_type": "<=", "default_left": true, "missing_type": "None", "internal_value": -1.11458, "internal_weight": 7695.64, "internal_count": 65618, "left_child": {"leaf_index": 13, "leaf_value": -1.1145794754531884, "leaf_weight": 770.6432502791286, "leaf_count": 6571}, "right_child": {"leaf_index": 17, "leaf_value": -1.1145794754531884, "leaf_weight": 6924.9995433315635, "leaf_count": 59047}}, "right_child": {"split_index": 17, "split_feature": 10, "split_gain": 7.27596021626864e-12, "threshold": 1.0000000180025095e-35, "decision_type": "<=", "default_left": true, "missing_type": "None", "internal_value": -1.9672399999999999, "internal_weight": 30712.2, "internal_count": 261872, "left_child": {"leaf_index": 14, "leaf_value": -1.967243766198473, "leaf_weight": 18395.398637883365, "leaf_count": 156851}, "right_child": {"leaf_index": 18, "leaf_value": -1.967243766198473, "leaf_weight": 12316.804867990315, "leaf_count": 105021}}}}, "right_child": {"leaf_index": 12, "leaf_value": -1.967243766198473, "leaf_weight": 1819895.5563127995, "leaf_count": 15517600}}, "right_child": {"split_index": 7, "split_feature": 45, "split_gain": 536702, "threshold": 1.0000000180025095e-35, "decision_type": "<=", "default_left": true, "missing_type": "None", "internal_value": -1.6255, "internal_weight": 30738.2, "internal_count": 262094, "left_child": {"split_index": 18, "split_feature": 0, "split_gain": 3.63798010813432e-12, "threshold": 1.0000000180025095e-35, "decision_type": "<=", "default_left": true, "missing_type": "None", "internal_value": -1.9672399999999999, "internal_weight": 18418.5, "internal_count": 157048, "left_child": {"leaf_index": 7, "leaf_value": -1.967243766198473, "leaf_weight": 12281.855592601001, "leaf_count": 104723}, "right_child": {"leaf_index": 19, "leaf_value": -1.967243766198473, "leaf_weight": 6136.647096462548, "leaf_count": 52325}}, "right_child": {"leaf_index": 8, "leaf_value": -1.1145794754531884, "leaf_weight": 12319.736854180694, "leaf_count": 105046}}}, "right_child": {"leaf_index": 5, "leaf_value": -1.1145794754531884, "leaf_weight": 19986.880742020905, "leaf_count": 170421}}, "right_child": {"split_index": 1, "split_feature": 0, "split_gain": 7350880, "threshold": 1.0000000180025095e-35, "decision_type": "<=", "default_left": true, "missing_type": "None", "internal_value": -1.54979, "internal_weight": 792218, "internal_count": 6754962, "left_child": {"split_index": 2, "split_feature": 7, "split_gain": 3901240, "threshold": 1.0000000180025095e-35, "decision_type": "<=", "default_left": true, "missing_type": "None", "internal_value": -1.32752, "internal_weight": 516962, "internal_count": 4407950, "left_child": {"split_index": 3, "split_feature": 39, "split_gain": 1730060, "threshold": 1.0000000180025095e-35, "decision_type": "<=", "default_left": true, "missing_type": "None", "internal_value": -1.6819199999999999, "internal_weight": 194031, "internal_count": 1654435, "left_child": {"split_index": 8, "split_feature": 27, "split_gain": 202589, "threshold": 1.0000000180025095e-35, "decision_type": "<=", "default_left": true, "missing_type": "None", "internal_value": -1.8706399999999999, "internal_weight": 138648, "internal_count": 1182204, "left_child": {"split_index": 9, "split_feature": 23, "split_gain": 215718, "threshold": 1.0000000180025095e-35, "decision_type": "<=", "default_left": true, "missing_type": "None", "internal_value": -1.88997, "internal_weight": 135192, "internal_count": 1152738, "left_child": {"leaf_index": 1, "leaf_value": -1.967243766198473, "leaf_weight": 98374.000659585, "leaf_count": 838800}, "right_child": {"split_index": 10, "split_feature": 5, "split_gain": 594366, "threshold": 1.0000000180025095e-35, "decision_type": "<=", "default_left": true, "missing_type": "None", "internal_value": -1.68349, "internal_weight": 36818.5, "internal_count": 313938, "left_child": {"leaf_index": 10, "leaf_value": -1.1145794754531884, "leaf_weight": 12252.770289592445, "leaf_count": 104475}, "right_child": {"leaf_index": 11, "leaf_value": -1.967243766198473, "leaf_weight": 24565.70493581146, "leaf_count": 209463}}}, "right_child": {"leaf_index": 9, "leaf_value": -1.1145794754531884, "leaf_weight": 3455.756203427911, "leaf_count": 29466}}, "right_child": {"split_index": 5, "split_feature": 5, "split_gain": 398187, "threshold": 1.0000000180025095e-35, "decision_type": "<=", "default_left": true, "missing_type": "None", "internal_value": -1.20946, "internal_weight": 55383, "internal_count": 472231, "left_child": {"split_index": 19, "split_feature": 4, "split_gain": 1.81899005406716e-12, "threshold": 1.0000000180025095e-35, "decision_type": "<=", "default_left": true, "missing_type": "None", "internal_value": -1.9672399999999999, "internal_weight": 6162.57, "internal_count": 52546, "left_child": {"leaf_index": 4, "leaf_value": -1.967243766198473, "leaf_weight": 3079.5237354785204, "leaf_count": 26258}, "right_child": {"leaf_index": 20, "leaf_value": -1.967243766198473, "leaf_weight": 3083.042118906975, "leaf_count": 26288}}, "right_child": {"leaf_index": 6, "leaf_value": -1.1145794754531884, "leaf_weight": 49220.424972362816, "leaf_count": 419685}}}, "right_child": {"split_index": 14, "split_feature": 45, "split_gain": 3.725290076417309e-09, "threshold": 1.0000000180025095e-35, "decision_type": "<=", "default_left": true, "missing_type": "None", "internal_value": -1.11458, "internal_weight": 322931, "internal_count": 2753515, "left_child": {"leaf_index": 3, "leaf_value": -1.1145794754531884, "leaf_weight": 49186.06209421158, "leaf_count": 419392}, "right_child": {"leaf_index": 15, "leaf_value": -1.1145794754531884, "leaf_weight": 273744.6561058089, "leaf_count": 2334123}}}, "right_child": {"split_index": 15, "split_feature": 2, "split_gain": 5.820770254683083e-11, "threshold": 1.0000000180025095e-35, "decision_type": "<=", "default_left": true, "missing_type": "None", "internal_value": -1.9672399999999999, "internal_weight": 275256, "internal_count": 2347012, "left_child": {"leaf_index": 2, "leaf_value": -1.967243766198473, "leaf_weight": 269089.01387383044, "leaf_count": 2294426}, "right_child": {"leaf_index": 16, "leaf_value": -1.967243766198473, "leaf_weight": 6167.257032290101, "leaf_count": 52586}}}}}, {"tree_index": 1, "num_leaves": 22, "num_cat": 0, "shrinkage": 0.1, "tree_structure": {"split_index": 0, "split_feature": 25, "split_gain": 6478620, "threshold": 1.0000000180025095e-35, "decision_type": "<=", "default_left": true, "missing_type": "None", "internal_value": 0, "internal_weight": 0, "internal_count": 26886144, "left_child": {"split_index": 3, "split_feature": 6, "split_gain": 816371, "threshold": 1.0000000180025095e-35, "decision_type": "<=", "default_left": true, "missing_type": "None", "internal_value": -0.0989789, "internal_weight": 2193520, "internal_count": 20131182, "left_child": {"split_index": 5, "split_feature": 42, "split_gain": 271310, "threshold": 1.0000000180025095e-35, "decision_type": "<=", "default_left": true, "missing_type": "None", "internal_value": -0.106366, "internal_weight": 2161820, "internal_count": 19960761, "left_child": {"split_index": 11, "split_feature": 43, "split_gain": 6922.4599609375, "threshold": 1.0000000180025095e-35, "decision_type": "<=", "default_left": true, "missing_type": "None", "internal_value": -0.111005, "internal_weight": 2125380, "internal_count": 19698667, "left_child": {"split_index": 12, "split_feature": 45, "split_gain": 90458.6015625, "threshold": 1.0000000180025095e-35, "decision_type": "<=", "default_left": true, "missing_type": "None", "internal_value": -0.100073, "internal_weight": 455165, "internal_count": 4181067, "left_child": {"leaf_index": 0, "leaf_value": -0.1139841706553372, "leaf_weight": 414774.272119388, "leaf_count": 3853577}, "right_child": {"split_index": 13, "split_feature": 0, "split_gain": 229249, "threshold": 1.0000000180025095e-35, "decision_type": "<=", "default_left": true, "missing_type": "None", "internal_value": 0.0427849, "internal_weight": 40391.2, "internal_count": 327490, "left_child": {"leaf_index": 13, "leaf_value": 0.4048286127672393, "leaf_weight": 12204.959045052528, "leaf_count": 65618}, "right_child": {"split_index": 16, "split_feature": 2, "split_gain": 7.27596021626864e-12, "threshold": 1.0000000180025095e-35, "decision_type": "<=", "default_left": true, "missing_type": "None", "internal_value": -0.113984, "internal_weight": 28186.2, "internal_count": 261872, "left_child": {"leaf_index": 14, "leaf_value": -0.1139841706553372, "leaf_weight": 14081.700721532106, "leaf_count": 130830}, "right_child": {"leaf_index": 17, "leaf_value": -0.1139841706553372, "leaf_weight": 14104.519039601088, "leaf_count": 131042}}}}, "right_child": {"leaf_index": 12, "leaf_value": -0.1139841706553372, "leaf_weight": 1670214.775788784, "leaf_count": 15517600}}, "right_child": {"split_index": 6, "split_feature": 45, "split_gain": 243944, "threshold": 1.0000000180025095e-35, "decision_type": "<=", "default_left": true, "missing_type": "None", "internal_value": 0.164178, "internal_weight": 36442.2, "internal_count": 262094, "left_child": {"split_index": 17, "split_feature": 12, "split_gain": 3.63798010813432e-12, "threshold": 1.0000000180025095e-35, "decision_type": "<=", "default_left": true, "missing_type": "None", "internal_value": -0.113984, "internal_weight": 16903.6, "internal_count": 157048, "left_child": {"leaf_index": 6, "leaf_value": -0.1139841706553372, "leaf_weight": 11267.513248741627, "leaf_count": 104684}, "right_child": {"leaf_index": 18, "leaf_value": -0.1139841706553372, "leaf_weight": 5636.124563038349, "leaf_count": 52364}}, "right_child": {"leaf_index": 7, "leaf_value": 0.4048286127672393, "leaf_weight": 19538.57368171215, "leaf_count": 105046}}}, "right_child": {"split_index": 14, "split_feature": 2, "split_gain": 1.1641500263781523e-10, "threshold": 1.0000000180025095e-35, "decision_type": "<=", "default_left": true, "missing_type": "None", "internal_value": 0.404829, "internal_weight": 31698.3, "internal_count": 170421, "left_child": {"leaf_index": 4, "leaf_value": 0.4048286127672393, "leaf_weight": 30476.499580144882, "leaf_count": 163852}, "right_child": {"leaf_index": 15, "leaf_value": 0.4048286127672393, "leaf_weight": 1221.8351057171822, "leaf_count": 6569}}}, "right_child": {"split_index": 1, "split_feature": 0, "split_gain": 3556080, "threshold": 1.0000000180025095e-35, "decision_type": "<=", "default_left": true, "missing_type": "None", "internal_value": 0.209608, "internal_weight": 986230, "internal_count": 6754962, "left_child": {"split_index": 2, "split_feature": 7, "split_gain": 1191190, "threshold": 1.0000000180025095e-35, "decision_type": "<=", "default_left": true, "missing_type": "None", "internal_value": 0.321036, "internal_weight": 733613, "internal_count": 4407950, "left_child": {"split_index": 4, "split_feature": 39, "split_gain": 791684, "threshold": 1.0000000180025095e-35, "decision_type": "<=", "default_left": true, "missing_type": "None", "internal_value": 0.127255, "internal_weight": 221459, "internal_count": 1654435, "left_child": {"split_index": 8, "split_feature": 23, "split_gain": 129290, "threshold": 1.0000000180025095e-35, "decision_type": "<=", "default_left": true, "missing_type": "None", "internal_value": -0.0201474, "internal_weight": 137741, "internal_count": 1182204, "left_child": {"split_index": 10, "split_feature": 27, "split_gain": 139079, "threshold": 1.0000000180025095e-35, "decision_type": "<=", "default_left": true, "missing_type": "None", "internal_value": -0.0842918, "internal_weight": 95763.7, "internal_count": 868266, "left_child": {"leaf_index": 1, "leaf_value": -0.1139841706553372, "leaf_weight": 90283.04337859154, "leaf_count": 838800}, "right_child": {"leaf_index": 11, "leaf_value": 0.4048286127672393, "leaf_weight": 5480.680959820747, "leaf_count": 29466}}, "right_child": {"split_index": 9, "split_feature": 5, "split_gain": 280921, "threshold": 1.0000000180025095e-35, "decision_type": "<=", "default_left": true, "missing_type": "None", "internal_value": 0.126186, "internal_weight": 41977.6, "internal_count": 313938, "left_child": {"leaf_index": 9, "leaf_value": 0.4048286127672393, "leaf_weight": 19432.367585599422, "leaf_count": 104475}, "right_child": {"leaf_index": 10, "leaf_value": -0.1139841706553372, "leaf_weight": 22545.251687183976, "leaf_count": 209463}}}, "right_child": {"split_index": 7, "split_feature": 5, "split_gain": 141949, "threshold": 1.0000000180025095e-35, "decision_type": "<=", "default_left": true, "missing_type": "None", "internal_value": 0.369779, "internal_weight": 83717.2, "internal_count": 472231, "left_child": {"split_index": 19, "split_feature": 4, "split_gain": 9.0949502703358e-13, "threshold": 1.0000000180025095e-35, "decision_type": "<=", "default_left": true, "missing_type": "None", "internal_value": -0.113984, "internal_weight": 5655.71, "internal_count": 52546, "left_child": {"split_index": 20, "split_feature": 10, "split_gain": 4.5474699852075806e-13, "threshold": 1.0000000180025095e-35, "decision_type": "<=", "default_left": true, "missing_type": "None", "internal_value": -0.113984, "internal_weight": 2826.24, "internal_count": 26258, "left_child": {"leaf_index": 5, "leaf_value": -0.1139841706553372, "leaf_weight": 1410.5380108207464, "leaf_count": 13105}, "right_child": {"leaf_index": 21, "leaf_value": -0.1139841706553372, "leaf_weight": 1415.7044224590063, "leaf_count": 13153}}, "right_child": {"leaf_index": 20, "leaf_value": -0.1139841706553372, "leaf_weight": 2829.471440553665, "leaf_count": 26288}}, "right_child": {"leaf_index": 8, "leaf_value": 0.4048286127672393, "leaf_weight": 78061.48064285517, "leaf_count": 419685}}}, "right_child": {"leaf_index": 3, "leaf_value": 0.4048286127672393, "leaf_weight": 512154.2534813285, "leaf_count": 2753515}}, "right_child": {"split_index": 15, "split_feature": 1, "split_gain": 5.820770254683083e-11, "threshold": 1.0000000180025095e-35, "decision_type": "<=", "default_left": true, "missing_type": "None", "internal_value": -0.113984, "internal_weight": 252617, "internal_count": 2347012, "left_child": {"split_index": 18, "split_feature": 30, "split_gain": 3.63798010813432e-12, "threshold": 1.0000000180025095e-35, "decision_type": "<=", "default_left": true, "missing_type": "None", "internal_value": -0.113984, "internal_weight": 22610.4, "internal_count": 210068, "left_child": {"leaf_index": 2, "leaf_value": -0.1139841706553372, "leaf_weight": 11302.278893724084, "leaf_count": 105007}, "right_child": {"leaf_index": 19, "leaf_value": -0.1139841706553372, "leaf_weight": 11308.091106817126, "leaf_count": 105061}}, "right_child": {"leaf_index": 16, "leaf_value": -0.1139841706553372, "leaf_weight": 230006.92399811745, "leaf_count": 2136944}}}}}, {"tree_index": 2, "num_leaves": 23, "num_cat": 0, "shrinkage": 0.1, "tree_structure": {"split_index": 0, "split_feature": 25, "split_gain": 5044920, "threshold": 1.0000000180025095e-35, "decision_type": "<=", "default_left": true, "missing_type": "None", "internal_value": 0, "internal_weight": 0, "internal_count": 26886144, "left_child": {"split_index": 3, "split_feature": 6, "split_gain": 615088, "threshold": 1.0000000180025095e-35, "decision_type": "<=", "default_left": true, "missing_type": "None", "internal_value": -0.0970171, "internal_weight": 2027240, "internal_count": 20131182, "left_child": {"split_index": 5, "split_feature": 42, "split_gain": 230247, "threshold": 1.0000000180025095e-35, "decision_type": "<=", "default_left": true, "missing_type": "None", "internal_value": -0.104595, "internal_weight": 1989580.0000000002, "internal_count": 19960761, "left_child": {"split_index": 11, "split_feature": 43, "split_gain": 6784.5, "threshold": 1.0000000180025095e-35, "decision_type": "<=", "default_left": true, "missing_type": "None", "internal_value": -0.109387, "internal_weight": 1950870, "internal_count": 19698667, "left_child": {"split_index": 12, "split_feature": 45, "split_gain": 81503.3984375, "threshold": 1.0000000180025095e-35, "decision_type": "<=", "default_left": true, "missing_type": "None", "internal_value": -0.098135, "internal_weight": 420400, "internal_count": 4181067, "left_child": {"split_index": 15, "split_feature": 13, "split_gain": 1.1641500263781523e-10, "threshold": 1.0000000180025095e-35, "decision_type": "<=", "default_left": true, "missing_type": "None", "internal_value": -0.112478, "internal_weight": 380072, "internal_count": 3853577, "left_child": {"leaf_index": 0, "leaf_value": -0.11247769432396748, "leaf_weight": 209428.24980184436, "leaf_count": 2123410}, "right_child": {"leaf_index": 16, "leaf_value": -0.11247769432396748, "leaf_weight": 170643.37394799292, "leaf_count": 1730167}}, "right_child": {"split_index": 13, "split_feature": 0, "split_gain": 160577, "threshold": 1.0000000180025095e-35, "decision_type": "<=", "default_left": true, "missing_type": "None", "internal_value": 0.0370361, "internal_weight": 40328.4, "internal_count": 327490, "left_child": {"leaf_index": 13, "leaf_value": 0.30334843911256104, "leaf_weight": 14500.410580188036, "leaf_count": 65618}, "right_child": {"leaf_index": 14, "leaf_value": -0.11247769432396748, "leaf_weight": 25827.981704950333, "leaf_count": 261872}}}, "right_child": {"split_index": 14, "split_feature": 26, "split_gain": 2.3283100447635263e-10, "threshold": 1.0000000180025095e-35, "decision_type": "<=", "default_left": true, "missing_type": "None", "internal_value": -0.112478, "internal_weight": 1530470, "internal_count": 15517600, "left_child": {"leaf_index": 12, "leaf_value": -0.11247769432396748, "leaf_weight": 992555.8287937045, "leaf_count": 10063604}, "right_child": {"leaf_index": 15, "leaf_value": -0.11247769432396748, "leaf_weight": 537918.1772273183, "leaf_count": 5453996}}}, "right_child": {"split_index": 6, "split_feature": 45, "split_gain": 160640, "threshold": 1.0000000180025095e-35, "decision_type": "<=", "default_left": true, "missing_type": "None", "internal_value": 0.136929, "internal_weight": 38702.7, "internal_count": 262094, "left_child": {"leaf_index": 6, "leaf_value": -0.11247769432396748, "leaf_weight": 15489.372177243233, "leaf_count": 157048}, "right_child": {"split_index": 17, "split_feature": 4, "split_gain": 2.9103799231711136e-11, "threshold": 1.0000000180025095e-35, "decision_type": "<=", "default_left": true, "missing_type": "None", "internal_value": 0.303348, "internal_weight": 23213.3, "internal_count": 105046, "left_child": {"leaf_index": 7, "leaf_value": 0.30334843911256104, "leaf_weight": 11639.795886650681, "leaf_count": 52673}, "right_child": {"leaf_index": 18, "leaf_value": 0.30334843911256104, "leaf_weight": 11573.501223996282, "leaf_count": 52373}}}}, "right_child": {"split_index": 16, "split_feature": 4, "split_gain": 5.820770254683083e-11, "threshold": 1.0000000180025095e-35, "decision_type": "<=", "default_left": true, "missing_type": "None", "internal_value": 0.303348, "internal_weight": 37660, "internal_count": 170421, "left_child": {"leaf_index": 4, "leaf_value": 0.30334843911256104, "leaf_weight": 18808.679723888636, "leaf_count": 85114}, "right_child": {"leaf_index": 17, "leaf_value": 0.30334843911256104, "leaf_weight": 18851.3292901963, "leaf_count": 85307}}}, "right_child": {"split_index": 1, "split_feature": 0, "split_gain": 2378260, "threshold": 1.0000000180025095e-35, "decision_type": "<=", "default_left": true, "missing_type": "None", "internal_value": 0.171304, "internal_weight": 1070870, "internal_count": 6754962, "left_child": {"split_index": 2, "split_feature": 7, "split_gain": 639858, "threshold": 1.0000000180025095e-35, "decision_type": "<=", "default_left": true, "missing_type": "None", "internal_value": 0.249563, "internal_weight": 839390, "internal_count": 4407950, "left_child": {"split_index": 4, "split_feature": 39, "split_gain": 511881, "threshold": 1.0000000180025095e-35, "decision_type": "<=", "default_left": true, "missing_type": "None", "internal_value": 0.107834, "internal_weight": 230912, "internal_count": 1654435, "left_child": {"split_index": 7, "split_feature": 23, "split_gain": 104987, "threshold": 1.0000000180025095e-35, "decision_type": "<=", "default_left": true, "missing_type": "None", "internal_value": -0.0199283, "internal_weight": 132987, "internal_count": 1182204, "left_child": {"split_index": 9, "split_feature": 27, "split_gain": 104375, "threshold": 1.0000000180025095e-35, "decision_type": "<=", "default_left": true, "missing_type": "None", "internal_value": -0.0821369, "internal_weight": 89240.9, "internal_count": 868266, "left_child": {"split_index": 18, "split_feature": 1, "split_gain": 1.4551899615855568e-11, "threshold": 1.0000000180025095e-35, "decision_type": "<=", "default_left": true, "missing_type": "None", "internal_value": -0.112478, "internal_weight": 82729.4, "internal_count": 838800, "left_child": {"split_index": 20, "split_feature": 8, "split_gain": 3.63798010813432e-12, "threshold": 1.0000000180025095e-35, "decision_type": "<=", "default_left": true, "missing_type": "None", "internal_value": -0.112478, "internal_weight": 20688.9, "internal_count": 209766, "left_child": {"leaf_index": 1, "leaf_value": -0.11247769432396748, "leaf_weight": 10339.891695186496, "leaf_count": 104837}, "right_child": {"leaf_index": 21, "leaf_value": -0.11247769432396748, "leaf_weight": 10348.965495809913, "leaf_count": 104929}}, "right_child": {"leaf_index": 19, "leaf_value": -0.11247769432396748, "leaf_weight": 62040.533710330725, "leaf_count": 629034}}, "right_child": {"split_index": 19, "split_feature": 17, "split_gain": 1.4551899615855568e-11, "threshold": 1.0000000180025095e-35, "decision_type": "<=", "default_left": true, "missing_type": "None", "internal_value": 0.303348, "internal_weight": 6511.46, "internal_count": 29466, "left_child": {"leaf_index": 10, "leaf_value": 0.30334843911256104, "leaf_weight": 3248.4384700655937, "leaf_count": 14700}, "right_child": {"leaf_index": 20, "leaf_value": 0.30334843911256104, "leaf_weight": 3263.0232958495617, "leaf_count": 14766}}}, "right_child": {"split_index": 8, "split_feature": 5, "split_gain": 188522, "threshold": 1.0000000180025095e-35, "decision_type": "<=", "default_left": true, "missing_type": "None", "internal_value": 0.106976, "internal_weight": 43746.1, "internal_count": 313938, "left_child": {"leaf_index": 8, "leaf_value": 0.30334843911256104, "leaf_weight": 23087.116269394755, "leaf_count": 104475}, "right_child": {"split_index": 21, "split_feature": 10, "split_gain": 3.63798010813432e-12, "threshold": 1.0000000180025095e-35, "decision_type": "<=", "default_left": true, "missing_type": "None", "internal_value": -0.112478, "internal_weight": 20659, "internal_count": 209463, "left_child": {"leaf_index": 9, "leaf_value": -0.11247769432396748, "leaf_weight": 10324.702941969037, "leaf_count": 104683}, "right_child": {"leaf_index": 22, "leaf_value": -0.11247769432396748, "leaf_weight": 10334.269883930683, "leaf_count": 104780}}}}, "right_child": {"split_index": 10, "split_feature": 5, "split_gain": 84869.1015625, "threshold": 1.0000000180025095e-35, "decision_type": "<=", "default_left": true, "missing_type": "None", "internal_value": 0.281342, "internal_weight": 97925.4, "internal_count": 472231, "left_child": {"leaf_index": 5, "leaf_value": -0.11247769432396748, "leaf_weight": 5182.520951718092, "leaf_count": 52546}, "right_child": {"leaf_index": 11, "leaf_value": 0.30334843911256104, "leaf_weight": 92742.9183203727, "leaf_count": 419685}}}, "right_child": {"leaf_index": 3, "leaf_value": 0.30334843911256104, "leaf_weight": 608477.8267960995, "leaf_count": 2753515}}, "right_child": {"leaf_index": 2, "leaf_value": -0.11247769432396748, "leaf_weight": 231481.72770398855, "leaf_count": 2347012}}}}, {"tree_index": 3, "num_leaves": 35, "num_cat": 0, "shrinkage": 0.1, "tree_structure": {"split_index": 0, "split_feature": 25, "split_gain": 4122590, "threshold": 1.0000000180025095e-35, "decision_type": "<=", "default_left": true, "missing_type": "None", "internal_value": 0, "internal_weight": 0, "internal_count": 26886144, "left_child": {"split_index": 2, "split_feature": 6, "split_gain": 498958, "threshold": 1.0000000180025095e-35, "decision_type": "<=", "default_left": true, "missing_type": "None", "internal_value": -0.0953204, "internal_weight": 1867970.0000000002, "internal_count": 20131182, "left_child": {"split_index": 5, "split_feature": 42, "split_gain": 200426, "threshold": 1.0000000180025095e-35, "decision_type": "<=", "default_left": true, "missing_type": "None", "internal_value": -0.103052, "internal_weight": 1827080, "internal_count": 19960761, "left_child": {"split_index": 15, "split_feature": 43, "split_gain": 6547.89990234375, "threshold": 1.0000000180025095e-35, "decision_type": "<=", "default_left": true, "missing_type": "None", "internal_value": -0.107968, "internal_weight": 1787700, "internal_count": 19698667, "left_child": {"split_index": 16, "split_feature": 45, "split_gain": 73817.1015625, "threshold": 1.0000000180025095e-35, "decision_type": "<=", "default_left": true, "missing_type": "None", "internal_value": -0.0964577, "internal_weight": 387180, "internal_count": 4181067, "left_child": {"split_index": 24, "split_feature": 12, "split_gain": 1.1641500263781523e-10, "threshold": 1.0000000180025095e-35, "decision_type": "<=", "default_left": true, "missing_type": "None", "internal_value": -0.11115, "internal_weight": 347799, "internal_count": 3853577, "left_child": {"split_index": 26, "split_feature": 33, "split_gain": 2.9103799231711136e-11, "threshold": 1.0000000180025095e-35, "decision_type": "<=", "default_left": true, "missing_type": "None", "internal_value": -0.11115, "internal_weight": 173881, "internal_count": 1926587, "left_child": {"leaf_index": 0, "leaf_value": -0.11115027725779446, "leaf_weight": 171509.4079001248, "leaf_count": 1900305}, "right_child": {"leaf_index": 27, "leaf_value": -0.11115027725779446, "leaf_weight": 2372.0456760525703, "leaf_count": 26282}}, "right_child": {"leaf_index": 25, "leaf_value": -0.11115027725779446, "leaf_weight": 173917.8257855773, "leaf_count": 1926990}}, "right_child": {"split_index": 17, "split_feature": 0, "split_gain": 123351, "threshold": 1.0000000180025095e-35, "decision_type": "<=", "default_left": true, "missing_type": "None", "internal_value": 0.0333043, "internal_weight": 39380.3, "internal_count": 327490, "left_child": {"leaf_index": 17, "leaf_value": 0.25014065299828825, "leaf_weight": 15745.36478355527, "leaf_count": 65618}, "right_child": {"leaf_index": 18, "leaf_value": -0.11115027725779446, "leaf_weight": 23634.896327495575, "leaf_count": 261872}}}, "right_child": {"split_index": 22, "split_feature": 3, "split_gain": 2.3283100447635263e-10, "threshold": 1.0000000180025095e-35, "decision_type": "<=", "default_left": true, "missing_type": "None", "internal_value": -0.11115, "internal_weight": 1400520, "internal_count": 15517600, "left_child": {"leaf_index": 16, "leaf_value": -0.11115027725779446, "leaf_weight": 160823.3791334927, "leaf_count": 1781905}, "right_child": {"leaf_index": 23, "leaf_value": -0.11115027725779446, "leaf_weight": 1239696.2153689563, "leaf_count": 13735695}}}, "right_child": {"split_index": 6, "split_feature": 45, "split_gain": 118424, "threshold": 1.0000000180025095e-35, "decision_type": "<=", "default_left": true, "missing_type": "None", "internal_value": 0.120102, "internal_weight": 39380.5, "internal_count": 262094, "left_child": {"split_index": 28, "split_feature": 2, "split_gain": 3.63798010813432e-12, "threshold": 1.0000000180025095e-35, "decision_type": "<=", "default_left": true, "missing_type": "None", "internal_value": -0.11115, "internal_weight": 14174.2, "internal_count": 157048, "left_child": {"split_index": 32, "split_feature": 21, "split_gain": 4.5474699852075806e-13, "threshold": 1.0000000180025095e-35, "decision_type": "<=", "default_left": true, "missing_type": "None", "internal_value": -0.11115, "internal_weight": 2356.7, "internal_count": 26112, "left_child": {"leaf_index": 6, "leaf_value": -0.11115027725779446, "leaf_weight": 1169.2356644570827, "leaf_count": 12955}, "right_child": {"leaf_index": 33, "leaf_value": -0.11115027725779446, "leaf_weight": 1187.466895967722, "leaf_count": 13157}}, "right_child": {"leaf_index": 29, "leaf_value": -0.11115027725779446, "leaf_weight": 11817.448163747787, "leaf_count": 130936}}, "right_child": {"leaf_index": 7, "leaf_value": 0.25014065299828825, "leaf_weight": 25206.309077590704, "leaf_count": 105046}}}, "right_child": {"split_index": 25, "split_feature": 2, "split_gain": 5.820770254683083e-11, "threshold": 1.0000000180025095e-35, "decision_type": "<=", "default_left": true, "missing_type": "None", "internal_value": 0.250141, "internal_weight": 40893.4, "internal_count": 170421, "left_child": {"leaf_index": 3, "leaf_value": 0.25014065299828825, "leaf_weight": 39317.10065096617, "leaf_count": 163852}, "right_child": {"leaf_index": 26, "leaf_value": 0.25014065299828825, "leaf_weight": 1576.2641540914774, "leaf_count": 6569}}}, "right_child": {"split_index": 1, "split_feature": 0, "split_gain": 1765170, "threshold": 1.0000000180025095e-35, "decision_type": "<=", "default_left": true, "missing_type": "None", "internal_value": 0.148374, "internal_weight": 1104740, "internal_count": 6754962, "left_child": {"split_index": 3, "split_feature": 48, "split_gain": 434270, "threshold": 1.0000000180025095e-35, "decision_type": "<=", "default_left": true, "missing_type": "None", "internal_value": 0.209941, "internal_weight": 892917, "internal_count": 4407950, "left_child": {"split_index": 27, "split_feature": 22, "split_gain": 7.27596021626864e-12, "threshold": 1.0000000180025095e-35, "decision_type": "<=", "default_left": true, "missing_type": "None", "internal_value": -0.11115, "internal_weight": 40224, "internal_count": 445677, "left_child": {"leaf_index": 1, "leaf_value": -0.11115027725779446, "leaf_weight": 30758.79516708851, "leaf_count": 340804}, "right_child": {"leaf_index": 28, "leaf_value": -0.11115027725779446, "leaf_weight": 9465.168030768633, "leaf_count": 104873}}, "right_child": {"split_index": 4, "split_feature": 29, "split_gain": 289225, "threshold": 1.0000000180025095e-35, "decision_type": "<=", "default_left": true, "missing_type": "None", "internal_value": 0.225088, "internal_weight": 852693, "internal_count": 3962273, "left_child": {"split_index": 30, "split_feature": 4, "split_gain": 3.63798010813432e-12, "threshold": 1.0000000180025095e-35, "decision_type": "<=", "default_left": true, "missing_type": "None", "internal_value": -0.11115, "internal_weight": 24837.3, "internal_count": 275194, "left_child": {"leaf_index": 4, "leaf_value": -0.11115027725779446, "leaf_weight": 14780.023284226656, "leaf_count": 163761}, "right_child": {"leaf_index": 31, "leaf_value": -0.11115027725779446, "leaf_weight": 10057.231786757708, "leaf_count": 111433}}, "right_child": {"split_index": 7, "split_feature": 18, "split_gain": 85911.5, "threshold": 1.0000000180025095e-35, "decision_type": "<=", "default_left": true, "missing_type": "None", "internal_value": 0.235176, "internal_weight": 827856, "internal_count": 3687079, "left_child": {"split_index": 8, "split_feature": 7, "split_gain": 48540.5, "threshold": 1.0000000180025095e-35, "decision_type": "<=", "default_left": true, "missing_type": "None", "internal_value": 0.238172, "internal_weight": 820754, "internal_count": 3608397, "left_child": {"split_index": 9, "split_feature": 37, "split_gain": 114767, "threshold": 1.0000000180025095e-35, "decision_type": "<=", "default_left": true, "missing_type": "None", "internal_value": 0.188758, "internal_weight": 160035, "internal_count": 854882, "left_child": {"split_index": 10, "split_feature": 19, "split_gain": 51220.69921875, "threshold": 1.0000000180025095e-35, "decision_type": "<=", "default_left": true, "missing_type": "None", "internal_value": 0.21267, "internal_weight": 148217, "internal_count": 723946, "left_child": {"split_index": 11, "split_feature": 47, "split_gain": 34369.3984375, "threshold": 1.0000000180025095e-35, "decision_type": "<=", "default_left": true, "missing_type": "None", "internal_value": 0.223342, "internal_weight": 143488, "internal_count": 671551, "left_child": {"split_index": 13, "split_feature": 30, "split_gain": 18805.19921875, "threshold": 1.0000000180025095e-35, "decision_type": "<=", "default_left": true, "missing_type": "None", "internal_value": 0.235901, "internal_weight": 134623, "internal_count": 597712, "left_child": {"split_index": 14, "split_feature": 9, "split_gain": 13878.7001953125, "threshold": 1.0000000180025095e-35, "decision_type": "<=", "default_left": true, "missing_type": "None", "internal_value": 0.0333057, "internal_weight": 4430.82, "internal_count": 36847, "left_child": {"leaf_index": 5, "leaf_value": 0.25014065299828825, "leaf_weight": 1771.587494239211, "leaf_count": 7383}, "right_child": {"leaf_index": 15, "leaf_value": -0.11115027725779446, "leaf_weight": 2659.2326991558075, "leaf_count": 29464}}, "right_child": {"split_index": 18, "split_feature": 5, "split_gain": 2573.6201171875, "threshold": 1.0000000180025095e-35, "decision_type": "<=", "default_left": true, "missing_type": "None", "internal_value": 0.242796, "internal_weight": 130192, "internal_count": 560865, "left_child": {"split_index": 19, "split_feature": 23, "split_gain": 28909.69921875, "threshold": 1.0000000180025095e-35, "decision_type": "<=", "default_left": true, "missing_type": "None", "internal_value": 0.215881, "internal_weight": 27910, "internal_count": 134608, "left_child": {"split_index": 20, "split_feature": 2, "split_gain": 2360.760009765625, "threshold": 1.0000000180025095e-35, "decision_type": "<=", "default_left": true, "missing_type": "None", "internal_value": -0.0864611, "internal_weight": 2840.72, "internal_count": 30133, "left_child": {"leaf_index": 14, "leaf_value": -0.11115027725779446, "leaf_weight": 2646.597192168236, "leaf_count": 29324}, "right_child": {"split_index": 33, "split_feature": 6, "split_gain": 2.273740007038838e-13, "threshold": 1.0000000180025095e-35, "decision_type": "<=", "default_left": true, "missing_type": "None", "internal_value": 0.250141, "internal_weight": 194.124, "internal_count": 809, "left_child": {"leaf_index": 21, "leaf_value": 0.25014065299828825, "leaf_weight": 98.62148992717266, "leaf_count": 411}, "right_child": {"leaf_index": 34, "leaf_value": 0.25014065299828825, "leaf_weight": 95.50207540392876, "leaf_count": 398}}}, "right_child": {"leaf_index": 20, "leaf_value": 0.25014065299828825, "leaf_weight": 25069.2947935313, "leaf_count": 104475}}, "right_child": {"leaf_index": 19, "leaf_value": 0.25014065299828825, "leaf_weight": 102282.48280264437, "leaf_count": 426257}}}, "right_child": {"split_index": 12, "split_feature": 9, "split_gain": 27724.19921875, "threshold": 1.0000000180025095e-35, "decision_type": "<=", "default_left": true, "missing_type": "None", "internal_value": 0.0326227, "internal_weight": 8865.15, "internal_count": 73839, "left_child": {"split_index": 29, "split_feature": 2, "split_gain": 3.63798010813432e-12, "threshold": 1.0000000180025095e-35, "decision_type": "<=", "default_left": true, "missing_type": "None", "internal_value": 0.250141, "internal_weight": 3527.82, "internal_count": 14702, "left_child": {"leaf_index": 12, "leaf_value": 0.25014065299828825, "leaf_weight": 1561.6269013285637, "leaf_count": 6508}, "right_child": {"leaf_index": 30, "leaf_value": 0.25014065299828825, "leaf_weight": 1966.1909694969654, "leaf_count": 8194}}, "right_child": {"leaf_index": 13, "leaf_value": -0.11115027725779446, "leaf_weight": 5337.328405171633, "leaf_count": 59137}}}, "right_child": {"leaf_index": 11, "leaf_value": -0.11115027725779446, "leaf_weight": 4728.838490098715, "leaf_count": 52395}}, "right_child": {"leaf_index": 10, "leaf_value": -0.11115027725779446, "leaf_weight": 11817.448163747787, "leaf_count": 130936}}, "right_child": {"split_index": 21, "split_feature": 47, "split_gain": 9.313230187046884e-10, "threshold": 1.0000000180025095e-35, "decision_type": "<=", "default_left": true, "missing_type": "None", "internal_value": 0.250141, "internal_weight": 660720, "internal_count": 2753515, "left_child": {"leaf_index": 9, "leaf_value": 0.25014065299828825, "leaf_weight": 434222.0217256248, "leaf_count": 1809598}, "right_child": {"split_index": 23, "split_feature": 12, "split_gain": 2.3283100447635263e-10, "threshold": 1.0000000180025095e-35, "decision_type": "<=", "default_left": true, "missing_type": "None", "internal_value": 0.250141, "internal_weight": 226498, "internal_count": 943917, "left_child": {"leaf_index": 22, "leaf_value": 0.25014065299828825, "leaf_weight": 113357.84408994019, "leaf_count": 472413}, "right_child": {"leaf_index": 24, "leaf_value": 0.25014065299828825, "leaf_weight": 113139.72502827644, "leaf_count": 471504}}}}, "right_child": {"split_index": 31, "split_feature": 45, "split_gain": 1.81899005406716e-12, "threshold": 1.0000000180025095e-35, "decision_type": "<=", "default_left": true, "missing_type": "None", "internal_value": -0.11115, "internal_weight": 7101.34, "internal_count": 78682, "left_child": {"leaf_index": 8, "leaf_value": -0.11115027725779446, "leaf_weight": 5915.493103474379, "leaf_count": 65543}, "right_child": {"leaf_index": 32, "leaf_value": -0.11115027725779446, "leaf_weight": 1185.8423307836056, "leaf_count": 13139}}}}}, "right_child": {"leaf_index": 2, "leaf_value": -0.11115027725779446, "leaf_weight": 211826.33232796192, "leaf_count": 2347012}}}}, {"tree_index": 4, "num_leaves": 38, "num_cat": 0, "shrinkage": 0.1, "tree_structure": {"split_index": 0, "split_feature": 25, "split_gain": 3457940, "threshold": 1.0000000180025095e-35, "decision_type": "<=", "default_left": true, "missing_type": "None", "internal_value": 0, "internal_weight": 0, "internal_count": 26886144, "left_child": {"split_index": 2, "split_feature": 6, "split_gain": 419277, "threshold": 1.0000000180025095e-35, "decision_type": "<=", "default_left": true, "missing_type": "None", "internal_value": -0.0938441, "internal_weight": 1717260, "internal_count": 20131182, "left_child": {"split_index": 5, "split_feature": 42, "split_gain": 176665, "threshold": 1.0000000180025095e-35, "decision_type": "<=", "default_left": true, "missing_type": "None", "internal_value": -0.101701, "internal_weight": 1674920, "internal_count": 19960761, "left_child": {"split_index": 15, "split_feature": 43, "split_gain": 6247.740234375, "threshold": 1.0000000180025095e-35, "decision_type": "<=", "default_left": true, "missing_type": "None", "internal_value": -0.106719, "internal_weight": 1635860, "internal_count": 19698667, "left_child": {"split_index": 16, "split_feature": 45, "split_gain": 66956, "threshold": 1.0000000180025095e-35, "decision_type": "<=", "default_left": true, "missing_type": "None", "internal_value": -0.094997, "internal_weight": 355793, "internal_count": 4181067, "left_child": {"leaf_index": 0, "leaf_value": -0.10997731168791287, "leaf_weight": 317886.14956334233, "leaf_count": 3853577}, "right_child": {"split_index": 17, "split_feature": 0, "split_gain": 99288.203125, "threshold": 1.0000000180025095e-35, "decision_type": "<=", "default_left": true, "missing_type": "None", "internal_value": 0.030627, "internal_weight": 37906.9, "internal_count": 327490, "left_child": {"split_index": 26, "split_feature": 10, "split_gain": 1.4551899615855568e-11, "threshold": 1.0000000180025095e-35, "decision_type": "<=", "default_left": true, "missing_type": "None", "internal_value": 0.216913, "internal_weight": 16304.8, "internal_count": 65618, "left_child": {"split_index": 32, "split_feature": 40, "split_gain": 1.81899005406716e-12, "threshold": 1.0000000180025095e-35, "decision_type": "<=", "default_left": true, "missing_type": "None", "internal_value": 0.216913, "internal_weight": 1626.8, "internal_count": 6547, "left_child": {"leaf_index": 17, "leaf_value": 0.216913220194569, "leaf_weight": 809.7965857982635, "leaf_count": 3259}, "right_child": {"leaf_index": 33, "leaf_value": 0.216913220194569, "leaf_weight": 817.0025081634521, "leaf_count": 3288}}, "right_child": {"leaf_index": 27, "leaf_value": 0.216913220194569, "leaf_weight": 14677.966897726059, "leaf_count": 59071}}, "right_child": {"split_index": 28, "split_feature": 16, "split_gain": 7.27596021626864e-12, "threshold": 1.0000000180025095e-35, "decision_type": "<=", "default_left": true, "missing_type": "None", "internal_value": -0.109977, "internal_weight": 21602.1, "internal_count": 261872, "left_child": {"leaf_index": 18, "leaf_value": -0.10997731168791287, "leaf_weight": 10811.872700303793, "leaf_count": 131067}, "right_child": {"leaf_index": 29, "leaf_value": -0.10997731168791287, "leaf_weight": 10790.260008722544, "leaf_count": 130805}}}}, "right_child": {"split_index": 21, "split_feature": 0, "split_gain": 2.3283100447635263e-10, "threshold": 1.0000000180025095e-35, "decision_type": "<=", "default_left": true, "missing_type": "None", "internal_value": -0.109977, "internal_weight": 1280070, "internal_count": 15517600, "left_child": {"leaf_index": 16, "leaf_value": -0.10997731168791287, "leaf_weight": 510356.5720899403, "leaf_count": 6186801}, "right_child": {"leaf_index": 22, "leaf_value": -0.10997731168791287, "leaf_weight": 769708.7060825527, "leaf_count": 9330799}}}, "right_child": {"split_index": 6, "split_feature": 45, "split_gain": 92516.203125, "threshold": 1.0000000180025095e-35, "decision_type": "<=", "default_left": true, "missing_type": "None", "internal_value": 0.108484, "internal_weight": 39056.9, "internal_count": 262094, "left_child": {"split_index": 31, "split_feature": 32, "split_gain": 1.81899005406716e-12, "threshold": 1.0000000180025095e-35, "decision_type": "<=", "default_left": true, "missing_type": "None", "internal_value": -0.109977, "internal_weight": 12955.1, "internal_count": 157048, "left_child": {"leaf_index": 6, "leaf_value": -0.10997731168791287, "leaf_weight": 10799.004074782133, "leaf_count": 130911}, "right_child": {"leaf_index": 32, "leaf_value": -0.10997731168791287, "leaf_weight": 2156.072213202715, "leaf_count": 26137}}, "right_child": {"split_index": 25, "split_feature": 9, "split_gain": 1.4551899615855568e-11, "threshold": 1.0000000180025095e-35, "decision_type": "<=", "default_left": true, "missing_type": "None", "internal_value": 0.216913, "internal_weight": 26101.8, "internal_count": 105046, "left_child": {"leaf_index": 7, "leaf_value": 0.216913220194569, "leaf_weight": 13071.791650533676, "leaf_count": 52607}, "right_child": {"leaf_index": 26, "leaf_value": 0.216913220194569, "leaf_weight": 13030.046996831894, "leaf_count": 52439}}}}, "right_child": {"split_index": 24, "split_feature": 2, "split_gain": 2.9103799231711136e-11, "threshold": 1.0000000180025095e-35, "decision_type": "<=", "default_left": true, "missing_type": "None", "internal_value": 0.216913, "internal_weight": 42346.2, "internal_count": 170421, "left_child": {"leaf_index": 3, "leaf_value": 0.216913220194569, "leaf_weight": 40713.9583234787, "leaf_count": 163852}, "right_child": {"leaf_index": 25, "leaf_value": 0.216913220194569, "leaf_weight": 1632.2656557559967, "leaf_count": 6569}}}, "right_child": {"split_index": 1, "split_feature": 0, "split_gain": 1383980, "threshold": 1.0000000180025095e-35, "decision_type": "<=", "default_left": true, "missing_type": "None", "internal_value": 0.132864, "internal_weight": 1106170, "internal_count": 6754962, "left_child": {"split_index": 3, "split_feature": 48, "split_gain": 331934, "threshold": 1.0000000180025095e-35, "decision_type": "<=", "default_left": true, "missing_type": "None", "internal_value": 0.184385, "internal_weight": 912566, "internal_count": 4407950, "left_child": {"split_index": 27, "split_feature": 11, "split_gain": 7.27596021626864e-12, "threshold": 1.0000000180025095e-35, "decision_type": "<=", "default_left": true, "missing_type": "None", "internal_value": -0.109977, "internal_weight": 36764.4, "internal_count": 445677, "left_child": {"leaf_index": 1, "leaf_value": -0.10997731168791287, "leaf_weight": 27047.953549176455, "leaf_count": 327889}, "right_child": {"leaf_index": 28, "leaf_value": -0.10997731168791287, "leaf_weight": 9716.472198367119, "leaf_count": 117788}}, "right_child": {"split_index": 4, "split_feature": 29, "split_gain": 219247, "threshold": 1.0000000180025095e-35, "decision_type": "<=", "default_left": true, "missing_type": "None", "internal_value": 0.196742, "internal_weight": 875801, "internal_count": 3962273, "left_child": {"leaf_index": 4, "leaf_value": -0.10997731168791287, "leaf_weight": 22701.08033210039, "leaf_count": 275194}, "right_child": {"split_index": 7, "split_feature": 18, "split_gain": 64847.5, "threshold": 1.0000000180025095e-35, "decision_type": "<=", "default_left": true, "missing_type": "None", "internal_value": 0.204904, "internal_weight": 853100, "internal_count": 3687079, "left_child": {"split_index": 8, "split_feature": 7, "split_gain": 32836.6015625, "threshold": 1.0000000180025095e-35, "decision_type": "<=", "default_left": true, "missing_type": "None", "internal_value": 0.207318, "internal_weight": 846610, "internal_count": 3608397, "left_child": {"split_index": 9, "split_feature": 37, "split_gain": 88698.6015625, "threshold": 1.0000000180025095e-35, "decision_type": "<=", "default_left": true, "missing_type": "None", "internal_value": 0.166896, "internal_weight": 162416, "internal_count": 854882, "left_child": {"split_index": 10, "split_feature": 19, "split_gain": 39137.6015625, "threshold": 1.0000000180025095e-35, "decision_type": "<=", "default_left": true, "missing_type": "None", "internal_value": 0.186621, "internal_weight": 151615, "internal_count": 723946, "left_child": {"split_index": 11, "split_feature": 47, "split_gain": 24752.80078125, "threshold": 1.0000000180025095e-35, "decision_type": "<=", "default_left": true, "missing_type": "None", "internal_value": 0.195324, "internal_weight": 147293, "internal_count": 671551, "left_child": {"split_index": 13, "split_feature": 30, "split_gain": 13454.5, "threshold": 1.0000000180025095e-35, "decision_type": "<=", "default_left": true, "missing_type": "None", "internal_value": 0.205489, "internal_weight": 138761, "internal_count": 597712, "left_child": {"split_index": 14, "split_feature": 9, "split_gain": 11171.2998046875, "threshold": 1.0000000180025095e-35, "decision_type": "<=", "default_left": true, "missing_type": "None", "internal_value": 0.0306283, "internal_weight": 4265.05, "internal_count": 36847, "left_child": {"leaf_index": 5, "leaf_value": 0.216913220194569, "leaf_weight": 1834.528442144394, "leaf_count": 7383}, "right_child": {"split_index": 36, "split_feature": 26, "split_gain": 4.5474699852075806e-13, "threshold": 1.0000000180025095e-35, "decision_type": "<=", "default_left": true, "missing_type": "None", "internal_value": -0.109977, "internal_weight": 2430.52, "internal_count": 29464, "left_child": {"leaf_index": 15, "leaf_value": -0.10997731168791287, "leaf_weight": 2158.6294400691986, "leaf_count": 26168}, "right_child": {"leaf_index": 37, "leaf_value": -0.10997731168791287, "leaf_weight": 271.89095973968506, "leaf_count": 3296}}}, "right_child": {"split_index": 18, "split_feature": 5, "split_gain": 1722.8900146484375, "threshold": 1.0000000180025095e-35, "decision_type": "<=", "default_left": true, "missing_type": "None", "internal_value": 0.211034, "internal_weight": 134496, "internal_count": 560865, "left_child": {"split_index": 19, "split_feature": 23, "split_gain": 21677.5, "threshold": 1.0000000180025095e-35, "decision_type": "<=", "default_left": true, "missing_type": "None", "internal_value": 0.189246, "internal_weight": 28579.9, "internal_count": 134608, "left_child": {"split_index": 20, "split_feature": 2, "split_gain": 1983.239990234375, "threshold": 1.0000000180025095e-35, "decision_type": "<=", "default_left": true, "missing_type": "None", "internal_value": -0.0848964, "internal_weight": 2619.99, "internal_count": 30133, "left_child": {"split_index": 35, "split_feature": 10, "split_gain": 4.5474699852075806e-13, "threshold": 1.0000000180025095e-35, "decision_type": "<=", "default_left": true, "missing_type": "None", "internal_value": -0.109977, "internal_weight": 2418.97, "internal_count": 29324, "left_child": {"leaf_index": 14, "leaf_value": -0.10997731168791287, "leaf_weight": 134.95558559894562, "leaf_count": 1636}, "right_child": {"leaf_index": 36, "leaf_value": -0.10997731168791287, "leaf_weight": 2284.0160477161407, "leaf_count": 27688}}, "right_child": {"leaf_index": 21, "leaf_value": 0.216913220194569, "leaf_weight": 201.02038598060608, "leaf_count": 809}}, "right_child": {"leaf_index": 20, "leaf_value": 0.216913220194569, "leaf_weight": 25959.956520795822, "leaf_count": 104475}}, "right_child": {"split_index": 22, "split_feature": 21, "split_gain": 5.820770254683083e-11, "threshold": 1.0000000180025095e-35, "decision_type": "<=", "default_left": true, "missing_type": "None", "internal_value": 0.216913, "internal_weight": 105916, "internal_count": 426257, "left_child": {"leaf_index": 19, "leaf_value": 0.216913220194569, "leaf_weight": 52966.75962519646, "leaf_count": 213163}, "right_child": {"leaf_index": 23, "leaf_value": 0.216913220194569, "leaf_weight": 52949.61449956894, "leaf_count": 213094}}}}, "right_child": {"split_index": 12, "split_feature": 9, "split_gain": 22321.19921875, "threshold": 1.0000000180025095e-35, "decision_type": "<=", "default_left": true, "missing_type": "None", "internal_value": 0.029997, "internal_weight": 8531.44, "internal_count": 73839, "left_child": {"split_index": 29, "split_feature": 15, "split_gain": 3.63798010813432e-12, "threshold": 1.0000000180025095e-35, "decision_type": "<=", "default_left": true, "missing_type": "None", "internal_value": 0.216913, "internal_weight": 3653.15, "internal_count": 14702, "left_child": {"leaf_index": 12, "leaf_value": 0.216913220194569, "leaf_weight": 3452.133773088455, "leaf_count": 13893}, "right_child": {"leaf_index": 30, "leaf_value": 0.216913220194569, "leaf_weight": 201.02038598060608, "leaf_count": 809}}, "right_child": {"split_index": 33, "split_feature": 21, "split_gain": 9.0949502703358e-13, "threshold": 1.0000000180025095e-35, "decision_type": "<=", "default_left": true, "missing_type": "None", "internal_value": -0.109977, "internal_weight": 4878.28, "internal_count": 59137, "left_child": {"leaf_index": 13, "leaf_value": -0.10997731168791287, "leaf_weight": 2438.852009922266, "leaf_count": 29565}, "right_child": {"leaf_index": 34, "leaf_value": -0.10997731168791287, "leaf_weight": 2439.429448246956, "leaf_count": 29572}}}}, "right_child": {"split_index": 34, "split_feature": 47, "split_gain": 9.0949502703358e-13, "threshold": 1.0000000180025095e-35, "decision_type": "<=", "default_left": true, "missing_type": "None", "internal_value": -0.109977, "internal_weight": 4322.13, "internal_count": 52395, "left_child": {"leaf_index": 11, "leaf_value": -0.10997731168791287, "leaf_weight": 3239.2640191316605, "leaf_count": 39268}, "right_child": {"leaf_index": 35, "leaf_value": -0.10997731168791287, "leaf_weight": 1082.86184117198, "leaf_count": 13127}}}, "right_child": {"split_index": 30, "split_feature": 5, "split_gain": 1.81899005406716e-12, "threshold": 1.0000000180025095e-35, "decision_type": "<=", "default_left": true, "missing_type": "None", "internal_value": -0.109977, "internal_weight": 10801.1, "internal_count": 130936, "left_child": {"leaf_index": 10, "leaf_value": -0.10997731168791287, "leaf_weight": 8648.376280069351, "leaf_count": 104840}, "right_child": {"leaf_index": 31, "leaf_value": -0.10997731168791287, "leaf_weight": 2152.690074443817, "leaf_count": 26096}}}, "right_child": {"leaf_index": 9, "leaf_value": 0.216913220194569, "leaf_weight": 684193.6317718029, "leaf_count": 2753515}}, "right_child": {"leaf_index": 8, "leaf_value": -0.10997731168791287, "leaf_weight": 6490.571751892567, "leaf_count": 78682}}}}, "right_child": {"split_index": 23, "split_feature": 2, "split_gain": 2.9103799231711136e-11, "threshold": 1.0000000180025095e-35, "decision_type": "<=", "default_left": true, "missing_type": "None", "internal_value": -0.109977, "internal_weight": 193608, "internal_count": 2347012, "left_child": {"leaf_index": 2, "leaf_value": -0.10997731168791287, "leaf_weight": 189269.92936640978, "leaf_count": 2294426}, "right_child": {"leaf_index": 24, "leaf_value": -0.10997731168791287, "leaf_weight": 4337.8816774487495, "leaf_count": 52586}}}}}, {"tree_index": 5, "num_leaves": 41, "num_cat": 0, "shrinkage": 0.1, "tree_structure": {"split_index": 0, "split_feature": 25, "split_gain": 2948840, "threshold": 1.0000000180025095e-35, "decision_type": "<=", "default_left": true, "missing_type": "None", "internal_value": 0, "internal_weight": 0, "internal_count": 26886144, "left_child": {"split_index": 2, "split_feature": 6, "split_gain": 359515, "threshold": 1.0000000180025095e-35, "decision_type": "<=", "default_left": true, "missing_type": "None", "internal_value": -0.0925533, "internal_weight": 1575720, "internal_count": 20131182, "left_child": {"split_index": 5, "split_feature": 42, "split_gain": 156856, "threshold": 1.0000000180025095e-35, "decision_type": "<=", "default_left": true, "missing_type": "None", "internal_value": -0.100512, "internal_weight": 1533150, "internal_count": 19960761, "left_child": {"split_index": 14, "split_feature": 43, "split_gain": 5909.22021484375, "threshold": 1.0000000180025095e-35, "decision_type": "<=", "default_left": true, "missing_type": "None", "internal_value": -0.105616, "internal_weight": 1495080, "internal_count": 19698667, "left_child": {"split_index": 15, "split_feature": 45, "split_gain": 60754, "threshold": 1.0000000180025095e-35, "decision_type": "<=", "default_left": true, "missing_type": "None", "internal_value": -0.0937188, "internal_weight": 326351, "internal_count": 4181067, "left_child": {"split_index": 24, "split_feature": 0, "split_gain": 5.820770254683083e-11, "threshold": 1.0000000180025095e-35, "decision_type": "<=", "default_left": true, "missing_type": "None", "internal_value": -0.108938, "internal_weight": 290238, "internal_count": 3853577, "left_child": {"leaf_index": 0, "leaf_value": -0.10893822247537843, "leaf_weight": 120487.87036645412, "leaf_count": 1599752}, "right_child": {"split_index": 26, "split_feature": 1, "split_gain": 2.9103799231711136e-11, "threshold": 1.0000000180025095e-35, "decision_type": "<=", "default_left": true, "missing_type": "None", "internal_value": -0.108938, "internal_weight": 169750, "internal_count": 2253825, "left_child": {"leaf_index": 25, "leaf_value": -0.10893822247537843, "leaf_weight": 71109.63411290944, "leaf_count": 944143}, "right_child": {"leaf_index": 27, "leaf_value": -0.10893822247537843, "leaf_weight": 98640.7862201631, "leaf_count": 1309682}}}, "right_child": {"split_index": 16, "split_feature": 0, "split_gain": 82209.3984375, "threshold": 1.0000000180025095e-35, "decision_type": "<=", "default_left": true, "missing_type": "None", "internal_value": 0.0285997, "internal_weight": 36112.7, "internal_count": 327490, "left_child": {"split_index": 29, "split_feature": 2, "split_gain": 7.27596021626864e-12, "threshold": 1.0000000180025095e-35, "decision_type": "<=", "default_left": true, "missing_type": "None", "internal_value": 0.194115, "internal_weight": 16389.4, "internal_count": 65618, "left_child": {"split_index": 30, "split_feature": 4, "split_gain": 7.27596021626864e-12, "threshold": 1.0000000180025095e-35, "decision_type": "<=", "default_left": true, "missing_type": "None", "internal_value": 0.194115, "internal_weight": 14741.9, "internal_count": 59022, "left_child": {"leaf_index": 16, "leaf_value": 0.1941151294288512, "leaf_weight": 7377.7128793001175, "leaf_count": 29538}, "right_child": {"leaf_index": 31, "leaf_value": 0.1941151294288512, "leaf_weight": 7364.22528719902, "leaf_count": 29484}}, "right_child": {"leaf_index": 30, "leaf_value": 0.1941151294288512, "leaf_weight": 1647.4843981266022, "leaf_count": 6596}}, "right_child": {"leaf_index": 17, "leaf_value": -0.10893822247537843, "leaf_weight": 19723.30685544014, "leaf_count": 261872}}}, "right_child": {"split_index": 23, "split_feature": 2, "split_gain": 2.3283100447635263e-10, "threshold": 1.0000000180025095e-35, "decision_type": "<=", "default_left": true, "missing_type": "None", "internal_value": -0.108938, "internal_weight": 1168730, "internal_count": 15517600, "left_child": {"leaf_index": 15, "leaf_value": -0.10893822247537843, "leaf_weight": 697871.5005552769, "leaf_count": 9265840}, "right_child": {"leaf_index": 24, "leaf_value": -0.10893822247537843, "leaf_weight": 470861.2637722492, "leaf_count": 6251760}}}, "right_child": {"split_index": 6, "split_feature": 45, "split_gain": 74876.8984375, "threshold": 1.0000000180025095e-35, "decision_type": "<=", "default_left": true, "missing_type": "None", "internal_value": 0.099946, "internal_weight": 38065.7, "internal_count": 262094, "left_child": {"leaf_index": 6, "leaf_value": -0.10893822247537843, "leaf_weight": 11828.320305466652, "leaf_count": 157048}, "right_child": {"leaf_index": 7, "leaf_value": 0.1941151294288512, "leaf_weight": 26237.362960219383, "leaf_count": 105046}}}, "right_child": {"split_index": 28, "split_feature": 7, "split_gain": 2.9103799231711136e-11, "threshold": 1.0000000180025095e-35, "decision_type": "<=", "default_left": true, "missing_type": "None", "internal_value": 0.194115, "internal_weight": 42566.1, "internal_count": 170421, "left_child": {"leaf_index": 3, "leaf_value": 0.1941151294288512, "leaf_weight": 16356.95243549347, "leaf_count": 65488}, "right_child": {"leaf_index": 29, "leaf_value": 0.1941151294288512, "leaf_weight": 26209.138924896717, "leaf_count": 104933}}}, "right_child": {"split_index": 1, "split_feature": 0, "split_gain": 1122500, "threshold": 1.0000000180025095e-35, "decision_type": "<=", "default_left": true, "missing_type": "None", "internal_value": 0.121631, "internal_weight": 1085700, "internal_count": 6754962, "left_child": {"split_index": 3, "split_feature": 48, "split_gain": 264370, "threshold": 1.0000000180025095e-35, "decision_type": "<=", "default_left": true, "missing_type": "None", "internal_value": 0.166472, "internal_weight": 908935, "internal_count": 4407950, "left_child": {"leaf_index": 1, "leaf_value": -0.10893822247537843, "leaf_weight": 33566.87324117124, "leaf_count": 445677}, "right_child": {"split_index": 4, "split_feature": 29, "split_gain": 173612, "threshold": 1.0000000180025095e-35, "decision_type": "<=", "default_left": true, "missing_type": "None", "internal_value": 0.177033, "internal_weight": 875368, "internal_count": 3962273, "left_child": {"leaf_index": 4, "leaf_value": -0.10893822247537843, "leaf_weight": 20726.674508064985, "leaf_count": 275194}, "right_child": {"split_index": 7, "split_feature": 18, "split_gain": 51197.1015625, "threshold": 1.0000000180025095e-35, "decision_type": "<=", "default_left": true, "missing_type": "None", "internal_value": 0.183968, "internal_weight": 854641, "internal_count": 3687079, "left_child": {"split_index": 8, "split_feature": 34, "split_gain": 25797, "threshold": 1.0000000180025095e-35, "decision_type": "<=", "default_left": true, "missing_type": "None", "internal_value": 0.186013, "internal_weight": 848715, "internal_count": 3608397, "left_child": {"leaf_index": 5, "leaf_value": -0.10893822247537843, "leaf_weight": 2954.971211761236, "leaf_count": 39234}, "right_child": {"split_index": 9, "split_feature": 41, "split_gain": 22809.30078125, "threshold": 1.0000000180025095e-35, "decision_type": "<=", "default_left": true, "missing_type": "None", "internal_value": 0.187044, "internal_weight": 845760, "internal_count": 3569163, "left_child": {"split_index": 10, "split_feature": 30, "split_gain": 53987.80078125, "threshold": 1.0000000180025095e-35, "decision_type": "<=", "default_left": true, "missing_type": "None", "internal_value": 0.141149, "internal_weight": 95996.8, "internal_count": 539932, "left_child": {"split_index": 18, "split_feature": 2, "split_gain": 3547.27001953125, "threshold": 1.0000000180025095e-35, "decision_type": "<=", "default_left": true, "missing_type": "None", "internal_value": -0.0949873, "internal_weight": 8795.07, "internal_count": 113020, "left_child": {"split_index": 31, "split_feature": 12, "split_gain": 1.81899005406716e-12, "threshold": 1.0000000180025095e-35, "decision_type": "<=", "default_left": true, "missing_type": "None", "internal_value": -0.108938, "internal_weight": 8390.19, "internal_count": 111399, "left_child": {"leaf_index": 9, "leaf_value": -0.10893822247537843, "leaf_weight": 4196.565248206258, "leaf_count": 55719}, "right_child": {"leaf_index": 32, "leaf_value": -0.10893822247537843, "leaf_weight": 4193.6279010772705, "leaf_count": 55680}}, "right_child": {"split_index": 35, "split_feature": 6, "split_gain": 2.273740007038838e-13, "threshold": 1.0000000180025095e-35, "decision_type": "<=", "default_left": true, "missing_type": "None", "internal_value": 0.194115, "internal_weight": 404.878, "internal_count": 1621, "left_child": {"leaf_index": 19, "leaf_value": 0.1941151294288512, "leaf_weight": 203.56273263692856, "leaf_count": 815}, "right_child": {"leaf_index": 36, "leaf_value": 0.1941151294288512, "leaf_weight": 201.31480062007904, "leaf_count": 806}}}, "right_child": {"split_index": 11, "split_feature": 43, "split_gain": 30940.80078125, "threshold": 1.0000000180025095e-35, "decision_type": "<=", "default_left": true, "missing_type": "None", "internal_value": 0.164965, "internal_weight": 87201.7, "internal_count": 426912, "left_child": {"split_index": 17, "split_feature": 39, "split_gain": 4077.97998046875, "threshold": 1.0000000180025095e-35, "decision_type": "<=", "default_left": true, "missing_type": "None", "internal_value": 0.177919, "internal_weight": 83263.8, "internal_count": 374627, "left_child": {"split_index": 19, "split_feature": 27, "split_gain": 3048.02001953125, "threshold": 1.0000000180025095e-35, "decision_type": "<=", "default_left": true, "missing_type": "None", "internal_value": 0.179627, "internal_weight": 82771.1, "internal_count": 368086, "left_child": {"split_index": 20, "split_feature": 23, "split_gain": 31557.30078125, "threshold": 1.0000000180025095e-35, "decision_type": "<=", "default_left": true, "missing_type": "None", "internal_value": 0.15421, "internal_weight": 30051.9, "internal_count": 157015, "left_child": {"leaf_index": 11, "leaf_value": -0.10893822247537843, "leaf_weight": 3957.1337988972664, "leaf_count": 52540}, "right_child": {"leaf_index": 21, "leaf_value": 0.1941151294288512, "leaf_weight": 26094.744162261486, "leaf_count": 104475}}, "right_child": {"split_index": 27, "split_feature": 4, "split_gain": 2.9103799231711136e-11, "threshold": 1.0000000180025095e-35, "decision_type": "<=", "default_left": true, "missing_type": "None", "internal_value": 0.194115, "internal_weight": 52719.3, "internal_count": 211071, "left_child": {"leaf_index": 20, "leaf_value": 0.1941151294288512, "leaf_weight": 26376.734745264053, "leaf_count": 105604}, "right_child": {"leaf_index": 28, "leaf_value": 0.1941151294288512, "leaf_weight": 26342.51622456312, "leaf_count": 105467}}}, "right_child": {"split_index": 39, "split_feature": 12, "split_gain": 1.136870003519419e-13, "threshold": 1.0000000180025095e-35, "decision_type": "<=", "default_left": true, "missing_type": "None", "internal_value": -0.108938, "internal_weight": 492.646, "internal_count": 6541, "left_child": {"leaf_index": 18, "leaf_value": -0.10893822247537843, "leaf_weight": 247.71627454459667, "leaf_count": 3289}, "right_child": {"leaf_index": 40, "leaf_value": -0.10893822247537843, "leaf_weight": 244.92956060171127, "leaf_count": 3252}}}, "right_child": {"split_index": 33, "split_feature": 4, "split_gain": 9.0949502703358e-13, "threshold": 1.0000000180025095e-35, "decision_type": "<=", "default_left": true, "missing_type": "None", "internal_value": -0.108938, "internal_weight": 3937.93, "internal_count": 52285, "left_child": {"leaf_index": 12, "leaf_value": -0.10893822247537843, "leaf_weight": 1968.549792572856, "leaf_count": 26137}, "right_child": {"leaf_index": 34, "leaf_value": -0.10893822247537843, "leaf_weight": 1969.3782750964165, "leaf_count": 26148}}}}, "right_child": {"split_index": 12, "split_feature": 46, "split_gain": 13482.2998046875, "threshold": 1.0000000180025095e-35, "decision_type": "<=", "default_left": true, "missing_type": "None", "internal_value": 0.19292, "internal_weight": 749763, "internal_count": 3029231, "left_child": {"split_index": 34, "split_feature": 2, "split_gain": 2.273740007038838e-13, "threshold": 1.0000000180025095e-35, "decision_type": "<=", "default_left": true, "missing_type": "None", "internal_value": -0.108938, "internal_weight": 1476.73, "internal_count": 19607, "left_child": {"leaf_index": 10, "leaf_value": -0.10893822247537843, "leaf_weight": 986.1954694092274, "leaf_count": 13094}, "right_child": {"split_index": 37, "split_feature": 4, "split_gain": 1.136870003519419e-13, "threshold": 1.0000000180025095e-35, "decision_type": "<=", "default_left": true, "missing_type": "None", "internal_value": -0.108938, "internal_weight": 490.537, "internal_count": 6513, "left_child": {"leaf_index": 35, "leaf_value": -0.10893822247537843, "leaf_weight": 246.20994268357754, "leaf_count": 3269}, "right_child": {"leaf_index": 38, "leaf_value": -0.10893822247537843, "leaf_weight": 244.32702785730362, "leaf_count": 3244}}}, "right_child": {"split_index": 13, "split_feature": 20, "split_gain": 6746.2900390625, "threshold": 1.0000000180025095e-35, "decision_type": "<=", "default_left": true, "missing_type": "None", "internal_value": 0.193516, "internal_weight": 748286, "internal_count": 3009624, "left_child": {"split_index": 21, "split_feature": 7, "split_gain": 38.461700439453125, "threshold": 1.0000000180025095e-35, "decision_type": "<=", "default_left": true, "missing_type": "None", "internal_value": 0.193814, "internal_weight": 747550, "internal_count": 2999842, "left_child": {"split_index": 22, "split_feature": 19, "split_gain": 6780.6201171875, "threshold": 1.0000000180025095e-35, "decision_type": "<=", "default_left": true, "missing_type": "None", "internal_value": 0.192106, "internal_weight": 112119, "internal_count": 455779, "left_child": {"split_index": 25, "split_feature": 8, "split_gain": 5.820770254683083e-11, "threshold": 1.0000000180025095e-35, "decision_type": "<=", "default_left": true, "missing_type": "None", "internal_value": 0.194115, "internal_weight": 111375, "internal_count": 445911, "left_child": {"leaf_index": 13, "leaf_value": 0.1941151294288512, "leaf_weight": 55661.04466921091, "leaf_count": 222849}, "right_child": {"leaf_index": 26, "leaf_value": 0.1941151294288512, "leaf_weight": 55714.245726943016, "leaf_count": 223062}}, "right_child": {"split_index": 36, "split_feature": 4, "split_gain": 1.136870003519419e-13, "threshold": 1.0000000180025095e-35, "decision_type": "<=", "default_left": true, "missing_type": "None", "internal_value": -0.108938, "internal_weight": 743.224, "internal_count": 9868, "left_child": {"leaf_index": 23, "leaf_value": -0.10893822247537843, "leaf_weight": 497.9933132529259, "leaf_count": 6612}, "right_child": {"leaf_index": 37, "leaf_value": -0.10893822247537843, "leaf_weight": 245.2308269739151, "leaf_count": 3256}}}, "right_child": {"leaf_index": 22, "leaf_value": 0.1941151294288512, "leaf_weight": 635431.1856202483, "leaf_count": 2544063}}, "right_child": {"split_index": 38, "split_feature": 10, "split_gain": 1.136870003519419e-13, "threshold": 1.0000000180025095e-35, "decision_type": "<=", "default_left": true, "missing_type": "None", "internal_value": -0.108938, "internal_weight": 736.747, "internal_count": 9782, "left_child": {"leaf_index": 14, "leaf_value": -0.10893822247537843, "leaf_weight": 490.4616539478302, "leaf_count": 6512}, "right_child": {"leaf_index": 39, "leaf_value": -0.10893822247537843, "leaf_weight": 246.2852592766285, "leaf_count": 3270}}}}}}, "right_child": {"split_index": 32, "split_feature": 16, "split_gain": 1.81899005406716e-12, "threshold": 1.0000000180025095e-35, "decision_type": "<=", "default_left": true, "missing_type": "None", "internal_value": -0.108938, "internal_weight": 5926.06, "internal_count": 78682, "left_child": {"leaf_index": 8, "leaf_value": -0.10893822247537843, "leaf_weight": 1970.9599235504866, "leaf_count": 26169}, "right_child": {"leaf_index": 33, "leaf_value": -0.10893822247537843, "leaf_weight": 3955.1002508848906, "leaf_count": 52513}}}}}, "right_child": {"leaf_index": 2, "leaf_value": -0.10893822247537843, "leaf_weight": 176768.94768971205, "leaf_count": 2347012}}}}, {"tree_index": 6, "num_leaves": 41, "num_cat": 0, "shrinkage": 0.1, "tree_structure": {"split_index": 0, "split_feature": 25, "split_gain": 2543620, "threshold": 1.0000000180025095e-35, "decision_type": "<=", "default_left": true, "missing_type": "None", "internal_value": 0, "internal_weight": 0, "internal_count": 26886144, "left_child": {"split_index": 2, "split_feature": 42, "split_gain": 314713, "threshold": 1.0000000180025095e-35, "decision_type": "<=", "default_left": true, "missing_type": "None", "internal_value": -0.0914198, "internal_weight": 1443510, "internal_count": 20131182, "left_child": {"split_index": 5, "split_feature": 6, "split_gain": 126746, "threshold": 1.0000000180025095e-35, "decision_type": "<=", "default_left": true, "missing_type": "None", "internal_value": -0.101348, "internal_weight": 1381070, "internal_count": 19764155, "left_child": {"split_index": 13, "split_feature": 43, "split_gain": 5550.52978515625, "threshold": 1.0000000180025095e-35, "decision_type": "<=", "default_left": true, "missing_type": "None", "internal_value": -0.104639, "internal_weight": 1364960, "internal_count": 19698667, "left_child": {"split_index": 14, "split_feature": 45, "split_gain": 55122.69921875, "threshold": 1.0000000180025095e-35, "decision_type": "<=", "default_left": true, "missing_type": "None", "internal_value": -0.0925957, "internal_weight": 298879, "internal_count": 4181067, "left_child": {"split_index": 24, "split_feature": 2, "split_gain": 5.820770254683083e-11, "threshold": 1.0000000180025095e-35, "decision_type": "<=", "default_left": true, "missing_type": "None", "internal_value": -0.108016, "internal_weight": 264747, "internal_count": 3853577, "left_child": {"leaf_index": 0, "leaf_value": -0.10801566951134395, "leaf_weight": 162999.3393973112, "leaf_count": 2372572}, "right_child": {"leaf_index": 25, "leaf_value": -0.10801566951134395, "leaf_weight": 101747.31752887368, "leaf_count": 1481005}}, "right_child": {"split_index": 15, "split_feature": 0, "split_gain": 69361.1015625, "threshold": 1.0000000180025095e-35, "decision_type": "<=", "default_left": true, "missing_type": "None", "internal_value": 0.0270098, "internal_weight": 34132.2, "internal_count": 327490, "left_child": {"split_index": 27, "split_feature": 5, "split_gain": 7.27596021626864e-12, "threshold": 1.0000000180025095e-35, "decision_type": "<=", "default_left": true, "missing_type": "None", "internal_value": 0.17751, "internal_weight": 16141.2, "internal_count": 65618, "left_child": {"leaf_index": 15, "leaf_value": 0.17750973639952608, "leaf_weight": 12909.636608049273, "leaf_count": 52481}, "right_child": {"leaf_index": 28, "leaf_value": 0.17750973639952608, "leaf_weight": 3231.5294319838285, "leaf_count": 13137}}, "right_child": {"leaf_index": 16, "leaf_value": -0.10801566951134395, "leaf_weight": 17991.008494853973, "leaf_count": 261872}}}, "right_child": {"split_index": 23, "split_feature": 26, "split_gain": 2.3283100447635263e-10, "threshold": 1.0000000180025095e-35, "decision_type": "<=", "default_left": true, "missing_type": "None", "internal_value": -0.108016, "internal_weight": 1066080, "internal_count": 15517600, "left_child": {"leaf_index": 14, "leaf_value": -0.10801566951134395, "leaf_weight": 691385.0470949411, "leaf_count": 10063604}, "right_child": {"leaf_index": 24, "leaf_value": -0.10801566951134395, "leaf_weight": 374697.89961087704, "leaf_count": 5453996}}}, "right_child": {"split_index": 28, "split_feature": 9, "split_gain": 7.27596021626864e-12, "threshold": 1.0000000180025095e-35, "decision_type": "<=", "default_left": true, "missing_type": "None", "internal_value": 0.17751, "internal_weight": 16109.2, "internal_count": 65488, "left_child": {"leaf_index": 6, "leaf_value": 0.17750973639952608, "leaf_weight": 9689.914545536041, "leaf_count": 39392}, "right_child": {"leaf_index": 29, "leaf_value": 0.17750973639952608, "leaf_weight": 6419.273202180862, "leaf_count": 26096}}}, "right_child": {"split_index": 6, "split_feature": 45, "split_gain": 72761.703125, "threshold": 1.0000000180025095e-35, "decision_type": "<=", "default_left": true, "missing_type": "None", "internal_value": 0.128173, "internal_weight": 62441.5, "internal_count": 367027, "left_child": {"split_index": 31, "split_feature": 2, "split_gain": 1.81899005406716e-12, "threshold": 1.0000000180025095e-35, "decision_type": "<=", "default_left": true, "missing_type": "None", "internal_value": -0.108016, "internal_weight": 10789.4, "internal_count": 157048, "left_child": {"leaf_index": 3, "leaf_value": -0.10801566951134395, "leaf_weight": 1793.9344940185547, "leaf_count": 26112}, "right_child": {"leaf_index": 32, "leaf_value": -0.10801566951134395, "leaf_weight": 8995.504247426987, "leaf_count": 130936}}, "right_child": {"leaf_index": 7, "leaf_value": 0.17750973639952608, "leaf_weight": 51652.075709715486, "leaf_count": 209979}}}, "right_child": {"split_index": 1, "split_feature": 0, "split_gain": 931498, "threshold": 1.0000000180025095e-35, "decision_type": "<=", "default_left": true, "missing_type": "None", "internal_value": 0.113121, "internal_weight": 1050380, "internal_count": 6754962, "left_child": {"split_index": 3, "split_feature": 48, "split_gain": 216413, "threshold": 1.0000000180025095e-35, "decision_type": "<=", "default_left": true, "missing_type": "None", "internal_value": 0.153224, "internal_weight": 889141, "internal_count": 4407950, "left_child": {"split_index": 26, "split_feature": 1, "split_gain": 7.27596021626864e-12, "threshold": 1.0000000180025095e-35, "decision_type": "<=", "default_left": true, "missing_type": "None", "internal_value": -0.108016, "internal_weight": 30618.7, "internal_count": 445677, "left_child": {"leaf_index": 1, "leaf_value": -0.10801566951134395, "leaf_weight": 14411.246288001537, "leaf_count": 209766}, "right_child": {"leaf_index": 27, "leaf_value": -0.10801566951134395, "leaf_weight": 16207.447932690382, "leaf_count": 235911}}, "right_child": {"split_index": 4, "split_feature": 29, "split_gain": 141512, "threshold": 1.0000000180025095e-35, "decision_type": "<=", "default_left": true, "missing_type": "None", "internal_value": 0.162541, "internal_weight": 858522, "internal_count": 3962273, "left_child": {"split_index": 29, "split_feature": 4, "split_gain": 3.63798010813432e-12, "threshold": 1.0000000180025095e-35, "decision_type": "<=", "default_left": true, "missing_type": "None", "internal_value": -0.108016, "internal_weight": 18906.3, "internal_count": 275194, "left_child": {"split_index": 32, "split_feature": 5, "split_gain": 1.81899005406716e-12, "threshold": 1.0000000180025095e-35, "decision_type": "<=", "default_left": true, "missing_type": "None", "internal_value": -0.108016, "internal_weight": 11250.6, "internal_count": 163761, "left_child": {"leaf_index": 4, "leaf_value": -0.10801566951134395, "leaf_weight": 7658.228859633207, "leaf_count": 111471}, "right_child": {"leaf_index": 33, "leaf_value": -0.10801566951134395, "leaf_weight": 3592.4032893776894, "leaf_count": 52290}}, "right_child": {"split_index": 33, "split_feature": 21, "split_gain": 1.81899005406716e-12, "threshold": 1.0000000180025095e-35, "decision_type": "<=", "default_left": true, "missing_type": "None", "internal_value": -0.108016, "internal_weight": 7655.62, "internal_count": 111433, "left_child": {"leaf_index": 30, "leaf_value": -0.10801566951134395, "leaf_weight": 3829.0113775134087, "leaf_count": 55734}, "right_child": {"leaf_index": 34, "leaf_value": -0.10801566951134395, "leaf_weight": 3826.606823772192, "leaf_count": 55699}}}, "right_child": {"split_index": 7, "split_feature": 18, "split_gain": 41639.3984375, "threshold": 1.0000000180025095e-35, "decision_type": "<=", "default_left": true, "missing_type": "None", "internal_value": 0.168633, "internal_weight": 839616, "internal_count": 3687079, "left_child": {"split_index": 8, "split_feature": 34, "split_gain": 20965.400390625, "threshold": 1.0000000180025095e-35, "decision_type": "<=", "default_left": true, "missing_type": "None", "internal_value": 0.170426, "internal_weight": 834210, "internal_count": 3608397, "left_child": {"leaf_index": 5, "leaf_value": -0.10801566951134395, "leaf_weight": 2695.436042368412, "leaf_count": 39234}, "right_child": {"split_index": 9, "split_feature": 41, "split_gain": 17364.19921875, "threshold": 1.0000000180025095e-35, "decision_type": "<=", "default_left": true, "missing_type": "None", "internal_value": 0.171328, "internal_weight": 831515, "internal_count": 3569163, "left_child": {"split_index": 10, "split_feature": 30, "split_gain": 44439, "threshold": 1.0000000180025095e-35, "decision_type": "<=", "default_left": true, "missing_type": "None", "internal_value": 0.130686, "internal_weight": 93323.2, "internal_count": 539932, "left_child": {"split_index": 18, "split_feature": 2, "split_gain": 3089.780029296875, "threshold": 1.0000000180025095e-35, "decision_type": "<=", "default_left": true, "missing_type": "None", "internal_value": -0.0938762, "internal_weight": 8052.03, "internal_count": 113020, "left_child": {"split_index": 30, "split_feature": 15, "split_gain": 3.63798010813432e-12, "threshold": 1.0000000180025095e-35, "decision_type": "<=", "default_left": true, "missing_type": "None", "internal_value": -0.108016, "internal_weight": 7653.28, "internal_count": 111399, "left_child": {"leaf_index": 9, "leaf_value": -0.10801566951134395, "leaf_weight": 3827.7747498750687, "leaf_count": 55716}, "right_child": {"leaf_index": 31, "leaf_value": -0.10801566951134395, "leaf_weight": 3825.5075992047787, "leaf_count": 55683}}, "right_child": {"split_index": 38, "split_feature": 4, "split_gain": 2.273740007038838e-13, "threshold": 1.0000000180025095e-35, "decision_type": "<=", "default_left": true, "missing_type": "None", "internal_value": 0.17751, "internal_weight": 398.745, "internal_count": 1621, "left_child": {"leaf_index": 19, "leaf_value": 0.17750973639952608, "leaf_weight": 196.78949117660522, "leaf_count": 800}, "right_child": {"leaf_index": 39, "leaf_value": 0.17750973639952608, "leaf_weight": 201.9552153199911, "leaf_count": 821}}}, "right_child": {"split_index": 11, "split_feature": 43, "split_gain": 25332, "threshold": 1.0000000180025095e-35, "decision_type": "<=", "default_left": true, "missing_type": "None", "internal_value": 0.151891, "internal_weight": 85271.2, "internal_count": 426912, "left_child": {"split_index": 17, "split_feature": 39, "split_gain": 3326.77001953125, "threshold": 1.0000000180025095e-35, "decision_type": "<=", "default_left": true, "missing_type": "None", "internal_value": 0.163321, "internal_weight": 81679.1, "internal_count": 374627, "left_child": {"split_index": 19, "split_feature": 27, "split_gain": 2316.469970703125, "threshold": 1.0000000180025095e-35, "decision_type": "<=", "default_left": true, "missing_type": "None", "internal_value": 0.164822, "internal_weight": 81229.7, "internal_count": 368086, "left_child": {"split_index": 20, "split_feature": 23, "split_gain": 25802.900390625, "threshold": 1.0000000180025095e-35, "decision_type": "<=", "default_left": true, "missing_type": "None", "internal_value": 0.142346, "internal_weight": 29309.1, "internal_count": 157015, "left_child": {"split_index": 34, "split_feature": 4, "split_gain": 9.0949502703358e-13, "threshold": 1.0000000180025095e-35, "decision_type": "<=", "default_left": true, "missing_type": "None", "internal_value": -0.108016, "internal_weight": 3609.58, "internal_count": 52540, "left_child": {"leaf_index": 11, "leaf_value": -0.10801566951134395, "leaf_weight": 1810.5602656006813, "leaf_count": 26354}, "right_child": {"split_index": 37, "split_feature": 6, "split_gain": 4.5474699852075806e-13, "threshold": 1.0000000180025095e-35, "decision_type": "<=", "default_left": true, "missing_type": "None", "internal_value": -0.108016, "internal_weight": 1799.02, "internal_count": 26186, "left_child": {"leaf_index": 35, "leaf_value": -0.10801566951134395, "leaf_weight": 900.814532995224, "leaf_count": 13112}, "right_child": {"leaf_index": 38, "leaf_value": -0.10801566951134395, "leaf_weight": 898.2038746476173, "leaf_count": 13074}}}, "right_child": {"leaf_index": 21, "leaf_value": 0.17750973639952608, "leaf_weight": 25699.47761334479, "leaf_count": 104475}}, "right_child": {"leaf_index": 20, "leaf_value": 0.17750973639952608, "leaf_weight": 51920.69336517155, "leaf_count": 211071}}, "right_child": {"leaf_index": 18, "leaf_value": -0.10801566951134395, "leaf_weight": 449.376743465662, "leaf_count": 6541}}, "right_child": {"split_index": 35, "split_feature": 4, "split_gain": 9.0949502703358e-13, "threshold": 1.0000000180025095e-35, "decision_type": "<=", "default_left": true, "missing_type": "None", "internal_value": -0.108016, "internal_weight": 3592.06, "internal_count": 52285, "left_child": {"leaf_index": 12, "leaf_value": -0.10801566951134395, "leaf_weight": 1795.652032405138, "leaf_count": 26137}, "right_child": {"leaf_index": 36, "leaf_value": -0.10801566951134395, "leaf_weight": 1796.4077492952347, "leaf_count": 26148}}}}, "right_child": {"split_index": 12, "split_feature": 46, "split_gain": 10921.5, "threshold": 1.0000000180025095e-35, "decision_type": "<=", "default_left": true, "missing_type": "None", "internal_value": 0.176467, "internal_weight": 738191, "internal_count": 3029231, "left_child": {"leaf_index": 10, "leaf_value": -0.10801566951134395, "leaf_weight": 1347.0310058295727, "leaf_count": 19607}, "right_child": {"split_index": 16, "split_feature": 20, "split_gain": 5463.7001953125, "threshold": 1.0000000180025095e-35, "decision_type": "<=", "default_left": true, "missing_type": "None", "internal_value": 0.176987, "internal_weight": 736844, "internal_count": 3009624, "left_child": {"split_index": 21, "split_feature": 7, "split_gain": 28.860599517822266, "threshold": 1.0000000180025095e-35, "decision_type": "<=", "default_left": true, "missing_type": "None", "internal_value": 0.177247, "internal_weight": 736172, "internal_count": 2999842, "left_child": {"split_index": 22, "split_feature": 19, "split_gain": 5492.990234375, "threshold": 1.0000000180025095e-35, "decision_type": "<=", "default_left": true, "missing_type": "None", "internal_value": 0.175756, "internal_weight": 110366, "internal_count": 455779, "left_child": {"split_index": 25, "split_feature": 2, "split_gain": 5.820770254683083e-11, "threshold": 1.0000000180025095e-35, "decision_type": "<=", "default_left": true, "missing_type": "None", "internal_value": 0.17751, "internal_weight": 109688, "internal_count": 445911, "left_child": {"leaf_index": 13, "leaf_value": 0.17750973639952608, "leaf_weight": 106449.831435889, "leaf_count": 432746}, "right_child": {"leaf_index": 26, "leaf_value": 0.17750973639952608, "leaf_weight": 3238.4170641750097, "leaf_count": 13165}}, "right_child": {"split_index": 39, "split_feature": 2, "split_gain": 1.136870003519419e-13, "threshold": 1.0000000180025095e-35, "decision_type": "<=", "default_left": true, "missing_type": "None", "internal_value": -0.108016, "internal_weight": 677.947, "internal_count": 9868, "left_child": {"leaf_index": 23, "leaf_value": -0.10801566951134395, "leaf_weight": 453.5675371289253, "leaf_count": 6602}, "right_child": {"leaf_index": 40, "leaf_value": -0.10801566951134395, "leaf_weight": 224.379214823246, "leaf_count": 3266}}}, "right_child": {"leaf_index": 22, "leaf_value": 0.17750973639952608, "leaf_weight": 625806.0791140348, "leaf_count": 2544063}}, "right_child": {"leaf_index": 17, "leaf_value": -0.10801566951134395, "leaf_weight": 672.0384199023247, "leaf_count": 9782}}}}}, "right_child": {"split_index": 36, "split_feature": 21, "split_gain": 9.0949502703358e-13, "threshold": 1.0000000180025095e-35, "decision_type": "<=", "default_left": true, "missing_type": "None", "internal_value": -0.108016, "internal_weight": 5405.57, "internal_count": 78682, "left_child": {"leaf_index": 8, "leaf_value": -0.10801566951134395, "leaf_weight": 1799.9115276038647, "leaf_count": 26199}, "right_child": {"leaf_index": 37, "leaf_value": -0.10801566951134395, "leaf_weight": 3605.6626857221127, "leaf_count": 52483}}}}}, "right_child": {"leaf_index": 2, "leaf_value": -0.10801566951134395, "leaf_weight": 161243.32815086842, "leaf_count": 2347012}}}}, {"tree_index": 7, "num_leaves": 36, "num_cat": 0, "shrinkage": 0.1, "tree_structure": {"split_index": 0, "split_feature": 25, "split_gain": 2212510, "threshold": 1.0000000180025095e-35, "decision_type": "<=", "default_left": true, "missing_type": "None", "internal_value": 0, "internal_weight": 0, "internal_count": 26886144, "left_child": {"split_index": 2, "split_feature": 42, "split_gain": 278783, "threshold": 1.0000000180025095e-35, "decision_type": "<=", "default_left": true, "missing_type": "None", "internal_value": -0.0904211, "internal_weight": 1320570, "internal_count": 20131182, "left_child": {"split_index": 5, "split_feature": 6, "split_gain": 111431, "threshold": 1.0000000180025095e-35, "decision_type": "<=", "default_left": true, "missing_type": "None", "internal_value": -0.100441, "internal_weight": 1260620, "internal_count": 19764155, "left_child": {"split_index": 13, "split_feature": 43, "split_gain": 5184.77001953125, "threshold": 1.0000000180025095e-35, "decision_type": "<=", "default_left": true, "missing_type": "None", "internal_value": -0.103772, "internal_weight": 1244990, "internal_count": 19698667, "left_child": {"split_index": 14, "split_feature": 45, "split_gain": 50002.3984375, "threshold": 1.0000000180025095e-35, "decision_type": "<=", "default_left": true, "missing_type": "None", "internal_value": -0.0916054, "internal_weight": 273351, "internal_count": 4181067, "left_child": {"leaf_index": 0, "leaf_value": -0.10719497806066669, "leaf_weight": 241292.89991012216, "leaf_count": 3853577}, "right_child": {"split_index": 15, "split_feature": 0, "split_gain": 59307.1015625, "threshold": 1.0000000180025095e-35, "decision_type": "<=", "default_left": true, "missing_type": "None", "internal_value": 0.0257315, "internal_weight": 32058.6, "internal_count": 327490, "left_child": {"split_index": 23, "split_feature": 47, "split_gain": 7.27596021626864e-12, "threshold": 1.0000000180025095e-35, "decision_type": "<=", "default_left": true, "missing_type": "None", "internal_value": 0.164903, "internal_weight": 15661.4, "internal_count": 65618, "left_child": {"leaf_index": 15, "leaf_value": 0.16490300604317787, "leaf_weight": 14078.745856061578, "leaf_count": 58987}, "right_child": {"leaf_index": 24, "leaf_value": 0.16490300604317787, "leaf_weight": 1582.6565814763308, "leaf_count": 6631}}, "right_child": {"leaf_index": 16, "leaf_value": -0.10719497806066669, "leaf_weight": 16397.195199489594, "leaf_count": 261872}}}, "right_child": {"leaf_index": 14, "leaf_value": -0.10719497806066669, "leaf_weight": 971639.2597436905, "leaf_count": 15517600}}, "right_child": {"leaf_index": 6, "leaf_value": 0.16490300604317787, "leaf_weight": 15630.374635457993, "leaf_count": 65488}}, "right_child": {"split_index": 6, "split_feature": 45, "split_gain": 60863.19921875, "threshold": 1.0000000180025095e-35, "decision_type": "<=", "default_left": true, "missing_type": "None", "internal_value": 0.120271, "internal_weight": 59950.4, "internal_count": 367027, "left_child": {"split_index": 26, "split_feature": 2, "split_gain": 1.81899005406716e-12, "threshold": 1.0000000180025095e-35, "decision_type": "<=", "default_left": true, "missing_type": "None", "internal_value": -0.107195, "internal_weight": 9833.61, "internal_count": 157048, "left_child": {"split_index": 32, "split_feature": 10, "split_gain": 2.273740007038838e-13, "threshold": 1.0000000180025095e-35, "decision_type": "<=", "default_left": true, "missing_type": "None", "internal_value": -0.107195, "internal_weight": 1635.01, "internal_count": 26112, "left_child": {"leaf_index": 3, "leaf_value": -0.10719497806066669, "leaf_weight": 817.0671173632145, "leaf_count": 13049}, "right_child": {"leaf_index": 33, "leaf_value": -0.10719497806066669, "leaf_weight": 817.943731635809, "leaf_count": 13063}}, "right_child": {"leaf_index": 27, "leaf_value": -0.10719497806066669, "leaf_weight": 8198.597599744797, "leaf_count": 130936}}, "right_child": {"leaf_index": 7, "leaf_value": 0.16490300604317787, "leaf_weight": 50116.82194568217, "leaf_count": 209979}}}, "right_child": {"split_index": 1, "split_feature": 0, "split_gain": 785755, "threshold": 1.0000000180025095e-35, "decision_type": "<=", "default_left": true, "missing_type": "None", "internal_value": 0.106466, "internal_weight": 1005220, "internal_count": 6754962, "left_child": {"split_index": 3, "split_feature": 48, "split_gain": 180630, "threshold": 1.0000000180025095e-35, "decision_type": "<=", "default_left": true, "missing_type": "None", "internal_value": 0.143051, "internal_weight": 858261, "internal_count": 4407950, "left_child": {"split_index": 24, "split_feature": 1, "split_gain": 3.63798010813432e-12, "threshold": 1.0000000180025095e-35, "decision_type": "<=", "default_left": true, "missing_type": "None", "internal_value": -0.107195, "internal_weight": 27906.2, "internal_count": 445677, "left_child": {"split_index": 25, "split_feature": 2, "split_gain": 1.81899005406716e-12, "threshold": 1.0000000180025095e-35, "decision_type": "<=", "default_left": true, "missing_type": "None", "internal_value": -0.107195, "internal_weight": 13134.6, "internal_count": 209766, "left_child": {"split_index": 27, "split_feature": 8, "split_gain": 9.0949502703358e-13, "threshold": 1.0000000180025095e-35, "decision_type": "<=", "default_left": true, "missing_type": "None", "internal_value": -0.107195, "internal_weight": 6567.47, "internal_count": 104886, "left_child": {"leaf_index": 1, "leaf_value": -0.10719497806066669, "leaf_weight": 3283.984911054373, "leaf_count": 52447}, "right_child": {"leaf_index": 28, "leaf_value": -0.10719497806066669, "leaf_weight": 3283.4839886128902, "leaf_count": 52439}}, "right_child": {"leaf_index": 26, "leaf_value": -0.10719497806066669, "leaf_weight": 6567.093207836151, "leaf_count": 104880}}, "right_child": {"leaf_index": 25, "leaf_value": -0.10719497806066669, "leaf_weight": 14771.639261573553, "leaf_count": 235911}}, "right_child": {"split_index": 4, "split_feature": 29, "split_gain": 117726, "threshold": 1.0000000180025095e-35, "decision_type": "<=", "default_left": true, "missing_type": "None", "internal_value": 0.151461, "internal_weight": 830354, "internal_count": 3962273, "left_child": {"leaf_index": 4, "leaf_value": -0.10719497806066669, "leaf_weight": 17231.3562951684, "leaf_count": 275194}, "right_child": {"split_index": 7, "split_feature": 18, "split_gain": 34582.30078125, "threshold": 1.0000000180025095e-35, "decision_type": "<=", "default_left": true, "missing_type": "None", "internal_value": 0.156942, "internal_weight": 813123, "internal_count": 3687079, "left_child": {"split_index": 8, "split_feature": 34, "split_gain": 17402.099609375, "threshold": 1.0000000180025095e-35, "decision_type": "<=", "default_left": true, "missing_type": "None", "internal_value": 0.158552, "internal_weight": 808196, "internal_count": 3608397, "left_child": {"split_index": 29, "split_feature": 4, "split_gain": 4.5474699852075806e-13, "threshold": 1.0000000180025095e-35, "decision_type": "<=", "default_left": true, "missing_type": "None", "internal_value": -0.107195, "internal_weight": 2456.65, "internal_count": 39234, "left_child": {"leaf_index": 5, "leaf_value": -0.10719497806066669, "leaf_weight": 1641.8985325694084, "leaf_count": 26222}, "right_child": {"leaf_index": 30, "leaf_value": -0.10719497806066669, "leaf_weight": 814.7503510713577, "leaf_count": 13012}}, "right_child": {"split_index": 9, "split_feature": 41, "split_gain": 13657.099609375, "threshold": 1.0000000180025095e-35, "decision_type": "<=", "default_left": true, "missing_type": "None", "internal_value": 0.159363, "internal_weight": 805740, "internal_count": 3569163, "left_child": {"split_index": 10, "split_feature": 43, "split_gain": 37351, "threshold": 1.0000000180025095e-35, "decision_type": "<=", "default_left": true, "missing_type": "None", "internal_value": 0.122567, "internal_weight": 89648.5, "internal_count": 539932, "left_child": {"split_index": 11, "split_feature": 30, "split_gain": 21152.400390625, "threshold": 1.0000000180025095e-35, "decision_type": "<=", "default_left": true, "missing_type": "None", "internal_value": 0.1407, "internal_weight": 83090.7, "internal_count": 435201, "left_child": {"split_index": 18, "split_feature": 2, "split_gain": 2592.7099609375, "threshold": 1.0000000180025095e-35, "decision_type": "<=", "default_left": true, "missing_type": "None", "internal_value": -0.0813818, "internal_weight": 4078.25, "internal_count": 60574, "left_child": {"leaf_index": 9, "leaf_value": -0.10719497806066669, "leaf_weight": 3691.3600865900517, "leaf_count": 58953}, "right_child": {"leaf_index": 19, "leaf_value": 0.16490300604317787, "leaf_weight": 386.89282439649105, "leaf_count": 1621}}, "right_child": {"split_index": 17, "split_feature": 39, "split_gain": 2769.3798828125, "threshold": 1.0000000180025095e-35, "decision_type": "<=", "default_left": true, "missing_type": "None", "internal_value": 0.152163, "internal_weight": 79012.4, "internal_count": 374627, "left_child": {"split_index": 19, "split_feature": 27, "split_gain": 1819.489990234375, "threshold": 